{"hidden_1_layer": {"weight": [[-0.16913162171840668, -0.39873841404914856, -0.956767201423645, 0.15651272237300873, -0.6513353586196899, 1.751219630241394, -0.2855459451675415, -2.006174325942993, 0.4264654517173767, 1.0887550115585327, -2.4148828983306885, -0.9135780334472656, -2.0824344158172607, -0.33341318368911743, -0.002924802014604211, -0.5455524921417236, 0.9216758608818054, 0.0862424373626709, 1.4114910364151, -0.5510290265083313, -1.1142140626907349, 0.01356565486639738, 0.54718017578125, -0.05602307245135307, 0.27816662192344666, 0.003038852708414197, 0.4755581021308899, -0.3655128479003906, 0.5379040837287903, 0.660118818283081, 0.5129959583282471, 0.6122090816497803, -0.11010446399450302, -0.4757958650588989, -1.3728760480880737, -0.521445095539093, 1.8263065814971924, 0.5287915468215942, 0.8960332870483398, -0.5977385640144348, -0.5647211074829102, -1.1393287181854248, 1.4946433305740356, 2.122093677520752, 0.13445448875427246, 0.5805349946022034, -0.9211912751197815, -1.9051986932754517, 0.5282887816429138, 1.2242635488510132], [0.1536220908164978, 0.08583034574985504, -0.4395022690296173, 0.31301212310791016, 1.2783554792404175, 1.9271944761276245, 2.6184005737304688, 0.23967313766479492, -0.3898782432079315, -1.3716317415237427, 0.054706647992134094, 0.1537930965423584, 0.3284856081008911, -1.8244612216949463, 1.0253374576568604, -0.27069294452667236, 0.8231593370437622, -2.058391571044922, -1.0301755666732788, -0.43614619970321655, 0.5096003413200378, 0.5841667652130127, -0.06824464350938797, 2.7670950889587402, -1.0339490175247192, -2.6568493843078613, 0.6278008222579956, 1.4279338121414185, -1.770589828491211, 0.19936443865299225, 1.4386287927627563, -0.6867013573646545, -0.6408032774925232, -0.039875857532024384, 0.728934109210968, -0.8885610699653625, 0.7525883913040161, 2.010697364807129, 0.03696797415614128, -1.1712168455123901, 0.14082548022270203, -1.1479774713516235, 2.1481707096099854, 0.38717180490493774, -1.0716909170150757, -0.013614417985081673, -1.1273391246795654, 0.6841109395027161, 0.9483094811439514, 0.9929941892623901], [-0.13319897651672363, 0.03638773411512375, -1.132759690284729, 0.6226046681404114, 0.16795068979263306, 0.13663041591644287, 0.08574096113443375, 0.3177550137042999, 0.014320113696157932, 0.1748349517583847, 0.6617262363433838, 1.5028355121612549, 1.9498835802078247, 0.5210026502609253, -0.32654237747192383, -1.6489967107772827, -0.008597094565629959, -0.3521248400211334, -0.7702444791793823, -0.18942414224147797, -0.3331882953643799, -0.1527465432882309, 0.5126016139984131, 0.46852901577949524, -1.168323040008545, 0.9218277931213379, 0.05473752319812775, 0.37435683608055115, 0.29319384694099426, -0.35105329751968384, 0.7810632586479187, -0.48446160554885864, 1.6642166376113892, -0.40095055103302, -1.653868556022644, 1.7511398792266846, 0.24485743045806885, -1.1823982000350952, 0.28709399700164795, 1.8672645092010498, -1.6577377319335938, 1.5031440258026123, 0.4276508688926697, 0.6417239904403687, 0.8862780928611755, -1.6069812774658203, 1.9028544425964355, 2.0204074382781982, 0.014200453646481037, 1.121674656867981], [0.8178970217704773, 1.4023756980895996, 1.3519514799118042, 0.4178427755832672, -0.3149603307247162, 0.2542562484741211, -0.3150794506072998, -0.9012278914451599, -1.3342078924179077, 0.1018323302268982, 0.24196548759937286, -0.9984528422355652, -0.8886346220970154, -0.21033267676830292, -0.129757359623909, -0.8557777404785156, 1.3562169075012207, 0.6901784539222717, -0.49563461542129517, 0.6591148376464844, 0.38298606872558594, 1.004845142364502, 0.8114929795265198, -0.9277427196502686, 0.6523759961128235, 1.1549721956253052, -0.35859474539756775, -0.39010000228881836, -1.3914239406585693, 0.14983849227428436, -0.7861046195030212, 0.2718677520751953, 0.15314193069934845, -1.4627561569213867, -0.007223040331155062, -1.6898175477981567, 0.6229419112205505, -0.43688517808914185, 0.5400398969650269, 0.37380728125572205, 0.6295292973518372, 0.10823588818311691, -0.6991264820098877, -1.3366574048995972, -1.3066833019256592, 0.4693968594074249, 0.6026233434677124, 0.9200795888900757, -0.7309998273849487, 1.2636619806289673], [-1.2903380393981934, 1.0689551830291748, 0.7868612408638, 2.0456008911132812, -0.0867411196231842, 0.023384956642985344, 0.08015234768390656, -0.41563963890075684, -0.43422454595565796, 3.1893670558929443, -1.2544268369674683, -0.48605474829673767, -0.19725334644317627, 1.302036166191101, 0.0004976836498826742, 2.0325210094451904, -0.4097289741039276, 0.4854643642902374, -0.05663197860121727, 2.3443939685821533, 0.5366923809051514, 0.4000132977962494, -0.2803039848804474, 1.0414685010910034, 0.42088836431503296, -0.11172008514404297, -0.7209292650222778, -2.6169486045837402, -1.3759160041809082, -0.11605002731084824, -1.7125102281570435, 1.0397526025772095, -0.006268427707254887, -0.3006827235221863, -1.279258370399475, 1.5171937942504883, -0.9145893454551697, 1.304911494255066, -1.2593508958816528, 1.5879405736923218, 2.592634916305542, 0.2127448320388794, -1.5584392547607422, 0.003249020781368017, -0.7444930076599121, 1.0724589824676514, 0.5359095931053162, 1.494149923324585, 0.6572446227073669, 1.377213478088379]], "bias": [-1.032823085784912, 0.4653153717517853, 0.3723406195640564, 1.815930724143982, -0.5967078804969788, 1.0077255964279175, -0.560573935508728, 0.8876318335533142, 1.1894772052764893, -0.9760921001434326, -0.8865517377853394, 2.0064635276794434, 0.729942798614502, 0.3156724274158478, 0.16139915585517883, 1.8917921781539917, -0.820321798324585, -1.0651129484176636, 1.0669647455215454, -0.8160606026649475, -0.9891970753669739, -0.4561886787414551, 0.06349888443946838, -0.2280716598033905, -1.2709603309631348, 2.789039134979248, -1.6191102266311646, -1.3744584321975708, 0.7500177621841431, 0.7601526379585266, -1.4552853107452393, -0.12776239216327667, 0.06979208439588547, 1.5386079549789429, 0.37424901127815247, -0.39041900634765625, -1.2158395051956177, 0.21677380800247192, -1.5915120840072632, 0.84620600938797, 1.7103127241134644, -0.28258052468299866, 0.6682469248771667, 1.6915558576583862, -0.23405878245830536, 0.022448593750596046, -0.2950298488140106, -0.041369978338479996, -0.357511043548584, -0.04549197107553482]}, "hidden_2_layer": {"weight": [[-0.48314395546913147, -1.0386230945587158, -0.9404789209365845, 0.6155818104743958, -0.09451738744974136, -0.9313493371009827, -0.13718079030513763, -0.0865035429596901, 0.06299975514411926, -0.27612462639808655, -2.0157413482666016, 0.9994029402732849, 0.0852426066994667, 1.522458553314209, 1.961503267288208, 0.4570498466491699, 0.7922872304916382, -2.0548782348632812, 0.2942148745059967, 1.206605076789856, 1.8591350317001343, 1.590538501739502, -1.0249065160751343, -1.5037317276000977, -0.6048877835273743, 1.2263829708099365, 0.6065188050270081, -1.1286628246307373, -1.7867354154586792, -0.7758426070213318, -1.1927685737609863, -0.5444099307060242, -0.18242014944553375, 1.080078363418579, -0.8270161151885986, -0.21163421869277954, -1.142008662223816, 1.2789368629455566, -1.1323281526565552, 1.1241717338562012, 0.640606164932251, 1.8778239488601685, -0.5389088988304138, 0.815179705619812, 0.5447632670402527, -0.575305163860321, 0.8509159088134766, 0.3879963457584381, -1.2201733589172363, -0.22648803889751434], [1.0421932935714722, 1.920587182044983, 0.9420762062072754, -0.8882849812507629, 0.45773547887802124, 1.0702877044677734, 1.4320327043533325, 1.0988943576812744, -0.9546536207199097, 2.494091033935547, -0.16688172519207, -0.9832702279090881, -1.3682550191879272, 0.646538257598877, -1.1666120290756226, 0.06986944377422333, -1.0147957801818848, 0.8279696106910706, -1.1423053741455078, -1.1621184349060059, -0.5516604781150818, 0.6603677272796631, 1.6098012924194336, -0.07046173512935638, 0.5425949096679688, 0.5788537859916687, -0.5104737877845764, -0.6819291114807129, 0.0667833611369133, 0.8982560038566589, -0.9264328479766846, -0.019476763904094696, -0.6152037382125854, -0.7046256065368652, 0.2025154083967209, -1.3595589399337769, 0.06351665407419205, -1.119850754737854, 1.9492853879928589, 1.7961304187774658, -1.0812162160873413, -1.9000705480575562, 0.24923175573349, -0.19234205782413483, 1.324833869934082, 0.3379528522491455, 0.35437047481536865, 0.9467871189117432, -1.0685679912567139, -0.7689512968063354], [-1.2196677923202515, 0.5757738351821899, 1.5480185747146606, 2.6473515033721924, 1.5220381021499634, -0.6004660725593567, 0.36897170543670654, -0.25836530327796936, 0.046019867062568665, 0.07643831521272659, 0.6490859389305115, 1.5870939493179321, 0.13249430060386658, 2.818272590637207, -0.2030797153711319, 0.03527424484491348, -0.2854622006416321, 0.9560670852661133, 0.6247574090957642, -0.9235538840293884, 1.0187935829162598, 1.19190514087677, 0.07080607116222382, -0.10181494057178497, 0.5656746625900269, 1.4886785745620728, -1.2390594482421875, 0.6782431602478027, 0.782313883304596, 0.7347298264503479, -1.0762121677398682, 0.5280171036720276, 0.32292819023132324, -2.2801709175109863, -0.8535013198852539, -0.8962782025337219, 1.4976764917373657, 2.656399965286255, -0.6412739157676697, -1.476850152015686, -1.0221061706542969, -0.18108315765857697, 1.4282108545303345, 1.4223557710647583, -0.2845020890235901, -0.02453419379889965, 0.12427514791488647, -1.2357256412506104, -0.12612047791481018, 0.9890817999839783], [0.5187575221061707, -0.36274459958076477, -0.5113632678985596, -0.3272494375705719, 0.4050697684288025, 0.7793579697608948, -0.4387143552303314, 1.3756977319717407, -0.3119656443595886, 0.6348326802253723, 0.5574725270271301, -0.31444767117500305, 0.6099921464920044, -1.1950218677520752, 1.2513972520828247, 0.18042555451393127, -0.5469732880592346, 0.16366422176361084, 0.5460841655731201, -1.907749891281128, -0.6096171736717224, -1.6265679597854614, -0.7058431506156921, -0.5809906125068665, 0.6699250340461731, 0.2776065170764923, 0.44962966442108154, -1.1883399486541748, 0.31962668895721436, -0.6241883635520935, -1.6526349782943726, 0.3800160586833954, -0.07139948010444641, 1.21394681930542, 0.037291549146175385, -1.5385209321975708, -0.12201499938964844, -0.3412821292877197, 0.3032931685447693, -0.6922878623008728, -1.9983690977096558, 1.4795544147491455, -0.0855192020535469, -0.6520547866821289, -1.266530156135559, 0.465945839881897, 0.8279778957366943, 0.545253574848175, -0.6931486129760742, -1.4139034748077393], [0.4536277651786804, -1.7415070533752441, 0.6864333748817444, 0.42450883984565735, -1.651113748550415, 2.175079822540283, -0.39835691452026367, -0.9451368451118469, 1.088794469833374, -0.18597795069217682, -0.34398314356803894, -0.026739249005913734, -1.078038215637207, 0.9529769420623779, -0.696612536907196, -1.2053130865097046, 0.8663445711135864, 1.3701144456863403, 0.6432228088378906, -0.15543411672115326, -1.0317375659942627, -0.16164630651474, 0.8244109153747559, 0.23353594541549683, -2.054636240005493, -0.4498373568058014, -0.12658736109733582, 0.7125205993652344, -1.7235947847366333, -0.29540881514549255, 1.0015791654586792, -0.7199680209159851, 1.6662938594818115, -0.6426392793655396, -0.6924998164176941, -0.669003963470459, -1.546926498413086, 1.4740339517593384, 0.9888492822647095, -1.0374557971954346, 0.36194756627082825, 0.9806773662567139, -0.48622578382492065, -0.588356077671051, -1.0416079759597778, 0.9702466726303101, -0.27101755142211914, -0.8319435715675354, -0.7871115803718567, 1.7781455516815186], [-0.5263708233833313, 1.4338018894195557, -0.43962937593460083, -1.1467384099960327, -0.08981375396251678, -0.14358821511268616, -0.24805882573127747, 0.05419537052512169, 0.0463174432516098, -3.061391830444336, 0.010486122220754623, -0.7985959053039551, -1.6758378744125366, -1.4090696573257446, 0.384487122297287, 1.1263095140457153, -0.9682369232177734, -1.035772681236267, 2.064781665802002, 1.7629766464233398, -0.8506802320480347, 1.4029498100280762, 0.5168880820274353, -1.2257684469223022, -0.6178879141807556, 1.4961448907852173, -0.6570850610733032, -1.0786813497543335, -0.6907443404197693, 0.011118385009467602, 0.6030469536781311, -0.5858685374259949, 0.29860720038414, 0.3850341737270355, -0.4984704554080963, 1.522329330444336, 1.2577085494995117, 0.5184112787246704, 0.8857733011245728, -0.902352511882782, 0.7707741856575012, 0.2943475544452667, -1.2094416618347168, 1.1473889350891113, -0.41525352001190186, -0.5761985778808594, -1.1446115970611572, 0.6093668937683105, -0.13793036341667175, 0.0029448799323290586], [-2.164032459259033, 0.7248010635375977, 0.3866204619407654, 1.6286588907241821, -0.1613529771566391, -0.24048694968223572, 1.9016491174697876, -0.9933222532272339, 0.8632654547691345, 1.5615572929382324, 0.23751682043075562, -0.3558703660964966, -0.20807285606861115, -0.47098320722579956, -1.0191199779510498, -0.29918456077575684, 1.6986608505249023, -1.3753204345703125, -1.032014012336731, -0.7585031390190125, -0.028506038710474968, 1.970636248588562, 0.3349645733833313, -1.381203532218933, -0.36488616466522217, 0.45563966035842896, -1.2058266401290894, -0.23004582524299622, -0.10003846883773804, -0.272736519575119, 1.2881964445114136, 0.032253555953502655, -2.0599961280822754, -0.3580622673034668, -0.07068762183189392, -0.7772887349128723, -1.0660654306411743, 1.2324284315109253, -0.06697843968868256, 0.565237820148468, 0.12242072075605392, 0.5970625281333923, 0.34176331758499146, -0.364692360162735, 1.148557186126709, -0.20507602393627167, 0.6261441707611084, -0.7449638247489929, 0.8626474738121033, 0.820254921913147], [0.24463775753974915, 0.06160842999815941, -0.08714334666728973, 1.3903000354766846, 1.0296459197998047, -0.3794305920600891, -0.4199993908405304, 1.5637226104736328, 1.0125024318695068, -0.24543744325637817, -0.19879822432994843, -0.06787583976984024, 0.18696977198123932, -0.9479148387908936, -1.9337059259414673, -1.5239975452423096, 1.0477890968322754, -0.051621317863464355, 0.9806026816368103, -0.29086098074913025, -1.614906907081604, 0.5959586501121521, -1.7686384916305542, 1.0367790460586548, -1.785735845565796, 0.04200729355216026, 0.7179508805274963, -0.38172706961631775, -0.3299669027328491, 1.8237000703811646, 0.7398388981819153, 0.1832808256149292, 1.5923337936401367, 0.4751529097557068, 1.2054215669631958, 0.9478307962417603, -0.8390563726425171, 0.3327646851539612, -0.3831237852573395, -0.6956647038459778, 1.603452444076538, -1.0826809406280518, 2.6804986000061035, -0.9996505975723267, 0.6611168384552002, 0.21871423721313477, 0.6824930310249329, 1.2114702463150024, 1.4539353847503662, 0.5840274691581726], [0.12316282838582993, -0.4083356559276581, -0.8729552030563354, -2.273883819580078, 1.1736903190612793, -0.09963061660528183, 0.1817469745874405, -0.5624003410339355, 0.26500120759010315, 0.7783339619636536, 1.4947165250778198, -0.17965400218963623, -1.8949031829833984, 0.3383042812347412, 2.075833320617676, 0.9737234115600586, -1.115848183631897, -2.6267499923706055, 1.1925359964370728, -1.386931300163269, -0.2508317828178406, -0.8896521329879761, -0.4496462047100067, 0.6778512597084045, 0.6739782691001892, 0.06803074479103088, -0.009048199281096458, -1.9684367179870605, -0.4820046126842499, -0.47102421522140503, 0.9434772729873657, -0.009172308258712292, -0.17597268521785736, -1.1047022342681885, 1.8889994621276855, -1.182364821434021, -0.11331400275230408, -0.2181910276412964, -0.240134134888649, 0.1657768040895462, 0.13705003261566162, 0.6868894696235657, 1.2700775861740112, -0.12768536806106567, 0.06981833279132843, 1.0986195802688599, 1.3273946046829224, -0.9322676658630371, -0.5219281315803528, 0.4247399568557739], [-1.7066707611083984, -1.8805491924285889, 0.243912011384964, -0.4800325632095337, -1.0477089881896973, 0.05530174449086189, 0.014077429659664631, -1.11356520652771, -0.8886945843696594, -1.2568888664245605, 1.1641838550567627, -2.144176721572876, -1.3075642585754395, -0.14617453515529633, 0.20316217839717865, -0.24519336223602295, -1.2600147724151611, -0.13619785010814667, 0.035389069467782974, 1.3645111322402954, 1.4127719402313232, -0.4580708146095276, -0.7965914607048035, -0.8194530010223389, 0.0974280834197998, 1.4159576892852783, 0.19504964351654053, 2.5367822647094727, 0.15283671021461487, 0.8994219303131104, -1.0162328481674194, 0.24423179030418396, 0.8030247688293457, -0.4020760953426361, -1.1776710748672485, -0.9094029664993286, -0.5248883366584778, 0.6571784019470215, -0.16470329463481903, -0.258224755525589, -0.1224668025970459, -0.5146496891975403, 2.2256486415863037, 0.5625277161598206, -0.03213752433657646, -0.9561464190483093, -0.7722954750061035, 1.3802562952041626, 0.6832249164581299, -1.5316951274871826], [0.5055834054946899, -0.4433021545410156, 0.2315841019153595, -0.8511403799057007, -1.1935044527053833, 0.00812489539384842, -0.2282702922821045, -0.17988409101963043, 0.5730549693107605, -1.2923502922058105, 0.6309525966644287, 0.17637115716934204, 1.2598248720169067, 0.9390046000480652, 0.8178215026855469, 0.42057064175605774, 0.0023038366343826056, 1.4895834922790527, 0.7777359485626221, 0.46092188358306885, -1.9969984292984009, 0.8907966613769531, -0.024082092568278313, -0.5122032165527344, 1.2366141080856323, -0.820850133895874, -0.42328718304634094, 1.179338812828064, 1.5707030296325684, -0.019334303215146065, -1.049739956855774, 0.8209410905838013, 0.10647676140069962, -0.6374481320381165, 1.3014581203460693, -0.14564616978168488, -0.629470944404602, -2.044004440307617, -1.0392615795135498, -0.5453936457633972, 1.3399752378463745, -0.2878318428993225, -0.08704985678195953, -0.2906930446624756, -1.1064660549163818, 0.31922152638435364, 0.744776725769043, 0.9876999258995056, 1.9814807176589966, -0.1499948501586914], [-1.1424248218536377, -1.422217845916748, 1.4247150421142578, 0.8805744051933289, -1.0173379182815552, 0.10468429327011108, 2.7691593170166016, -0.7161515355110168, -0.6550185084342957, 1.272106409072876, -0.20233669877052307, -1.3601402044296265, -0.16392306983470917, -1.3485416173934937, 0.6009177565574646, -0.6485818028450012, -0.10657253861427307, 0.11068636924028397, 0.2345106452703476, -0.6254249811172485, 0.0991913229227066, 0.3293733298778534, -0.35640013217926025, 1.0166889429092407, -0.7661135792732239, 1.199823021888733, 0.6056823134422302, 0.12742118537425995, 0.8041529059410095, -1.1448050737380981, -1.1313928365707397, 0.26826655864715576, -0.8159363865852356, 0.8019640445709229, 1.712411642074585, -0.4124131202697754, 0.11872231960296631, 1.4440600872039795, -0.22630639374256134, 0.0671599954366684, 0.787134051322937, -0.3258930444717407, -0.757022500038147, -1.2576159238815308, 1.2618279457092285, 0.8903087973594666, 0.48593389987945557, 1.1107587814331055, -2.493617534637451, 0.07972453534603119], [-0.4666061997413635, 0.44038236141204834, -1.0325568914413452, -0.8690406680107117, -0.11335955560207367, 1.527469277381897, -0.9430036544799805, 0.5450279712677002, 0.7814143896102905, 0.3727646768093109, 2.291700601577759, 1.7663109302520752, -1.2681854963302612, 2.2607462406158447, -1.353621244430542, 1.3870015144348145, 0.4212473928928375, 0.192511186003685, -1.3260937929153442, -0.5925964713096619, 1.4037816524505615, -0.31463897228240967, -0.6923878192901611, -1.51716947555542, 0.5703185796737671, -1.5713975429534912, -0.8422213792800903, 0.6531139612197876, -1.03132164478302, 2.1404964923858643, -0.5975654125213623, 0.6975820660591125, -0.7245916724205017, -0.00818574894219637, 0.7376746535301208, 1.1071326732635498, -0.4779778718948364, -2.247319221496582, 0.6668416857719421, 0.18296319246292114, 0.2664605677127838, 0.10340669006109238, 0.4329376816749573, 0.5541319847106934, -1.6831843852996826, 1.3293063640594482, -1.9912872314453125, 1.5659455060958862, 1.1724581718444824, -0.4504670202732086], [0.30984681844711304, 1.5579917430877686, -0.5286486148834229, -1.762691617012024, -1.0669522285461426, 1.212609052658081, -0.24704889953136444, 0.7884035706520081, 0.8501709699630737, 0.16256162524223328, -0.06856713443994522, -1.2397229671478271, -0.39015382528305054, -1.0410147905349731, 0.4186302423477173, 0.005688393488526344, 1.2058141231536865, -1.3180376291275024, -2.838075637817383, 2.777698278427124, 0.5933230519294739, -0.6572505235671997, -1.2558403015136719, 0.1586993783712387, 0.934166669845581, -0.7193397283554077, -0.5383224487304688, -0.20236369967460632, -1.275393009185791, 0.4035338759422302, 1.3173418045043945, -0.9313949346542358, -1.3357826471328735, 0.19637411832809448, -1.0732831954956055, -1.8089293241500854, 0.5832318067550659, -0.39577001333236694, -0.784991443157196, -0.11676546931266785, 1.74497652053833, -0.4753234088420868, -0.25052735209465027, -0.9318041801452637, 0.4486237168312073, 0.3838115334510803, 0.40594080090522766, -0.8637568950653076, -0.35500428080558777, -0.4611372649669647], [-0.2526591420173645, 1.5209389925003052, -0.31967803835868835, -1.0874048471450806, -0.4590814411640167, 0.4451053738594055, -0.5935643315315247, -0.5414542555809021, -0.6038327217102051, -2.064030647277832, 2.114861488342285, 1.767388105392456, 0.4497836232185364, -0.09025376290082932, 0.14468012750148773, 2.3122494220733643, -0.10137643665075302, -1.3065218925476074, 0.4574541747570038, -0.13268433511257172, 0.1471680849790573, -0.08249180018901825, 1.4441697597503662, -0.251033216714859, -1.833051323890686, 1.563684344291687, 1.2538431882858276, 0.33663031458854675, -1.1108263731002808, -0.5330446362495422, 0.0010853104759007692, 0.22196921706199646, 0.5718500018119812, -0.935607373714447, 0.13890604674816132, -1.213506817817688, -1.46825110912323, 0.8691308498382568, 0.4772612154483795, 0.031147204339504242, -0.08267661184072495, -0.41751226782798767, -0.9234392642974854, -0.6589504480361938, -1.8144009113311768, -0.1906837821006775, -0.4479151964187622, 1.5478051900863647, -2.222503185272217, -0.6311237215995789], [2.1945903301239014, 1.786055564880371, 0.5397058725357056, -0.6319102048873901, 0.9902149438858032, -0.35897761583328247, 1.686415433883667, -0.5289707779884338, 1.37839674949646, 0.1257230043411255, 1.3600374460220337, 0.9970766305923462, -0.6378663778305054, 0.4414133131504059, 0.916658341884613, 0.6548900604248047, 1.6552485227584839, -2.0288732051849365, 0.7173292636871338, 0.7541652917861938, 1.5960413217544556, 0.7897818088531494, -0.6192545890808105, 0.5747235417366028, -1.280450463294983, 0.4515314996242523, 1.6530133485794067, 0.23316697776317596, -0.2650836408138275, 0.15563790500164032, 0.9034854769706726, -0.2958911061286926, 0.04781821742653847, -1.0482794046401978, -0.7227911949157715, 0.2091074287891388, 0.8041919469833374, 0.7489271759986877, -1.2494667768478394, -1.6854026317596436, -0.9472833275794983, 0.2211625874042511, -0.13407178223133087, -0.041511643677949905, -1.4254627227783203, 1.0177712440490723, -0.34315812587738037, -0.9257831573486328, -0.711166501045227, 0.5973407626152039], [-0.584760308265686, -0.041338443756103516, -0.1200346127152443, 0.9458602070808411, -0.005733687896281481, -0.08504222333431244, 0.014430690556764603, -0.15172041952610016, 0.89194655418396, -0.6620330214500427, -0.34414440393447876, -0.010893834754824638, 1.1015095710754395, -0.8887832760810852, 1.8721034526824951, -0.7024771571159363, -2.934044122695923, -0.007648361846804619, 0.6724838614463806, -1.6758908033370972, -0.4246566593647003, 0.015250065363943577, 0.286740243434906, 0.7838078737258911, -1.1287540197372437, -0.8249706625938416, 0.08846470713615417, 0.8069201111793518, 1.099239706993103, -0.9573765397071838, 0.11797084659337997, 0.05130508542060852, -0.8292202949523926, -1.0923641920089722, 2.8256711959838867, -0.861041784286499, -0.9114585518836975, 0.4315783679485321, -0.7998783588409424, 1.9909991025924683, -2.5460517406463623, 0.8512163758277893, 0.16198454797267914, 0.06792198121547699, 0.802668035030365, -0.5553224086761475, 0.820466935634613, -1.2650419473648071, 0.05301922559738159, 0.7474257349967957], [2.7047019004821777, 1.373384952545166, -0.9296092987060547, 0.22490781545639038, 0.31301048398017883, 0.6179875731468201, 0.9282350540161133, 1.1013374328613281, 0.5484922528266907, -0.026284610852599144, -0.8624467849731445, 0.3596736788749695, 0.5684519410133362, -0.6117754578590393, 0.35775721073150635, 1.04475736618042, -0.15201915800571442, -0.33257168531417847, -2.271017551422119, -0.8144957423210144, -1.1196444034576416, -0.7803341150283813, -0.8693308234214783, -1.0065048933029175, 0.13765351474285126, -0.8929970860481262, -2.687577724456787, 0.06456845253705978, -0.632982075214386, -1.530672311782837, -1.1426130533218384, 0.08375377207994461, -2.4316599369049072, -1.2125728130340576, 1.0508712530136108, -1.6632150411605835, -1.6363521814346313, 2.7512407302856445, 0.2030627727508545, -0.29381051659584045, -0.3083018958568573, -0.16969817876815796, -0.14591456949710846, -1.3290518522262573, -0.33357787132263184, 0.10370461642742157, 0.5603450536727905, -0.18458682298660278, -0.8934916853904724, 0.3666958212852478], [-1.3238704204559326, -0.43274959921836853, 0.11254549771547318, -0.14006462693214417, -0.4010719656944275, 0.3120277523994446, -1.6397455930709839, -0.6740855574607849, -0.16413713991641998, 0.42989805340766907, -0.7253885269165039, -0.8826524615287781, -0.33206626772880554, 0.3429115116596222, 2.0952188968658447, -0.08606582134962082, 0.33560851216316223, 0.7747992277145386, -0.8570045828819275, 1.3292200565338135, -0.6215705871582031, 1.2124910354614258, 1.2294853925704956, -2.239337921142578, -0.24197173118591309, 0.6469012498855591, 0.17069484293460846, 1.2363266944885254, -0.20062750577926636, -0.6774023771286011, -0.8772525787353516, 0.39818423986434937, 0.3857477605342865, -0.6632121801376343, -0.27926838397979736, 0.2562526762485504, 0.40953338146209717, -1.3510398864746094, -1.5331214666366577, -0.5970802903175354, -0.17104609310626984, -0.9525510668754578, -0.3418198227882385, 1.872122883796692, 0.2380138784646988, 1.0299280881881714, 1.0594295263290405, -2.072862386703491, -1.3156511783599854, 0.8244133591651917], [0.410271018743515, -1.188960075378418, -1.3391227722167969, 0.1139211431145668, 0.4259311556816101, 0.6613563299179077, 0.555120587348938, 0.20910699665546417, 0.18251796066761017, 0.010251338593661785, -0.08128377050161362, 0.08421716839075089, -0.38574886322021484, -1.0765249729156494, -0.43086758255958557, -0.9426993131637573, -1.2369593381881714, 0.5734391808509827, -0.599989116191864, -0.07130788266658783, -0.5352801084518433, 1.0100722312927246, -0.1771807223558426, -0.3745301365852356, 1.3757838010787964, -0.5346779227256775, 0.1979205161333084, -0.006393925286829472, 0.9972422122955322, 0.0791947990655899, 1.0796993970870972, -0.12603016197681427, 0.656647264957428, -0.7815842032432556, 0.6506127119064331, -0.5990108847618103, -0.5406268239021301, 0.17787432670593262, 0.9957089424133301, -0.05162404105067253, -0.7588102221488953, -0.6051344871520996, 1.2672955989837646, -0.16820815205574036, -0.3744569718837738, -1.521545648574829, 1.2362360954284668, -0.11373915523290634, -1.7069472074508667, -0.6130272150039673], [-0.050403330475091934, -0.513002336025238, -1.5937936305999756, 0.8458685278892517, 0.6013988256454468, 0.4766920804977417, -1.596123218536377, -0.18205885589122772, -0.8916342258453369, -0.23350784182548523, 0.40629059076309204, -0.2792935073375702, -0.6548693180084229, 0.6841158270835876, 0.3249073922634125, 0.49640125036239624, -1.5446380376815796, 2.5915205478668213, 1.1437950134277344, 0.4959683120250702, -0.3156995177268982, 0.05494430288672447, -1.2258665561676025, 0.8093351125717163, -1.3511056900024414, -0.012375042773783207, 1.6831194162368774, -0.63093101978302, -0.09225350618362427, -0.631649374961853, -0.4904140532016754, -0.1335401087999344, -0.029679017141461372, 1.1310045719146729, -1.1352487802505493, 1.805250644683838, 1.295280933380127, 1.6387304067611694, 0.3569415807723999, 0.4019441306591034, -0.23100367188453674, -1.1134408712387085, -0.0343778021633625, -0.10822635889053345, -0.5170884132385254, 0.36956271529197693, -0.8556968569755554, -0.7585464715957642, 0.7242165207862854, -0.032708920538425446], [-1.2230886220932007, 0.19380399584770203, -0.1398295760154724, -0.1885794699192047, 0.4941492974758148, 1.9904149770736694, -1.5537294149398804, 0.1770801544189453, -0.5779174566268921, 1.0391446352005005, 0.6643841862678528, 1.2091584205627441, -0.0585474856197834, 0.7232464551925659, -0.2545572519302368, 1.005642294883728, 1.4780856370925903, -0.791010856628418, -1.229211688041687, 0.7901585102081299, 2.2122600078582764, 0.8524482846260071, 1.2962696552276611, 0.2511794865131378, -0.9941219091415405, -1.097440242767334, -0.913006603717804, 0.9519622325897217, -0.28696200251579285, 0.8326283693313599, 0.44751983880996704, -0.6127476692199707, 0.9430151581764221, 0.9837397336959839, -1.6461204290390015, 0.06739471107721329, -0.36676424741744995, -0.8625813722610474, 0.899895429611206, 1.1134657859802246, -1.1166191101074219, -0.5933458805084229, -0.04677652195096016, -0.5583690404891968, 0.37823769450187683, 0.5823370814323425, 0.7986266613006592, 0.16977687180042267, 1.0450712442398071, -1.6416072845458984], [-0.22714288532733917, -2.3289144039154053, 0.7851011753082275, -0.46029791235923767, -0.305320680141449, -0.5381144881248474, 0.4346213638782501, -1.1229000091552734, 0.216708704829216, 0.7330390810966492, -0.7451360821723938, -1.873937964439392, -0.24043211340904236, -0.8976238965988159, 0.2713632881641388, 2.130523920059204, -1.2005044221878052, 0.23303894698619843, 1.4072312116622925, -0.14518827199935913, -1.5495859384536743, 0.25891339778900146, 0.7257241606712341, -0.001977068604901433, 0.3954005837440491, -2.093607187271118, 0.49411848187446594, 1.1950368881225586, -0.41841140389442444, 0.5827715992927551, -0.011441175825893879, 0.7734115719795227, 0.4281004071235657, 0.12485581636428833, 0.09639333933591843, -0.702643871307373, 1.7519899606704712, 0.020616630092263222, -0.03992597758769989, -0.8467019200325012, 0.8433060050010681, -0.9186866283416748, 0.1230723187327385, -0.37050721049308777, -0.2609841823577881, -1.0858827829360962, -0.16380703449249268, 0.7673099040985107, 0.22273382544517517, -0.4894643723964691], [0.6618809103965759, 0.8994745016098022, 0.7663019299507141, 0.6935821175575256, -0.22907418012619019, -0.02064354158937931, 0.16038240492343903, 0.12394877523183823, -0.4691198170185089, 0.7846193909645081, 0.44170936942100525, -0.550861656665802, 0.512047290802002, -1.5535467863082886, -0.11005134880542755, 0.9044436812400818, -1.2732442617416382, 0.06419895589351654, -0.6289273500442505, -0.4234762191772461, 0.2310768961906433, 0.1419488936662674, -1.1971255540847778, 0.7538654208183289, 1.384077548980713, 0.6722524166107178, -0.8199502229690552, -0.35742223262786865, 0.29906025528907776, -0.7341350317001343, 0.07482093572616577, 0.6270173192024231, 0.5739367008209229, 1.0863679647445679, -1.1761831045150757, 0.06956227123737335, -0.9738567471504211, 0.04860387742519379, -1.212760090827942, -0.15317857265472412, 0.22079187631607056, -0.3955376148223877, -0.6602398157119751, -1.2306747436523438, -0.20794042944908142, 3.251258373260498, 0.19230608642101288, 0.3270917236804962, 1.4773375988006592, -0.2457813322544098], [-1.8913233280181885, 0.02773883379995823, 1.245439052581787, 0.15224125981330872, -0.44261687994003296, 1.1152251958847046, -0.19592982530593872, 0.9553914070129395, 0.00032572835334576666, 0.03130706772208214, 0.006030534394085407, -0.11000056564807892, -0.4873080551624298, 1.9637318849563599, 0.15019795298576355, -0.47844281792640686, 1.8058995008468628, -0.9627214074134827, -0.11427829414606094, -0.8060992956161499, -0.24849380552768707, -0.24735435843467712, -1.2374166250228882, -0.3760903775691986, -0.05731334537267685, -0.8696413636207581, -1.4879390001296997, -0.4474518299102783, 0.24926036596298218, 0.588914155960083, -0.09669660031795502, -0.047776494175195694, 1.7598791122436523, 0.5260462164878845, -1.299139142036438, 0.06621142476797104, -1.2184531688690186, -0.27924177050590515, 0.28591543436050415, 0.7742516994476318, 0.3577284514904022, -0.01003186497837305, 1.5124783515930176, 0.3176466226577759, 0.6544008851051331, -0.25799423456192017, 1.2252390384674072, -1.5690163373947144, 0.16724416613578796, 0.4511803984642029], [-1.7945109605789185, 1.1725494861602783, 1.7496823072433472, -1.8295115232467651, -1.0961395502090454, 1.026903510093689, 0.3483175039291382, 1.2002427577972412, 0.21854731440544128, 1.919980525970459, -1.2712475061416626, -0.6207543611526489, -1.2003512382507324, 0.10663248598575592, -0.17718446254730225, 0.7108709216117859, -0.4551588296890259, -0.04071493446826935, -0.6054335832595825, -0.9746726155281067, 1.6473231315612793, -0.7956457138061523, 0.8553799986839294, 3.301084518432617, -1.2731572389602661, -0.342217355966568, 1.0507084131240845, -1.1843808889389038, -1.73292875289917, -0.05033895745873451, -0.562514066696167, 1.5237661600112915, -0.11056897789239883, 0.16263578832149506, -0.7177237868309021, 0.4128154516220093, 1.134641408920288, 0.1661272794008255, 0.019284890964627266, -0.5619286298751831, -1.782601237297058, -0.8635714054107666, 0.5671219825744629, -0.3551461398601532, -1.1897163391113281, 0.45965003967285156, -0.5532738566398621, -1.069417953491211, -0.3185797929763794, -0.5194107890129089], [-0.39384347200393677, -1.9600211381912231, 0.8245927095413208, -0.16275979578495026, 1.5570313930511475, -1.1328022480010986, -0.5734885931015015, 0.18033111095428467, -0.13916468620300293, -1.368204116821289, 0.5320019721984863, -1.4225544929504395, 0.3802860677242279, -1.6108332872390747, 1.1672919988632202, -0.11512166261672974, -1.3141402006149292, -0.7371339201927185, 2.3589234352111816, -1.2389847040176392, -0.14882409572601318, 0.752747654914856, -0.5285578370094299, -1.2498279809951782, -0.03549386188387871, 1.826354742050171, 0.08258455246686935, 1.0743145942687988, -1.0379027128219604, 1.1461559534072876, -1.586006999015808, -1.0298545360565186, -1.3151575326919556, 0.31637346744537354, 1.501763105392456, -1.2145100831985474, -1.204027533531189, 1.9045718908309937, -0.547184407711029, 1.1912251710891724, -0.24447080492973328, 1.155669927597046, -0.42863062024116516, 0.542383074760437, -1.3111869096755981, -1.848428726196289, -0.5432340502738953, -0.24757860600948334, -1.4073858261108398, -0.09088661521673203], [-0.6182316541671753, -0.10328266024589539, -0.9855015873908997, -0.5797338485717773, -0.23738259077072144, 0.8268465399742126, 0.1050628200173378, 1.320125699043274, 0.12735998630523682, -0.5973966121673584, 1.2359657287597656, -1.450875997543335, -0.495119571685791, -0.8824983835220337, 0.8657160401344299, 0.17078806459903717, -0.5422323942184448, -0.5290618538856506, 0.1427907794713974, 0.4251227080821991, 0.9281119704246521, -1.1654493808746338, 2.040576934814453, 0.2987438142299652, 2.161700487136841, 0.1491360366344452, 0.33264872431755066, -0.3280237019062042, 0.07230152934789658, -0.7871271371841431, -0.8151788115501404, 1.225370168685913, -0.9161581993103027, 0.2671995759010315, 0.12097658216953278, 0.3239588141441345, -0.21428951621055603, 0.8683399558067322, -0.6966936588287354, 0.29045554995536804, 0.24900969862937927, -0.09376931190490723, 0.9504462480545044, 0.6565276384353638, -0.20765289664268494, 0.2944277822971344, -0.9331046938896179, -1.1747081279754639, 0.0033929806668311357, -0.7355797290802002], [-0.8075700998306274, -0.7124871015548706, -0.6285914778709412, -0.0644647479057312, -0.3767441213130951, 1.4074469804763794, -0.9997619390487671, -0.8962528705596924, 1.6467154026031494, -0.8253545761108398, -1.1544126272201538, 1.7854360342025757, 0.4277595579624176, 0.8193187117576599, 0.31182944774627686, -1.3704365491867065, 0.46200039982795715, 1.2826976776123047, -1.7861213684082031, -0.8506118655204773, 0.8960477709770203, -0.07778175175189972, 1.1204310655593872, 0.398787260055542, -0.7941590547561646, -0.05950695648789406, 1.2181071043014526, 0.771038830280304, -0.8161177635192871, -1.032724380493164, -1.2571760416030884, 0.6184921860694885, 0.920737087726593, -1.736574411392212, -0.8912398815155029, 0.365820974111557, -1.7310858964920044, 1.2995513677597046, -0.01682121865451336, -1.1521012783050537, 0.6483641266822815, -0.08696242421865463, 0.7873233556747437, -1.5802127122879028, -1.287305235862732, -0.6351091861724854, -0.9790424108505249, -1.1819308996200562, -0.9188461899757385, -0.46437111496925354], [0.8191584944725037, 0.764489471912384, 0.18134509027004242, -0.331933856010437, -0.26863205432891846, -0.4548458158969879, 0.07874339073896408, 0.8336538076400757, 0.33672434091567993, -1.185149073600769, -0.8839516639709473, 0.18494676053524017, -0.8834630250930786, 1.1165112257003784, -0.4541516602039337, 0.6937577724456787, 0.19081462919712067, 0.018454845994710922, -0.46320876479148865, -0.2515614330768585, -1.5789518356323242, 0.6256580948829651, -0.34198611974716187, 0.481884628534317, -1.6156246662139893, -1.3688315153121948, 0.5985428690910339, -0.1598522663116455, 0.48814311623573303, 0.15639887750148773, 0.2987695038318634, -0.802289605140686, 0.835270345211029, -0.40671399235725403, -1.5461485385894775, 0.847416877746582, -0.5611368417739868, -0.6088120341300964, 1.456312656402588, 0.38602936267852783, -0.11524858325719833, 2.970008134841919, -0.9480926394462585, 0.08599572628736496, -0.07858914881944656, -0.05802234262228012, -1.0022839307785034, -0.20116347074508667, -1.608373761177063, 0.9011440277099609], [0.4619060456752777, -2.018585205078125, 1.6650750637054443, 0.13197742402553558, -0.171990305185318, -0.3452702462673187, -0.2580353617668152, 0.7242850065231323, -2.381830930709839, -0.13011376559734344, -0.49051040410995483, -0.4528273642063141, 0.7161877751350403, 0.036614783108234406, 1.0824445486068726, 0.40355339646339417, 0.03561129420995712, 0.93373703956604, -0.36804914474487305, -0.8063561916351318, 0.389702707529068, 0.09290248900651932, -1.649320125579834, 0.2721937596797943, 0.3786567747592926, 1.3442312479019165, 0.7600120902061462, 0.7832086682319641, -0.7120930552482605, -0.6185369491577148, 1.787418246269226, -0.45423927903175354, 1.5515029430389404, -0.21357955038547516, -1.2545379400253296, -0.7469824552536011, 0.7174381017684937, -0.33094534277915955, -0.252985417842865, -0.2637183666229248, -1.242300271987915, -0.399314820766449, 0.8550957441329956, 0.13337111473083496, 1.014838457107544, -0.6735559105873108, 0.21551063656806946, 0.026515696197748184, 1.2205314636230469, 0.12394095957279205], [-0.8500785231590271, 0.1032554879784584, -0.5670878887176514, -1.5955486297607422, 0.05360079184174538, 0.5418452024459839, -0.2327512949705124, 0.695690393447876, 0.9541718363761902, 0.792445182800293, 1.6827808618545532, -0.5610625147819519, -0.24104027450084686, -1.2396888732910156, -0.5441397428512573, -0.3040032684803009, 1.9736835956573486, -2.1923434734344482, 1.0266776084899902, -1.7985399961471558, -0.038270898163318634, 1.12452232837677, 1.0252981185913086, -2.1782045364379883, 0.4914036989212036, 0.5988765358924866, 0.05362224578857422, -0.17443884909152985, 0.8721485137939453, 0.4208817183971405, -0.1929747313261032, -1.2591887712478638, 0.6223036646842957, -1.2953065633773804, -0.0660988986492157, -1.1400911808013916, -0.9739119410514832, -0.1895216703414917, 0.4612240493297577, -0.30193060636520386, -0.615866482257843, 0.5608307123184204, -0.4883212745189667, 1.424953579902649, 2.1394646167755127, 0.44782543182373047, -1.8455666303634644, -0.9752836227416992, 0.30610835552215576, 2.452502727508545], [0.46752622723579407, 1.8539985418319702, 1.8813886642456055, -0.4016124904155731, -0.544398307800293, 1.1257727146148682, 0.47875529527664185, -2.306589126586914, 0.8954915404319763, -1.96725594997406, 0.10894272476434708, 0.0044331918470561504, -0.19749918580055237, 1.034871220588684, 1.0452547073364258, -2.621114492416382, 2.5837645530700684, -0.4186134934425354, -2.4419620037078857, -1.4625979661941528, 0.6643041968345642, -0.8477125763893127, -0.3287966549396515, -1.2619191408157349, -1.182601809501648, 0.6975004076957703, 0.929204523563385, 0.00880664587020874, 0.4933779537677765, 0.9426661729812622, -0.8404806852340698, 0.7234591245651245, 0.592569887638092, -0.4014894664287567, 1.6668473482131958, -3.1611549854278564, 0.9333723187446594, -0.007611778099089861, 1.2288569211959839, 0.4316807985305786, -0.8370435833930969, -1.3583288192749023, -1.170283317565918, -0.39001068472862244, -0.9140366911888123, 0.7842747569084167, 1.196432113647461, 0.487449049949646, 0.07036563754081726, -0.39926859736442566], [-1.7394230365753174, 0.9712178111076355, -0.13201040029525757, -0.43349581956863403, 1.2135674953460693, 0.49916476011276245, -0.3728998303413391, -2.1687324047088623, -1.2926225662231445, 0.7902711629867554, -0.26755356788635254, -0.12829551100730896, 0.5602904558181763, -0.4478483498096466, -0.5092687606811523, 0.24970197677612305, -1.2176083326339722, 0.06539225578308105, 0.305203378200531, -1.2321078777313232, -1.659508466720581, 2.1203689575195312, -0.07459613680839539, -0.925790548324585, -0.6101518273353577, -0.25694528222084045, 0.42637452483177185, 0.16234849393367767, -1.3322443962097168, -0.9638045430183411, 0.2239571511745453, -1.4089319705963135, -2.1726155281066895, 0.49064716696739197, 0.7244688868522644, 0.6502313017845154, 1.313237190246582, 1.4235596656799316, -0.23927408456802368, -0.07123792171478271, 1.205812931060791, -0.6824769973754883, -0.04572933912277222, -0.6356175541877747, 0.3949664235115051, -0.6263754367828369, -1.2334961891174316, -3.4791553020477295, 2.1057424545288086, 0.4928041994571686], [0.39535489678382874, 1.6951462030410767, 0.272769033908844, -0.23597382009029388, 0.8626981973648071, 0.26558515429496765, 0.753746747970581, 0.05099878087639809, -1.1017587184906006, -0.9797326922416687, 0.4771343767642975, 0.7807950973510742, 0.6030183434486389, -0.7264688611030579, 0.8029965758323669, -0.19664119184017181, 1.8203693628311157, 0.30173391103744507, 1.5372587442398071, -0.32972556352615356, -0.9877640604972839, 3.1091742515563965, -0.730994462966919, -0.5865694880485535, -0.10730913281440735, -0.0385037362575531, 0.09992018342018127, 1.082751989364624, 0.49105679988861084, 0.3683668375015259, -1.0977503061294556, 1.3297957181930542, 0.5043646097183228, 0.5780556797981262, 1.0316479206085205, -0.6113522052764893, 2.16318416595459, 2.173375129699707, 0.4890696108341217, 1.6311429738998413, -2.2558205127716064, -0.7185027599334717, -0.28092747926712036, 0.8716115355491638, -0.26323986053466797, 0.9776478409767151, 0.34374669194221497, 1.0779335498809814, 1.4885004758834839, 0.37319499254226685], [-0.40447744727134705, 2.446338415145874, -1.9148567914962769, -1.0981719493865967, -1.159875512123108, -0.06471820175647736, 0.796046793460846, -0.37555795907974243, 1.7902131080627441, 0.714522659778595, -2.232654333114624, -0.6931994557380676, -1.5743987560272217, 0.5475655198097229, 0.16820357739925385, -2.0435030460357666, -1.2055550813674927, 0.4679855704307556, 0.2476893812417984, 0.45491790771484375, 0.9920802712440491, -0.6516629457473755, -2.0780646800994873, -2.0435361862182617, -0.08924303203821182, -0.29921483993530273, -0.040459126234054565, -0.8951907157897949, -1.3910181522369385, 1.326074242591858, -0.24701088666915894, 0.511364221572876, -0.6987288594245911, 0.5000346302986145, 0.41718122363090515, -0.4554111659526825, -0.8567273020744324, 1.597313642501831, -0.28297653794288635, 1.1447547674179077, -0.807282567024231, -0.5866398215293884, -1.4336844682693481, 0.689994752407074, 1.116391897201538, -0.6248086094856262, 0.5978294014930725, 0.6544444561004639, -1.7597625255584717, 0.11316391825675964], [1.5891871452331543, -0.055753350257873535, 0.21706436574459076, -0.03422153741121292, 0.18994179368019104, 1.8686848878860474, -0.9095396399497986, -0.050480958074331284, 2.014427423477173, 0.19779835641384125, -0.4523257911205292, 0.391788125038147, 1.1571788787841797, -0.24741855263710022, -0.06263527274131775, 1.082519292831421, 0.7556208968162537, -0.3335501551628113, -0.3681644797325134, -0.2871972322463989, 0.17576652765274048, -1.269753098487854, 1.0122014284133911, -0.06485501676797867, -0.9691997766494751, -1.236977219581604, -0.05619904771447182, -2.779215097427368, 1.2212079763412476, -0.4418768882751465, -0.3668293356895447, -0.5329356789588928, -0.08943499624729156, 0.7941321730613708, 1.6107343435287476, 0.15871411561965942, 1.2240175008773804, 0.6466758847236633, -0.5257191061973572, -1.0331798791885376, -0.7112802267074585, -1.5178351402282715, 0.5205175280570984, -1.7021375894546509, -0.631321370601654, -0.14562687277793884, 0.13313068449497223, 0.9293254613876343, 0.02178240567445755, -2.1560909748077393], [-0.9935755729675293, 1.8477938175201416, 1.1655898094177246, 2.2019946575164795, 0.252520352602005, -0.4208294749259949, 1.1049869060516357, -1.2681556940078735, -1.7113771438598633, -2.0807790756225586, 0.33513230085372925, -0.847114086151123, 0.20741422474384308, 1.141926646232605, 2.9486732482910156, 0.16397112607955933, 0.08458314090967178, -0.582366943359375, -1.03465735912323, -0.15294337272644043, 0.3886588513851166, -0.5335908532142639, -0.09095747023820877, 1.1473400592803955, -0.5963293313980103, 0.01099552121013403, -0.6612676382064819, -0.9173426032066345, 1.0307508707046509, 1.1766321659088135, 1.3187710046768188, -2.1020545959472656, 0.09697964787483215, 1.8058260679244995, -0.0349133126437664, -0.3811066150665283, -0.43426451086997986, -0.4514172077178955, 0.664783775806427, 0.13694463670253754, -0.3633855879306793, -1.3253657817840576, 0.6002888679504395, -1.1913065910339355, -1.0392658710479736, 0.26395419239997864, 0.7226473093032837, 0.901769757270813, -0.46534210443496704, -0.3847014904022217], [-0.07384856790304184, 0.06874202191829681, -1.7461529970169067, -0.1495378166437149, 0.012537497095763683, 0.45685091614723206, 0.6500051021575928, -1.130944013595581, -0.10708010196685791, 0.48019033670425415, 0.9906755685806274, 0.5859312415122986, 0.16672904789447784, -0.545369565486908, -1.3002185821533203, -2.987708568572998, 0.28910768032073975, 0.36807799339294434, 0.1695006787776947, -0.6370606422424316, 0.8968725800514221, -2.33040714263916, -0.6966135501861572, -0.04132736101746559, 0.615399956703186, -0.7357260584831238, 0.023142993450164795, 2.048828125, -1.3400603532791138, -0.7186378836631775, -1.9207100868225098, 0.716437816619873, 0.9398488998413086, 0.1615690141916275, -2.1007614135742188, 0.9412630796432495, 0.909433901309967, 0.7276463508605957, 0.42998892068862915, -1.1498650312423706, -0.6971869468688965, 0.5173109769821167, -0.5610127449035645, 0.8286917209625244, 1.13689386844635, 1.2361745834350586, -0.3499082922935486, -0.8574631214141846, -0.7141818404197693, 1.4422210454940796], [-0.26424726843833923, 0.6578296422958374, 0.3917946219444275, -0.28589293360710144, 0.6703014373779297, -0.22438256442546844, 2.396250009536743, -0.15716363489627838, 1.852493405342102, 0.9576014876365662, 1.0308986902236938, -0.5289960503578186, 1.3885082006454468, -1.1945626735687256, 1.1001241207122803, -0.009194012731313705, -0.42277291417121887, 0.3563343286514282, 0.829980194568634, 0.20377907156944275, -0.19096292555332184, -0.6856943368911743, 0.8450522422790527, 1.60759437084198, -0.6735737919807434, -1.7779070138931274, 0.20091190934181213, -0.07078962028026581, -0.6505157351493835, -1.0588884353637695, 0.0002122327859979123, 1.032317042350769, 0.6945397853851318, -0.5287941098213196, 1.0331734418869019, 0.08518471568822861, -1.8710485696792603, -1.2931463718414307, -0.12535150349140167, 1.460868000984192, -0.7837543487548828, -0.3202373683452606, -0.9837507605552673, -0.9942224025726318, 0.22633735835552216, -1.5779447555541992, 1.549277424812317, -1.8393850326538086, 0.10114306956529617, -0.6629865765571594], [0.7835174202919006, 0.4742063879966736, -0.03446873649954796, 0.8612784147262573, -0.38797932863235474, 1.5296019315719604, -0.8924052119255066, -0.07609455287456512, 0.5094720721244812, 2.437662124633789, 2.209061622619629, -0.2654845416545868, 1.4814131259918213, 1.353054165840149, -0.22045311331748962, 0.9581698179244995, -0.012220988981425762, -0.1601133793592453, -1.9544826745986938, 0.33595043420791626, -3.035088062286377, -0.647494375705719, -0.32872915267944336, 0.5815797448158264, 0.5938113927841187, 0.6487360596656799, 0.3514103889465332, -0.5847777128219604, 0.9559482932090759, 0.3255852460861206, -0.10894374549388885, 1.2610238790512085, 2.1090474128723145, -1.2061649560928345, -0.8969977498054504, -0.8919473886489868, -0.7376750707626343, 1.0483179092407227, -1.5752800703048706, -1.7605109214782715, 0.8279944062232971, -0.1601225733757019, 0.784417986869812, 0.5491330027580261, -0.16548004746437073, 1.7788728475570679, 0.5083024501800537, -1.1092883348464966, -1.8463001251220703, -0.727350115776062], [-1.3120806217193604, 0.36784911155700684, -0.23237600922584534, -0.7343788146972656, -1.2426421642303467, -1.4561487436294556, 1.799324870109558, -0.6074970960617065, 0.6034625768661499, 0.1247798502445221, -0.12179220467805862, -0.4294859766960144, 0.7069791555404663, 0.06256812065839767, -0.5620216131210327, 0.023057550191879272, 0.6244231462478638, -0.30114248394966125, -0.6181752681732178, 0.5403728485107422, 0.402780681848526, 1.667527198791504, -1.2564697265625, -0.8066522479057312, -0.35213202238082886, 0.10044936090707779, 0.3270415663719177, 1.2907730340957642, -0.6720923781394958, -1.0470656156539917, 0.12009620666503906, -1.4996271133422852, -1.103078007698059, 0.5062944293022156, 1.143104076385498, 1.2087931632995605, 0.23767820000648499, 1.525019884109497, -0.19940480589866638, -1.5414847135543823, 0.048615533858537674, 2.0061888694763184, 1.2169486284255981, -1.0922837257385254, -0.4309157431125641, -1.6527363061904907, 0.7565515041351318, -1.4348565340042114, 0.6508943438529968, -1.5352461338043213], [-1.2927757501602173, 0.08035650104284286, 0.5461989045143127, -0.30516618490219116, -0.07905902713537216, -0.8487424254417419, 0.11831434816122055, 0.6803518533706665, 1.5316755771636963, 1.2427338361740112, 0.8989317417144775, 1.5379068851470947, -0.5218432545661926, -0.7345065474510193, -0.9585469365119934, -0.8658016324043274, -0.8622007966041565, -0.08706023544073105, 0.7637364864349365, -0.49357637763023376, -0.1105395257472992, -0.6808711886405945, -0.6828095316886902, 0.37384453415870667, -0.3567486107349396, -0.4888979494571686, 0.5862916111946106, -0.6040567755699158, -0.4187658727169037, 0.580665111541748, -0.38392263650894165, 0.03557775169610977, 1.0487111806869507, -1.8121415376663208, -0.7922081351280212, -2.381070375442505, 1.9572285413742065, -0.7664487361907959, -0.03920396789908409, 0.44883301854133606, 0.7467021346092224, 0.7921369671821594, -0.36574786901474, 1.78158438205719, -2.3704824447631836, -0.6239191889762878, 0.13983154296875, 1.1752233505249023, -0.3729014992713928, 1.4069064855575562], [0.6845221519470215, 0.4019991457462311, -0.18260633945465088, -0.25071269273757935, -1.6799947023391724, -2.758188247680664, -0.6282114386558533, 0.374164342880249, -1.5340001583099365, -0.7789366245269775, 0.25290825963020325, 0.9464156627655029, 0.35217759013175964, 0.8118364810943604, 0.8750645518302917, -0.5313342809677124, -0.07145994901657104, 1.0704530477523804, 0.46691635251045227, 0.8134014010429382, 0.3275599181652069, -0.9509802460670471, 0.5553325414657593, -0.7606537342071533, 1.0109249353408813, -0.7400180101394653, 0.5962132215499878, 0.8132365942001343, 0.19079305231571198, -2.3041694164276123, 0.08844973891973495, -0.05797019600868225, 0.534565806388855, -0.3300306499004364, -0.1746431440114975, -1.1112630367279053, -0.6492382287979126, -1.4146747589111328, 0.6549085378646851, -0.4191760718822479, 0.6466687917709351, -0.9687631726264954, 0.8789920210838318, -0.008125338703393936, -1.891982913017273, -0.8908945918083191, 0.8265082240104675, -0.3732035458087921, 1.3807369470596313, 0.47286421060562134], [0.6684728264808655, 0.07140135020017624, 0.3293605446815491, 1.2583510875701904, 1.2132996320724487, 0.3921819031238556, -0.3475310206413269, -0.7179573178291321, -0.7755728960037231, 0.06387301534414291, -0.03785821422934532, 0.6506690979003906, 1.3687890768051147, -0.6684961318969727, -1.2483407258987427, 0.17574477195739746, 0.016662754118442535, 1.0936845541000366, -0.055307451635599136, 0.780959963798523, -1.4006438255310059, 2.5365333557128906, 2.341479778289795, 0.667290210723877, -0.26210567355155945, -0.5376433730125427, 0.1313743144273758, -0.09045834839344025, 1.190700650215149, -0.44218072295188904, 0.8522642254829407, 0.5158754587173462, -0.9114155173301697, 0.1240527480840683, 1.6666260957717896, -0.6066120266914368, 0.49183130264282227, -0.07733543962240219, -1.1616291999816895, 0.13201308250427246, -0.12138460576534271, 0.013280071318149567, 0.5764592289924622, 0.09887013584375381, -0.8470330238342285, -0.8084006905555725, 2.079169750213623, -0.32799413800239563, -0.014193832874298096, -0.9595597982406616], [-0.7682738304138184, 1.1553761959075928, -0.4856168031692505, -0.42066019773483276, 0.492154061794281, 1.2321693897247314, -0.7801471948623657, -0.7028218507766724, -1.3805925846099854, 0.7703993916511536, 0.9063950777053833, 0.4361419081687927, -1.4852120876312256, -0.04704194515943527, -0.38291624188423157, -0.5451319217681885, 0.0847604051232338, 0.6614618301391602, -1.4272916316986084, 0.5178637504577637, 1.4652897119522095, -0.22563475370407104, -1.4449822902679443, 0.6065502762794495, 0.3409079909324646, -1.297366738319397, -0.40984609723091125, 2.0719597339630127, -0.24392621219158173, -0.7979060411453247, -0.1061389148235321, 2.2899014949798584, 0.705833911895752, -1.3015711307525635, 0.9208717346191406, 0.6614336371421814, -0.08202911168336868, -1.0163618326187134, 0.657255232334137, -0.2977742850780487, -0.4851020574569702, -0.2494080811738968, 1.4557946920394897, 1.0276750326156616, -0.3152548670768738, 1.3011857271194458, -0.3388825058937073, 0.6426841020584106, 0.08263330906629562, 0.7460529804229736], [-0.626952052116394, 0.5179270505905151, 0.45030146837234497, -2.5847339630126953, 0.022107837721705437, 0.13031847774982452, 0.04858915135264397, 0.7208912968635559, 1.5370463132858276, -1.3099777698516846, 0.2970815598964691, 0.702695906162262, 1.3028024435043335, -1.9423034191131592, -1.1915439367294312, -1.0257582664489746, 2.47969126701355, 0.2443961501121521, -0.3915172517299652, 1.939253568649292, 0.27873969078063965, -0.3048752546310425, -0.15650111436843872, 0.5077356100082397, 0.3918797969818115, 0.07534114271402359, 0.7173815369606018, -1.9243985414505005, -0.3940665125846863, -0.7590813040733337, -0.6410363912582397, -2.424314022064209, -1.385939598083496, 0.3854874074459076, 1.2413318157196045, -1.0570149421691895, -0.05891264230012894, 0.9887038469314575, 0.8505059480667114, 0.6565873026847839, -1.1346206665039062, -0.1908157616853714, 0.26000556349754333, 0.43603354692459106, -0.11984208971261978, -0.1167314276099205, 0.21084822714328766, -1.6694881916046143, 0.3349325358867645, -1.0239245891571045], [-0.35539835691452026, -0.7760732769966125, -0.9252452254295349, -0.7226236462593079, -0.6936680674552917, -1.1840018033981323, -0.9449097514152527, -2.1378889083862305, 0.8741381764411926, 0.8916274905204773, -1.5387609004974365, 0.6501408219337463, -1.1105982065200806, -0.4484063684940338, -0.7463100552558899, -0.24645888805389404, -0.6686662435531616, -1.9130384922027588, -0.8730322122573853, 0.18570712208747864, -0.00448607699945569, 0.4459247291088104, 1.0138065814971924, -0.45221686363220215, 0.5053134560585022, 0.8719350099563599, 0.07536708563566208, 0.4909651279449463, -0.4265868067741394, -0.11750314384698868, 0.7532737255096436, 0.07847611606121063, 1.2463575601577759, 1.4966273307800293, -0.2789899706840515, -0.238380566239357, 0.45401135087013245, 0.29957035183906555, 0.307538241147995, 0.358318954706192, -1.7395085096359253, -1.098932147026062, -0.17097707092761993, -0.34263530373573303, 0.31843820214271545, 1.2402466535568237, 1.0073904991149902, -0.5711730122566223, -1.2858625650405884, 1.4687995910644531], [-1.7570722103118896, 0.6730665564537048, 0.5890495777130127, 0.6000721454620361, -0.21515579521656036, -1.8149135112762451, -0.2654317021369934, -0.54624342918396, 0.2358396202325821, 1.8804199695587158, -1.2299097776412964, -0.0055475495755672455, -1.9500542879104614, -1.2143335342407227, -0.4786835312843323, -0.504384458065033, -0.4292428195476532, 0.03865324333310127, -1.1978360414505005, 0.7399604320526123, -0.2639302611351013, -0.8089766502380371, -0.5084798336029053, -0.5867441892623901, -0.16122987866401672, -0.855157732963562, 0.03196018189191818, 1.471860408782959, -1.6715372800827026, 0.3127426505088806, 1.347876787185669, -1.3142014741897583, 0.14959070086479187, 1.0666483640670776, 0.7298370003700256, 3.1612844467163086, 2.82320237159729, -0.1052359938621521, 2.0984151363372803, -0.07201587408781052, -1.2127888202667236, -0.623813271522522, 1.127153754234314, 0.12502196431159973, 1.5705293416976929, 0.7863985300064087, 0.31027355790138245, -1.178149700164795, 1.849702000617981, 0.3197251260280609], [-0.9951075911521912, -0.4721471667289734, -0.3371712863445282, -0.10866619646549225, 0.11587066203355789, 0.10102127492427826, -1.45894193649292, 0.21972014009952545, 1.7263586521148682, 0.018894623965024948, -0.5601099133491516, 0.36275169253349304, 0.24065816402435303, -0.08621389418840408, -0.9538258910179138, 0.11924919486045837, 1.105942726135254, -0.020180463790893555, 0.03417407348752022, -0.5502983331680298, -0.5054196119308472, -0.34835898876190186, -1.433978796005249, -1.6523953676223755, 0.7230753302574158, 0.7481915354728699, 0.1667908877134323, -2.0730068683624268, -0.7609071731567383, 0.21688993275165558, 0.33181044459342957, 0.332078754901886, -0.8500186204910278, 2.17280650138855, 1.1545555591583252, -0.35887348651885986, -1.938471794128418, 0.4181254804134369, -0.2844292223453522, -0.4410991370677948, 0.2247094362974167, 0.1560884267091751, -1.2658848762512207, 0.5447870492935181, -0.05628296360373497, 1.1783262491226196, -0.7952758073806763, 0.0156451053917408, 1.3512297868728638, -1.3538293838500977]], "bias": [-1.1233153343200684, -0.22999751567840576, 1.336169719696045, -1.948692798614502, 0.6193982362747192, -0.9509233236312866, 0.024075526744127274, -1.5306520462036133, 0.1007537990808487, 0.5068814754486084, -0.7980435490608215, 0.7600539922714233, -0.5226788520812988, -0.5235790610313416, 0.48900020122528076, -1.0167959928512573, -0.6052830219268799, 1.0957932472229004, -1.5698803663253784, 1.1847673654556274, 0.2877718210220337, 0.34283384680747986, 1.5464160442352295, 1.1718443632125854, 1.3428541421890259, -0.607120156288147, 2.2080702781677246, 0.27032753825187683, -0.5589911341667175, 2.6567986011505127, -0.5033682584762573, 0.5872219800949097, 1.6842937469482422, 1.2579023838043213, 0.008862159214913845, 0.1748436689376831, 1.396307349205017, 0.6756163835525513, 0.5135291814804077, -0.16494563221931458, 0.23737651109695435, 0.4882865250110626, 2.0546956062316895, 0.1498575210571289, -0.18331490457057953, 2.709610939025879, 0.052038539201021194, -1.1005876064300537, 1.1098161935806274, 1.5182300806045532]}, "hidden_3_layer": {"weight": [[-0.9449870586395264, -1.9577200412750244, 0.21135756373405457, -0.9053276777267456, -0.054464779794216156, -1.6770570278167725, 0.8166375756263733, -0.5950844883918762, -0.7832425236701965, 0.457754522562027, -0.5984170436859131, 1.8555288314819336, -0.43669551610946655, -0.3150441348552704, -0.19485940039157867, 1.3310503959655762, 0.3913953900337219, 0.09285783022642136, -0.7188252210617065, -0.9993261098861694, -1.2209917306900024, 0.022414658218622208, 0.9718023538589478, -0.36431074142456055, 2.1039347648620605, 1.8563469648361206, 0.7451428771018982, 2.2522387504577637, 0.8109889626502991, 0.030622068792581558, 0.1965709775686264, -0.04208062216639519, 0.1556491106748581, -0.12415290623903275, 0.7929368615150452, -0.5381327271461487, 0.8258769512176514, 0.8978844881057739, -0.6612308025360107, 0.10863003134727478, 1.0651153326034546, -1.5958105325698853, 1.2440359592437744, 1.749890923500061, -0.4098265767097473, -0.18082943558692932, -0.9269280433654785, -1.5500314235687256, -1.0883415937423706, 0.21604251861572266, 0.3231809437274933, -1.1026602983474731, 1.0079448223114014, -1.0729155540466309, -0.8018965125083923, -0.7385454177856445, 0.9994075298309326, -1.063942313194275, 0.1683577597141266, 0.4357908070087433], [-0.8363212943077087, 0.15740323066711426, -1.3415319919586182, -0.7398670315742493, 0.47970637679100037, -0.3832654058933258, 1.575718641281128, 0.9160628318786621, 0.7569534778594971, 0.00294183730147779, -0.3914075195789337, -1.521959662437439, -1.5199652910232544, 0.21449458599090576, 1.7679802179336548, 0.48958683013916016, -1.2370268106460571, -1.149586796760559, -1.143365502357483, 0.6159133315086365, -1.2752082347869873, -0.8315179347991943, 0.5074021220207214, -0.47444450855255127, -0.15820574760437012, -0.8304812908172607, -0.622360348701477, -1.2131167650222778, -0.9513211250305176, -1.3792383670806885, -0.6501675248146057, 0.4096156358718872, 0.21354739367961884, 2.5059401988983154, 1.1232017278671265, -0.19331304728984833, -0.9219447374343872, -1.6547366380691528, -0.4219946563243866, 1.3394452333450317, -0.2608077824115753, -0.22754095494747162, 0.8596470355987549, 0.5778933167457581, -1.6622097492218018, -0.6503112316131592, 0.2741350829601288, -0.5965610146522522, 3.358736515045166, 0.5597706437110901, 0.34565985202789307, -1.0313506126403809, 0.7309157848358154, 0.9600244164466858, -1.746536374092102, -1.1885180473327637, 1.3239102363586426, -0.5730758309364319, -0.027663402259349823, 0.022390708327293396], [-0.47773393988609314, 2.3258020877838135, 0.6200249195098877, 1.1446722745895386, -0.8537558317184448, 0.7983691692352295, -1.1216181516647339, 0.173456609249115, -0.46122539043426514, -0.2523649334907532, -0.7484080791473389, -0.9469711780548096, -0.09220611304044724, -1.1082550287246704, 0.4711252450942993, -1.4668104648590088, -0.0863729938864708, 0.4559321701526642, 0.6445947885513306, -0.9037489295005798, -0.2710800766944885, -1.156665563583374, -0.28607192635536194, -1.6045831441879272, -1.3957198858261108, -1.3984572887420654, -0.6516233682632446, 0.7830235362052917, -1.3434522151947021, -0.2857110798358917, -0.5669481158256531, -1.5565967559814453, -0.8363562822341919, -0.186665341258049, 1.4732238054275513, -1.1396297216415405, -1.3115453720092773, -1.048843502998352, 0.7610474228858948, 1.3158620595932007, -0.13647590577602386, 0.42004087567329407, -1.644286870956421, 0.011674806475639343, -0.9295080304145813, 1.0578854084014893, 1.253577470779419, -0.23981007933616638, -0.11979639530181885, -1.0020060539245605, -0.03178445249795914, -1.4304311275482178, -0.9877623915672302, -0.18179994821548462, -0.42363473773002625, -0.07133643329143524, -1.3317997455596924, 0.6860343813896179, -0.5748379230499268, 0.7301417589187622], [0.30287277698516846, -1.165344476699829, 0.08904391527175903, -0.0783047154545784, -1.6465164422988892, 0.6725809574127197, -0.2239532470703125, -0.043185438960790634, 0.11119891703128815, 0.6946479082107544, -0.45973190665245056, 0.8784779906272888, -0.9593701958656311, 0.6995996236801147, -0.38118717074394226, 0.7437501549720764, -1.9447513818740845, -0.0011154634412378073, 0.29234007000923157, -0.30054664611816406, 0.9711302518844604, 0.5029307007789612, 0.6547307372093201, -1.1253565549850464, -0.3629346787929535, -0.32040831446647644, 0.4915314018726349, 1.4825539588928223, 0.10212291032075882, 1.1793882846832275, -1.7234551906585693, 0.19757166504859924, 0.12361834198236465, 1.037221908569336, -0.21405617892742157, -1.276314377784729, 1.1820924282073975, 0.4178282618522644, 1.4888229370117188, 0.429580420255661, -0.638485312461853, 0.13656556606292725, -1.0350303649902344, 0.16604195535182953, 0.8519967198371887, -0.016295596957206726, -0.16473813354969025, -0.250092476606369, 2.179183006286621, 0.730258047580719, 1.0823843479156494, -0.9512902498245239, 0.15685045719146729, -1.0435582399368286, -0.05281539633870125, -0.7531941533088684, -0.31683585047721863, -0.15567396581172943, 0.3644346594810486, -1.0280001163482666], [-0.7475077509880066, -0.01838349737226963, -0.342580109834671, 0.9720797538757324, 1.3608379364013672, -0.48706620931625366, -0.5247271656990051, 1.929938793182373, 1.5049551725387573, -0.6651379466056824, -1.1047331094741821, 0.6079959869384766, 0.4641394019126892, -0.18046535551548004, 0.933688759803772, 0.4471486210823059, -0.7390312552452087, -0.9548518061637878, 0.8432254195213318, -0.8577196598052979, 2.3513808250427246, 2.025834321975708, -1.6262640953063965, 0.5627647638320923, 0.20061007142066956, 0.867207944393158, -0.11627628654241562, 0.5209860801696777, -0.254656583070755, 2.426896095275879, 1.3202227354049683, 0.16616229712963104, -1.6832859516143799, -0.10879494249820709, -1.8411445617675781, 0.44670921564102173, 0.7063168287277222, 1.6785407066345215, 1.549503207206726, 0.2221403270959854, -0.8230534195899963, 1.952449917793274, 0.5053893327713013, 0.8470640778541565, 0.7966818809509277, 0.24094583094120026, -1.7501349449157715, 1.4687925577163696, -1.34075129032135, 1.1456960439682007, 0.05514560639858246, -1.2231205701828003, 0.3846201002597809, 0.12211702018976212, -0.4366701543331146, -0.3317464292049408, -0.7037217020988464, -0.7337432503700256, -0.7680916786193848, 0.26101717352867126], [-0.23854243755340576, -0.4267919957637787, 1.5405011177062988, 0.2923809885978699, 1.585554599761963, -0.8843689560890198, 0.9021865725517273, 0.6276364326477051, -1.7330445051193237, -0.04218569025397301, 0.4682156443595886, 0.9318355321884155, 0.23304247856140137, -1.103271722793579, -0.6724047064781189, 2.424806594848633, 1.0947312116622925, -0.05888979509472847, 0.9276862740516663, -0.48323896527290344, 0.41493797302246094, 0.052505575120449066, 0.07957754284143448, 1.3118170499801636, -0.5011056661605835, 1.650072455406189, 0.506781280040741, -0.48365771770477295, -0.6608455181121826, -0.7797439694404602, 0.2612859010696411, 1.5216591358184814, 0.5268216133117676, -2.0372748374938965, 0.39079466462135315, 0.7473873496055603, 2.430002212524414, 0.302738219499588, 0.9149681329727173, 0.39326292276382446, 0.826737105846405, 1.3359113931655884, -0.3826689124107361, 1.7536700963974, 1.1758323907852173, -1.338497281074524, -0.6485208868980408, 0.1312277764081955, -0.5530882477760315, -0.8903061151504517, -0.0522426962852478, 0.42192724347114563, 0.6047825813293457, -0.07128195464611053, -1.9374209642410278, 0.06845932453870773, 0.6391035318374634, -0.4740673899650574, 0.13717995584011078, -0.08700533211231232], [1.2927565574645996, -1.2674546241760254, -0.6931105256080627, -2.033851146697998, 0.009509694762527943, 2.4936816692352295, 0.23428942263126373, -0.19977505505084991, 0.45822009444236755, 0.14785096049308777, 0.4145147502422333, -0.05004310607910156, -0.3696931004524231, -0.6019351482391357, -1.4055908918380737, -0.1255035400390625, -1.6380398273468018, 1.2992448806762695, 0.4052479565143585, 1.5469045639038086, 1.1925957202911377, -0.14773239195346832, -0.4905659258365631, 0.4953823685646057, 0.14860519766807556, 0.8382294774055481, -0.06669159978628159, -1.5733181238174438, 1.9068292379379272, 2.062364101409912, 0.6658437252044678, -0.6989685893058777, -0.5596227645874023, 0.049846116453409195, -0.3343081772327423, 0.9988812208175659, -0.6198371052742004, -1.4402004480361938, -1.508292317390442, -1.155687928199768, -0.9722821116447449, -0.9522513151168823, 0.1377939134836197, 0.8055495023727417, -0.4000933766365051, -1.497376561164856, 0.765311062335968, 0.5285014510154724, -0.41290995478630066, -0.37182188034057617, 0.5803131461143494, -0.4042157530784607, 0.3936171233654022, 0.7354906797409058, 0.06480696052312851, 2.2150635719299316, -1.1739935874938965, 0.5143980979919434, -0.36961740255355835, 1.4979026317596436], [0.46282637119293213, 0.20863217115402222, 0.9537631869316101, -0.19743920862674713, 0.2787589132785797, 0.4428301751613617, -0.20990954339504242, 1.9104400873184204, -0.4298757314682007, 0.6640867590904236, 0.3832468092441559, -1.3154232501983643, 0.7512256503105164, -0.4075457751750946, 0.6130722165107727, 0.49354416131973267, -0.6562754511833191, -1.103318691253662, -0.20833322405815125, 0.05331499129533768, 1.063223123550415, -0.8369104266166687, -0.5990917682647705, -1.117061734199524, -0.5112377405166626, -0.4982761740684509, 1.130966067314148, -1.6844052076339722, 0.6379963755607605, -0.272454172372818, 1.3122345209121704, 0.6300948262214661, 0.5899780988693237, 1.3899070024490356, -0.41759195923805237, -0.31601759791374207, 1.3233907222747803, -0.59373539686203, -0.6176066398620605, 0.2767137885093689, 0.7316634058952332, -1.4775604009628296, -0.15348754823207855, -1.7377797365188599, 0.21518191695213318, 1.3388231992721558, 1.1634243726730347, -0.3096177279949188, -0.9293374419212341, 0.3495120406150818, 2.291393995285034, -2.245065212249756, 1.0259515047073364, 0.2173689305782318, -0.41752925515174866, -0.4186515510082245, 0.7383458018302917, 2.7559938430786133, 0.43200263381004333, 0.6693675518035889], [1.8177239894866943, -0.9333299398422241, -0.8596062064170837, -0.18615096807479858, 0.683173656463623, -0.901116132736206, -0.9289188981056213, 0.31839829683303833, -0.5383126139640808, -0.40436893701553345, 1.0668317079544067, 1.148517370223999, -0.156097874045372, -1.0734983682632446, -0.5054292678833008, -0.042178619652986526, -2.5408003330230713, -0.7815997004508972, -0.2074434608221054, 0.7204205989837646, 0.19821439683437347, 1.235703945159912, 0.7190972566604614, 1.8777554035186768, 0.6978968381881714, -0.8053717017173767, 0.36692044138908386, -2.257063627243042, -2.066434383392334, -0.08953967690467834, 1.7775156497955322, -1.171148419380188, 1.9285943508148193, -0.36539018154144287, -2.331444501876831, 0.44834059476852417, -0.10108668357133865, -1.4886717796325684, 0.8918547034263611, -0.3623173236846924, 0.12369536608457565, -1.3609129190444946, 1.2049006223678589, 1.000498652458191, -0.02734185755252838, -0.1323048174381256, 0.5535202026367188, 2.354353666305542, 0.0677189901471138, 1.2115675210952759, -0.6201063990592957, -1.393261194229126, -1.239335536956787, -0.14994195103645325, 0.12660115957260132, -1.3662704229354858, 0.9947728514671326, -1.7378288507461548, 0.5691431760787964, 0.764887809753418], [-0.21719269454479218, 0.4261174201965332, 0.6464395523071289, 1.1799213886260986, -1.1320595741271973, 0.9376806616783142, 0.08177871257066727, 1.0998958349227905, -0.08851297199726105, -2.5463833808898926, 0.9204572439193726, 0.08032669126987457, 0.2572447657585144, -1.087211012840271, -1.4923800230026245, 1.0261963605880737, 0.5079628229141235, 0.45855140686035156, 0.8415579199790955, -1.7731921672821045, 0.7168317437171936, -0.9288272857666016, -0.5067629814147949, -1.4676450490951538, 1.3660496473312378, -0.1981605887413025, 1.1845284700393677, 0.7052060961723328, -1.265587568283081, 0.3946416974067688, 1.0014458894729614, 0.329603374004364, 1.0618714094161987, 0.012477735057473183, -0.34798967838287354, 0.39865416288375854, 0.6812897324562073, -1.5654398202896118, 0.6368834376335144, -0.4142080545425415, 0.45968443155288696, 1.1927677392959595, -0.26459768414497375, 0.11802290380001068, 0.4769291579723358, 0.43744930624961853, 1.52104651927948, -1.286280870437622, -0.8959543108940125, -0.8143865466117859, -0.7633060216903687, -1.3175538778305054, -0.663782000541687, 0.3643270432949066, -1.5512546300888062, -1.622064232826233, -0.6186821460723877, -0.12340884655714035, 0.2639509439468384, 1.2165300846099854], [0.4829321503639221, -0.17325875163078308, 1.3897331953048706, -0.9338906407356262, 0.8620383739471436, -0.35364827513694763, 1.1064800024032593, 0.7388312220573425, 1.1533094644546509, 0.9564677476882935, -0.4945443570613861, -0.9557920694351196, 0.7336992621421814, -0.626137912273407, 1.4390206336975098, -0.34154826402664185, -0.8036357164382935, 0.15599749982357025, -1.7722444534301758, 1.4841557741165161, 0.5351929068565369, 0.25231069326400757, 1.2714173793792725, -1.3645544052124023, 0.33540475368499756, 1.5879428386688232, -0.47233033180236816, 0.11375503242015839, 1.9434078931808472, -1.0640066862106323, 1.7491921186447144, 0.28948870301246643, -1.4108085632324219, 0.16990719735622406, -0.19334568083286285, 0.2812671661376953, -0.5962599515914917, -0.33889609575271606, -2.013857126235962, -0.5596582293510437, -0.10245268791913986, -1.783978819847107, -0.0898759514093399, -1.287155032157898, -0.44516152143478394, -1.2525887489318848, -0.3531699776649475, 0.4967334568500519, -2.1862261295318604, 1.147024154663086, 0.9143357872962952, -2.6144495010375977, 0.6108192205429077, -0.39474886655807495, -1.3420660495758057, -1.20543372631073, -0.33196091651916504, 0.7765544056892395, -0.7706573605537415, 0.0022184851113706827], [1.2691476345062256, -0.6154956221580505, -1.618667721748352, -0.9944397211074829, 0.8030951619148254, -1.093719244003296, 0.41825881600379944, -0.784346342086792, 0.6248748898506165, 0.06761515140533447, 0.026437409222126007, -0.6132580637931824, -0.4083298146724701, 0.7077045440673828, 0.1955845057964325, -0.6615339517593384, 0.15597093105316162, -0.6488251686096191, -1.1590933799743652, 1.2741594314575195, -0.45292553305625916, -0.5381700396537781, 1.4427342414855957, 0.7437766790390015, 1.5720621347427368, -0.3343777656555176, 1.1203205585479736, 1.9195715188980103, -1.178610920906067, -0.21052108705043793, 0.8539260625839233, 1.8535758256912231, 0.23537705838680267, -0.08904761075973511, -1.1560206413269043, -1.4731080532073975, -0.6994537115097046, -1.0065561532974243, -1.5621298551559448, 1.173179030418396, -0.6185525059700012, -0.2812012732028961, -2.5267698764801025, -0.41274887323379517, -0.7430474162101746, 1.007239580154419, 0.9713965058326721, 0.43519526720046997, 2.014849901199341, 0.087001733481884, 1.689060926437378, -0.02166607603430748, -0.04991922155022621, 2.447481870651245, 1.0058104991912842, 0.29006052017211914, -1.47626793384552, 0.28249648213386536, 1.3374488353729248, -0.09794314950704575], [-0.8872599005699158, -0.6111984252929688, -1.3899480104446411, 0.5024266839027405, -0.5451653003692627, 1.005723476409912, -0.011415933258831501, 0.9628167152404785, 1.2478529214859009, -1.7537466287612915, -0.4312072992324829, -1.5728200674057007, -0.7471169233322144, 1.1572834253311157, -0.8961484432220459, 1.9414067268371582, 1.1688735485076904, 1.3209259510040283, -0.6896529197692871, 1.0248527526855469, 1.1589106321334839, 0.15580818057060242, 0.04556409269571304, -1.8455278873443604, 0.5936189889907837, 0.16090640425682068, 0.05138644203543663, 0.9123134016990662, -0.6451224684715271, 0.3320182263851166, 0.09303127229213715, -0.4029088616371155, 0.214620903134346, 0.6285153031349182, 0.4172724187374115, 1.2919808626174927, 0.7005170583724976, -1.0853933095932007, 0.833297848701477, 1.2436920404434204, 0.15502601861953735, 0.7670043110847473, -0.836249828338623, -2.5605876445770264, 1.1689473390579224, 0.9971038699150085, -0.6171545386314392, 0.9113661050796509, -1.4240201711654663, -0.7485279440879822, -0.20925405621528625, 0.8328423500061035, 0.9625839591026306, -2.1087803840637207, 0.6993277668952942, 0.9821940064430237, -0.4158156216144562, -0.3939833343029022, -0.1961781233549118, -0.7149835228919983], [-1.2645251750946045, -1.7331266403198242, -2.2055463790893555, 0.8166241645812988, 0.41107073426246643, 0.16268135607242584, 0.891376793384552, -1.332311987876892, -0.3556848466396332, -0.8332977294921875, -0.5708159804344177, -0.15823622047901154, -1.2486878633499146, 1.4336122274398804, 1.277319312095642, -1.6707202196121216, -0.6169570684432983, 0.34524330496788025, -0.47147485613822937, 2.8468775749206543, 0.20654432475566864, -0.7892731428146362, -0.5094059705734253, -1.024976372718811, -0.5167558193206787, 0.4697730243206024, 1.1886597871780396, -1.355094313621521, -1.9181058406829834, 0.7853325605392456, 1.3111802339553833, -0.39367181062698364, 0.4933583438396454, -0.7007960081100464, 1.3578314781188965, -0.662474513053894, 1.1814889907836914, -0.1581261157989502, -0.46169865131378174, -0.444719523191452, -0.3252764940261841, -0.7690887451171875, 2.5806238651275635, -2.036607503890991, -1.0407050848007202, -2.5958709716796875, 1.0008379220962524, 1.7249475717544556, -0.5287848711013794, -0.1439250111579895, 0.27675291895866394, 0.8535231351852417, -0.9081234931945801, 0.08356190472841263, -1.0257325172424316, -0.22311031818389893, 1.6077700853347778, -0.9204481840133667, 1.1657220125198364, -1.152010202407837], [0.02295125462114811, 0.7486686706542969, -0.3813650608062744, -1.075335144996643, -1.8086483478546143, 0.024724280461668968, -0.13042022287845612, -0.6237969994544983, 0.7472353577613831, -1.197068452835083, -0.7201296091079712, -1.3456337451934814, 0.06926074624061584, -0.3779362440109253, 0.40129080414772034, -0.7598246335983276, 1.1034294366836548, 1.0900061130523682, -1.2005645036697388, -0.9074563980102539, 0.6513463258743286, 0.17225028574466705, 0.43855756521224976, 0.1640426218509674, 0.5836983919143677, 0.2664889693260193, -1.4430601596832275, 1.511279582977295, -0.6437140107154846, 0.18540185689926147, -0.08086322993040085, 0.015571046620607376, 1.7313346862792969, 0.28307241201400757, 0.03486840799450874, 0.49022310972213745, -0.20968717336654663, -0.7195485830307007, 0.16166450083255768, 0.6227840185165405, 1.3567923307418823, -0.6811124086380005, -0.3387938439846039, -0.32392850518226624, 0.9154605865478516, -0.4750704765319824, -0.37580960988998413, 1.6564117670059204, -0.20840783417224884, 1.363063097000122, 1.1790337562561035, 1.641258955001831, -1.342065453529358, -0.633185625076294, 0.47456252574920654, 0.949648916721344, -1.915173888206482, 0.5435071587562561, 0.08965438604354858, 0.474806547164917], [0.3532797694206238, -0.4457029104232788, -2.721829652786255, 1.5335218906402588, 0.4237777292728424, -0.7570182085037231, 2.1890649795532227, 1.283138394355774, 0.5084728002548218, 0.3641507625579834, 0.44686537981033325, -1.2647866010665894, -0.4765397310256958, -0.45093151926994324, -0.2037411779165268, 1.4812828302383423, -1.2392868995666504, 1.4771662950515747, 1.1434147357940674, 2.1236824989318848, -0.02092909812927246, -0.5999555587768555, 1.8979848623275757, 0.9634899497032166, -1.7413179874420166, -0.30433234572410583, -0.6701687574386597, 0.2841334044933319, -0.9143530130386353, -1.5888104438781738, 0.5753869414329529, 0.24577513337135315, 0.522466778755188, 0.8173952698707581, 1.3413573503494263, -0.7858537435531616, 0.5126994848251343, 0.9986610412597656, -0.986580491065979, 0.007077622693032026, 0.18088847398757935, 0.08874925971031189, 0.9986568689346313, 0.0529630184173584, -0.08411965519189835, -0.3999827206134796, -1.3603918552398682, 0.678692638874054, -1.588343620300293, -1.0193455219268799, 0.6188473701477051, 1.4225659370422363, -0.6545009016990662, 0.208266943693161, 1.4644194841384888, 0.8519060611724854, -1.30184006690979, -0.368916779756546, 1.435766339302063, 0.17108073830604553], [-1.482030987739563, 0.38560521602630615, 0.6412972807884216, -2.4454190731048584, -0.22009889781475067, -0.21953412890434265, -1.2827409505844116, 0.6905845999717712, -0.3431326746940613, -1.2255727052688599, -0.838556170463562, -0.6198939681053162, 1.7241020202636719, 1.4578971862792969, 0.25028249621391296, -0.9741019010543823, 0.13027910888195038, -0.3408968448638916, -0.08432529866695404, 0.2800298035144806, 0.5783926844596863, -0.8004164695739746, -1.1867167949676514, -0.7040371894836426, 0.5006453394889832, -0.334756076335907, 0.3249005377292633, -0.46891745924949646, -1.7296874523162842, 0.10011263191699982, -0.7157375812530518, 1.6518586874008179, -0.423796683549881, 1.0532474517822266, 0.06640639156103134, -1.2980178594589233, -0.02395874448120594, -0.5593265891075134, 0.5482471585273743, 0.31294652819633484, -1.5794411897659302, -0.7507826685905457, -0.27143099904060364, 0.8423409461975098, -0.5511713027954102, -0.2266761064529419, 1.4819697141647339, 0.40461280941963196, 0.6222885847091675, 0.14293429255485535, 0.5081309080123901, 1.1614181995391846, -0.02724040299654007, -0.3189254403114319, -0.8247337341308594, -0.9031807780265808, -0.9903454184532166, -1.5241063833236694, 0.1601865291595459, -1.4048867225646973], [0.11006677150726318, -0.41450005769729614, 1.819304347038269, 0.09782890975475311, 0.33246663212776184, -0.5725901126861572, -0.4291332960128784, 0.13095606863498688, -0.16321218013763428, -0.20116330683231354, 0.7291542887687683, -1.437676191329956, 0.12483290582895279, 0.19078445434570312, 1.1357173919677734, 0.27853408455848694, 1.617470383644104, 0.678189754486084, 0.16373004019260406, -1.396978735923767, -0.8599339723587036, 0.5369665622711182, 0.7643388509750366, -1.1679688692092896, -0.9466724395751953, 0.025856131687760353, 0.3722945749759674, -2.2108867168426514, -2.416506052017212, 0.3440605700016022, 2.437692642211914, 2.26521635055542, 0.031215332448482513, -0.7112770080566406, 0.9455654621124268, 0.14638017117977142, -0.8037219047546387, 0.16246624290943146, -0.254896342754364, -0.11773117631673813, 0.032299190759658813, 2.062962055206299, -1.749674677848816, 0.5898162126541138, -2.6222352981567383, 0.04027589038014412, -0.36137405037879944, -0.9993828535079956, 0.2578549087047577, 0.39086392521858215, 0.2724624276161194, 0.5205472111701965, -0.8810859322547913, 0.09575869143009186, -0.5296321511268616, 0.16977903246879578, 1.641629934310913, 0.48606956005096436, -1.2373791933059692, -0.8463971018791199], [-0.1827946901321411, 0.6650001406669617, -0.1898566484451294, -1.4098821878433228, -0.8075776100158691, 0.2955465614795685, 0.31081271171569824, 0.4026772975921631, 0.9283644556999207, -0.5161792635917664, 0.6761197447776794, 1.0901505947113037, 1.5604848861694336, -0.0735490620136261, 1.6558082103729248, -0.7337757349014282, -0.5744414329528809, 0.8615819811820984, -1.412349820137024, -0.4953974485397339, 0.6440708637237549, -0.06340844184160233, -0.705333948135376, -1.0265607833862305, -1.4287720918655396, 0.1948905736207962, -0.9856408834457397, 1.2761319875717163, 0.7073183059692383, -0.6064701676368713, -0.3146360516548157, -1.2724744081497192, 0.5678972005844116, 0.44044432044029236, -1.2587708234786987, -0.3172445595264435, -0.143854022026062, -0.6398813128471375, -0.42255252599716187, 0.7606744766235352, -1.5864510536193848, 0.3478081226348877, -0.9355649948120117, -1.3266677856445312, -0.867754340171814, 0.76595538854599, -0.1095273494720459, 0.3976283669471741, 0.8002676367759705, -1.740788459777832, 0.262584388256073, -0.8070141077041626, 0.36984777450561523, -0.5615894198417664, -0.035081151872873306, -0.9354535341262817, 1.2006242275238037, -0.43330150842666626, -2.892422676086426, 0.797396719455719], [0.48624560236930847, 1.9712085723876953, 1.2174756526947021, 2.378807306289673, 0.2594211995601654, 0.26695749163627625, 0.7268862724304199, -0.3709118962287903, 0.5929281711578369, 0.8382259607315063, 0.1645372062921524, -1.1139612197875977, 1.1992740631103516, 0.6616397500038147, -0.7855499386787415, -1.0813961029052734, -0.03991083428263664, -0.012035664170980453, 0.8146457672119141, -0.5534977316856384, 2.0025622844696045, 0.868113100528717, -1.0610198974609375, 1.1345139741897583, 1.0416609048843384, -0.24539831280708313, 1.3906710147857666, -2.3522584438323975, -0.8660987019538879, -0.9953949451446533, -0.13444937765598297, 0.3969641327857971, -0.440395712852478, -0.36170443892478943, 0.07956491410732269, 2.0147345066070557, -0.04531250149011612, -0.04418749734759331, 0.9816471338272095, -1.2496429681777954, -0.0514243058860302, 0.5931350588798523, 2.0128793716430664, -0.7892526388168335, -0.10536281019449234, -0.20130902528762817, 1.9427601099014282, -0.505207896232605, 0.6492024660110474, -0.5501345992088318, 0.425608366727829, 0.5558232665061951, -0.09632526338100433, 1.0082182884216309, 0.2959851324558258, 0.5220574736595154, 0.30443304777145386, -1.246211051940918, 0.53662109375, -1.147535800933838], [-1.0674855709075928, -0.699901282787323, 0.5267311334609985, -0.5917051434516907, 0.41156888008117676, 1.3838844299316406, -0.43270790576934814, 0.06113533303141594, -0.04542815312743187, -0.5591360330581665, 1.9336822032928467, 0.6216157674789429, 1.5706279277801514, -0.2514917552471161, -0.18082645535469055, 0.4275113046169281, 0.18704339861869812, 0.44977402687072754, 0.8901602029800415, 0.2610185742378235, -0.17071452736854553, -0.723190188407898, -1.109789490699768, -0.6546462774276733, 0.326158344745636, 0.7655102014541626, -0.8692376017570496, -2.6507465839385986, 1.430879831314087, -1.1053187847137451, -0.4248455762863159, 1.020174503326416, 0.8163020014762878, 0.9921689629554749, 0.904611349105835, 0.6377873420715332, -0.7119583487510681, 0.8920066952705383, -0.32349085807800293, -1.2993402481079102, -0.6960894465446472, -0.9053517580032349, -0.26477399468421936, 0.5937090516090393, -0.07789037376642227, -1.4592667818069458, -1.413259506225586, 0.7335280776023865, 0.0533837266266346, -1.27238929271698, 1.0479331016540527, 1.1970304250717163, 0.030479880049824715, -1.127403736114502, -1.9507962465286255, 1.264204740524292, 0.7907533645629883, 0.41616684198379517, -0.08999261260032654, -0.05054054036736488], [0.47900286316871643, -1.1252609491348267, 0.5348951816558838, 2.1271045207977295, -0.015455677174031734, 1.526184320449829, 1.3910424709320068, -0.12691938877105713, 0.20113904774188995, 0.4851183593273163, -0.7690624594688416, 0.2333139330148697, 0.9614500403404236, -1.208301067352295, 1.8418101072311401, -0.6744808554649353, -0.6121205687522888, -1.4021605253219604, -0.8047009706497192, -0.5947473049163818, 0.3534753620624542, -0.10256429016590118, 1.991851806640625, 0.6811138987541199, -1.49717116355896, 1.7565691471099854, -0.5987777709960938, -1.0888187885284424, 1.222886085510254, -0.5625688433647156, 0.13601766526699066, -0.22367537021636963, -0.3071882426738739, 1.6646785736083984, 0.8739606738090515, 1.3071976900100708, 0.8042815327644348, 0.9387106895446777, -1.1406198740005493, -0.017365088686347008, 0.37421080470085144, 0.8582705855369568, 0.7241739630699158, -1.8582171201705933, -0.8904210925102234, 1.2509928941726685, -1.1910921335220337, -0.03750341013073921, 0.9980490803718567, 1.1505423784255981, 1.0184895992279053, 0.9106683135032654, 0.7473740577697754, -0.6082220673561096, 1.3501285314559937, 0.766817033290863, -1.557389497756958, 1.5205366611480713, -1.6121147871017456, -1.0520421266555786], [0.07852675765752792, -0.4112594723701477, -0.5693679451942444, 0.2725555896759033, 0.14979082345962524, -1.7636287212371826, 0.6228837370872498, -1.4052629470825195, -0.3632974922657013, 0.7330096364021301, -0.799224317073822, -0.7432085871696472, -0.5501307845115662, 0.17826111614704132, -0.11963408440351486, -1.6891120672225952, 0.5790137648582458, -1.9133269786834717, 0.5403767228126526, -0.36021888256073, -1.7524410486221313, -0.03608227148652077, -0.4810035526752472, -0.6441988945007324, 2.3319475650787354, -0.11031011492013931, 0.4293491244316101, -1.0427840948104858, 0.9051796197891235, -0.8727206587791443, -0.5759853720664978, 0.41908758878707886, 0.3296242654323578, 0.9253271222114563, -1.2820416688919067, -0.6357426643371582, -0.9470606446266174, 0.09303648769855499, -0.701400876045227, -1.0267980098724365, 1.2109789848327637, 0.9426376223564148, -0.878217875957489, -0.13947610557079315, -0.9947953820228577, -0.8975734710693359, -0.9925047159194946, 0.5868783593177795, 0.4145745038986206, 1.3953710794448853, -2.082292318344116, -0.737609326839447, -1.7412267923355103, -0.005198275204747915, 0.4475007653236389, -1.2858123779296875, 1.8745644092559814, 0.6178016662597656, 1.129149079322815, -0.07881978899240494], [1.144955039024353, -0.5228246450424194, -0.8599046468734741, -0.29812613129615784, 1.47221040725708, 0.7204534411430359, 0.28061363101005554, -0.7649272084236145, -1.074660301208496, 1.140084147453308, -0.6804535388946533, 0.3763944208621979, -1.3877243995666504, 0.4156891107559204, -0.5977880358695984, 0.3686768114566803, -0.6627843976020813, -0.009600797668099403, 1.4105165004730225, -0.5647850036621094, -0.663117527961731, -0.8061417937278748, 0.1537422090768814, -0.25422006845474243, 1.9596048593521118, -0.35652509331703186, -1.1026562452316284, 0.9031481742858887, 1.845286250114441, -0.07373366504907608, 0.5145053267478943, -1.2595354318618774, -0.2567161023616791, 0.25901681184768677, -0.6319419145584106, 0.8792007565498352, 1.070246934890747, -0.38312220573425293, 0.4429774284362793, 1.9334287643432617, 0.0895618423819542, -2.8195910453796387, -0.050818704068660736, 1.0915924310684204, 0.6040632128715515, 0.8748276829719543, -0.873744547367096, -0.5857022404670715, 1.6753238439559937, -0.09087284654378891, -0.782719075679779, 0.39780986309051514, 1.3420138359069824, -0.5859195590019226, -0.34948673844337463, -0.32339659333229065, 0.1951848268508911, -0.8365262150764465, 0.8826178908348083, -0.46498122811317444], [0.03864765167236328, -0.19313010573387146, 0.38261935114860535, 1.7118494510650635, 0.09911252558231354, 0.17858797311782837, -0.1102161779999733, 1.0119059085845947, 1.7865924835205078, 1.7267760038375854, 0.6073970198631287, -0.9354678392410278, 0.29692116379737854, -0.30119991302490234, -0.08914796262979507, -1.8352395296096802, -1.2227489948272705, -2.035926580429077, -0.3127633333206177, -0.23272714018821716, -0.017526395618915558, 0.8929075598716736, 2.657528877258301, 0.35739943385124207, -0.5211054682731628, 0.7116480469703674, -0.08587044477462769, -1.0299581289291382, -1.5352245569229126, 0.4982928931713104, -0.7155437469482422, 0.37956419587135315, -0.4689323306083679, -0.9268366098403931, -2.147470235824585, 1.5273765325546265, -1.5669784545898438, 0.030230876058340073, -0.23052428662776947, -0.26732537150382996, 1.7663596868515015, -0.531833291053772, 0.5239155888557434, -0.17707481980323792, 0.2583971917629242, -0.2917562425136566, -1.3869267702102661, -1.1888889074325562, -1.150437355041504, 1.2138117551803589, 0.5955871939659119, -1.166795015335083, 1.212215781211853, -1.0856820344924927, -0.6564819812774658, 0.8046854138374329, -0.49437281489372253, 0.6116161346435547, 0.5962786078453064, 0.7414911985397339], [0.4958373010158539, 1.2088907957077026, -0.9505888819694519, 0.3779257833957672, -0.9239423274993896, -0.49307310581207275, -0.8498672842979431, -0.009433635510504246, 1.5047088861465454, -1.4041829109191895, -1.0619760751724243, -1.1653532981872559, -0.02303405851125717, -0.5875680446624756, -0.9835858941078186, 0.8473158478736877, -0.8451859354972839, -0.5500883460044861, 0.2472917139530182, 0.5012108087539673, -1.8901089429855347, -0.5481531023979187, -1.3022892475128174, -0.18930532038211823, -0.06932251900434494, 0.21759477257728577, -0.6907690167427063, 0.7309136986732483, -1.6979973316192627, -0.5920631289482117, 0.3263697922229767, -1.5570549964904785, -0.8570345640182495, 0.5479677319526672, -0.1190810352563858, -0.5729946494102478, 0.8300760984420776, -1.0513856410980225, 0.2503873109817505, -1.1805764436721802, 0.4389825165271759, -0.9541053771972656, -0.0383806973695755, -0.8956974148750305, -0.3424029052257538, -0.1301301270723343, -2.3052332401275635, -1.067989468574524, 0.3094499707221985, 1.233116865158081, -0.41707050800323486, -0.5598776340484619, 0.7473394274711609, -0.6660621166229248, 0.2676452398300171, 1.1789754629135132, 1.8799569606781006, -0.49434033036231995, 0.7185004353523254, 1.1482218503952026], [-1.5900192260742188, 0.49814531207084656, -0.5845358967781067, -0.40331119298934937, -0.07068225741386414, -0.3692272901535034, 0.8431888222694397, 1.6276566982269287, 0.12236915528774261, -0.005861681420356035, -2.118917226791382, -0.2563537657260895, 1.2658857107162476, -1.2225817441940308, 1.3809784650802612, 0.2881544530391693, -0.2992130219936371, -0.07477686554193497, -0.25778454542160034, 1.05987548828125, -0.5091162323951721, -0.04872122034430504, -0.7298749089241028, 0.15210063755512238, -0.023365169763565063, -1.0160880088806152, 0.1250924915075302, 1.5492538213729858, 0.6205337047576904, -1.010602355003357, -0.2080971598625183, 0.3546920120716095, 0.05961048603057861, -0.19072479009628296, 0.6861916184425354, 0.030550546944141388, -0.06171552464365959, 2.0999770164489746, -0.28757956624031067, -0.9750925302505493, 0.7639775276184082, -1.7839115858078003, 0.6236503720283508, 0.8539668917655945, 1.0812668800354004, 0.8656092882156372, -1.1939233541488647, 0.26917269825935364, -2.4613633155822754, -1.2985584735870361, 0.24483409523963928, -2.58811354637146, 1.1985373497009277, 1.2201956510543823, 1.4185872077941895, 0.2651289999485016, -0.31989726424217224, 0.3055242896080017, -0.13693128526210785, 0.29285797476768494], [0.8839178085327148, 0.8786288499832153, -0.3039248287677765, 0.09000487625598907, 0.16417434811592102, -0.980299711227417, 0.6584837436676025, -0.7191339731216431, -1.6827540397644043, -0.40656453371047974, -0.49659648537635803, 2.328315019607544, 0.6656259894371033, 0.6017473340034485, -1.0021766424179077, 1.176674723625183, -0.41919875144958496, 0.4991070330142975, 0.15963280200958252, 0.7151862978935242, 0.10745734721422195, -1.382369041442871, 1.5577619075775146, -1.1019922494888306, 0.2963258624076843, -0.19064533710479736, 0.020540369674563408, 1.5393385887145996, -0.7227877378463745, 0.028467081487178802, 0.48929211497306824, -0.15862146019935608, -0.10317777842283249, 0.8093167543411255, 0.4014917314052582, -0.4314688444137573, -0.9672951102256775, -0.37532293796539307, 1.3154077529907227, 0.8086718320846558, -1.2578026056289673, 0.3232569396495819, -1.9386012554168701, -0.25325414538383484, -0.1982993632555008, 2.072458028793335, -0.593504011631012, -1.3639858961105347, 0.3710598647594452, 0.8107125759124756, 0.17403070628643036, 0.7573918104171753, 0.3718924820423126, -0.0854988843202591, 0.31920379400253296, 1.154887318611145, 0.697916567325592, -1.2742738723754883, 1.9142595529556274, -0.22098882496356964], [-0.40851765871047974, 0.058883558958768845, -0.732139527797699, 0.5406394600868225, -0.48757466673851013, 0.7483472228050232, -0.13569502532482147, 1.1175909042358398, 1.0019326210021973, -0.3128470182418823, 1.0171382427215576, -0.7423341870307922, -0.17811079323291779, 0.34101375937461853, -0.1997719556093216, -1.0269273519515991, -0.05878615006804466, -0.04976474866271019, -0.4969263970851898, -0.09355604648590088, -1.0054413080215454, -0.2370104193687439, 0.15159353613853455, 0.8214467167854309, -0.5616514086723328, 0.009750813245773315, 0.1721951812505722, -0.9097605347633362, 0.3611488938331604, 1.103304147720337, 0.13854746520519257, -0.45049890875816345, 0.7120335698127747, -0.06359055638313293, 0.7711049318313599, -1.2458006143569946, 0.2143649011850357, 0.5361171364784241, -1.0202703475952148, -0.2203800529241562, 0.5902037024497986, 1.5786304473876953, -1.8411624431610107, -1.31937575340271, -0.039943795651197433, 1.9086169004440308, -0.5862955451011658, -0.8801315426826477, -0.009466947056353092, 2.1838057041168213, 0.16136303544044495, 1.0395036935806274, -0.042766816914081573, -0.042414139956235886, 0.13841469585895538, 0.29826492071151733, 0.03164152055978775, 0.24490435421466827, -0.897028386592865, 0.8854941725730896], [-0.7632175087928772, 1.2365771532058716, 0.31719183921813965, 0.5453623533248901, -1.2056406736373901, -1.2740083932876587, 0.9588289260864258, -1.0746257305145264, -0.2435148060321808, 1.7956135272979736, 0.6061564087867737, -1.1887526512145996, -0.7194006443023682, -0.6161677837371826, -0.16093486547470093, -1.3927230834960938, 1.582783579826355, -0.20655523240566254, -0.46137163043022156, -2.3341896533966064, 0.49356794357299805, 0.7126891613006592, -0.7163220047950745, -1.5983529090881348, 1.0093902349472046, -0.7569859027862549, 2.456578016281128, 1.1432054042816162, -0.7908426523208618, 0.32556116580963135, 1.7597042322158813, -0.14238020777702332, 0.8399747610092163, 0.15816166996955872, -0.5870615243911743, -0.1488432139158249, 2.0783767700195312, -0.7144222259521484, 0.02725895866751671, -0.9099673628807068, -0.9494536519050598, 1.1413648128509521, 0.8082635402679443, 1.0995739698410034, -1.9828788042068481, -0.5118963122367859, -1.4818161725997925, 0.49237269163131714, -1.1887730360031128, 0.1450451910495758, -0.9088860750198364, -0.06319484859704971, 1.8560717105865479, 0.9175233840942383, -0.9832680821418762, 1.0135788917541504, -1.102596402168274, -1.8357449769973755, 0.8108194470405579, -2.26977276802063], [2.2782955169677734, -0.4513087570667267, 0.8411779999732971, -0.605018138885498, 0.0012594336876645684, 3.7469027042388916, 1.6725497245788574, 1.1358829736709595, -0.3864702582359314, 0.2584441006183624, 0.426512748003006, -0.7638065814971924, 1.1234878301620483, -0.7850902676582336, -1.319369912147522, 1.151898980140686, 0.636298418045044, -0.8485199213027954, -0.4373350739479065, -0.2944054901599884, -1.0080831050872803, 1.4658113718032837, 1.45936119556427, -1.0091979503631592, -1.472530484199524, 1.792296290397644, 0.7332643270492554, -0.9187818169593811, 0.5664371848106384, -1.6024194955825806, 1.2483816146850586, 1.2055470943450928, 1.7365686893463135, 0.660416841506958, 1.0437778234481812, 1.9730101823806763, 0.27499663829803467, 1.8114711046218872, 0.38678306341171265, 0.7465155124664307, -1.9151198863983154, -0.46637770533561707, 0.725321352481842, 0.23367972671985626, 0.16437126696109772, 0.1013820692896843, -0.807712972164154, -0.6042770147323608, 0.17985799908638, -2.5588889122009277, 0.2892105281352997, -1.4187891483306885, 1.0025261640548706, -0.5849612951278687, 1.0777418613433838, -0.44662073254585266, 1.2863752841949463, 0.15198497474193573, -1.062815546989441, -0.31245654821395874], [0.48228198289871216, 0.4462616443634033, 1.2786000967025757, 0.40311071276664734, 0.17529816925525665, 0.8099028468132019, 0.8778629302978516, -0.07981006056070328, 0.7808359861373901, 0.11486952006816864, -0.8947678804397583, 1.781690239906311, 0.42362332344055176, -0.35758283734321594, -1.9623054265975952, 1.355650544166565, 1.4859931468963623, -0.14309453964233398, -0.8616669774055481, 0.9252930283546448, 1.7146245241165161, 0.15373046696186066, -1.0280042886734009, -1.5424965620040894, -0.7658522129058838, -0.185140922665596, -1.7873704433441162, 1.5654793977737427, 0.7119539380073547, 1.14143705368042, -0.24071882665157318, -0.9208424687385559, 1.754158616065979, 0.05526522547006607, -0.8631771206855774, -0.7110366225242615, -0.8574864268302917, -1.0110595226287842, -0.18415527045726776, 0.4902673065662384, -0.48801714181900024, -0.8103219866752625, 0.14649218320846558, 0.3440036475658417, -0.984352171421051, 2.1733977794647217, -0.7156290411949158, -0.48306623101234436, -1.3381088972091675, -0.33763185143470764, -0.7670468688011169, -1.2168594598770142, 1.781937837600708, 0.6403825283050537, -0.3617532253265381, -0.027994774281978607, 2.5649359226226807, 0.7445622086524963, -0.705970823764801, -0.08112922310829163], [-0.08762934803962708, -1.2459980249404907, -0.974066972732544, 0.13931293785572052, 0.45666056871414185, -0.6796936392784119, -0.7190662026405334, -0.11124725639820099, 1.2710329294204712, -1.7583608627319336, -0.0490487776696682, 2.212207317352295, -0.4300817847251892, -0.3074958920478821, -0.6693969368934631, 0.042014170438051224, -0.3162197470664978, -2.110661745071411, 0.5967010259628296, -1.0254452228546143, 2.3291802406311035, 1.195469856262207, -0.2530238628387451, -0.2578851282596588, -0.9646358489990234, -0.2611391544342041, 0.036967113614082336, 0.8435541391372681, -2.0847890377044678, 0.305527001619339, -0.03988807648420334, -0.8775472640991211, -0.7057039141654968, 0.9899487495422363, 1.3857473134994507, -0.2822222113609314, -0.7242620587348938, -0.5784828066825867, -1.4175199270248413, -0.03708009049296379, -0.641934871673584, -0.6249591708183289, 0.23475612699985504, 0.4404431879520416, -0.8948459029197693, 0.790503203868866, 0.510707676410675, -0.5087141394615173, -0.6363160014152527, -0.0554833821952343, -0.2533503472805023, 1.1331021785736084, 1.0659500360488892, -0.322758287191391, 0.07085467875003815, 2.2746870517730713, -0.2804552912712097, -0.3208182156085968, 0.22741234302520752, 0.2049255669116974], [1.367486596107483, 0.15360184013843536, 