{"hidden_1_layer": {"weight": [[-0.39720913767814636, -1.315414547920227, -1.0668128728866577, 0.7432043552398682, 0.8000634908676147, -0.8179214000701904, 1.0600906610488892, 0.49695390462875366, 0.07237689197063446, 0.0055215260945260525, 0.3402155935764313, -0.564965009689331, -0.04950163885951042, -0.014119771309196949, -0.14328056573867798, -1.0299824476242065, -1.2280669212341309, 0.05255825072526932, 0.8235353827476501, -0.22178784012794495, -0.009856578893959522, 0.8905792832374573, -1.2507179975509644, 0.5107478499412537, 0.8745805025100708, 1.2673654556274414, -0.6047472953796387, -0.3262074887752533, -1.2761279344558716, -0.3176780641078949, -0.5603906512260437, 0.15354564785957336, 0.34905534982681274, 0.36906784772872925, -1.1269611120224, 0.8355628848075867, -1.4726626873016357, 0.13516685366630554, -1.8084378242492676, 0.1126510500907898, -0.19825831055641174, 0.517386794090271, 0.2416803389787674, 0.09073647111654282, 0.05596885830163956, -0.9572209119796753, -0.10359247773885727, -1.5651830434799194, 0.6477954983711243, 2.0603091716766357], [-1.417412519454956, 0.5546208620071411, 1.8365036249160767, -0.8356209397315979, 0.8422278165817261, 0.09781426936388016, -0.2737002670764923, -0.5256681442260742, 0.19814401865005493, 0.2981427013874054, 0.45919620990753174, -0.6496130228042603, 0.1906733214855194, -0.24032600224018097, -0.24313218891620636, 0.31085851788520813, 0.11030834913253784, -0.9094091057777405, 0.43896037340164185, -1.251713752746582, 0.9230018258094788, -0.10600517690181732, 0.4088267683982849, -0.7958321571350098, 0.6873302459716797, -1.3139325380325317, -0.7577753663063049, -0.21731778979301453, 0.5582054257392883, 1.0695178508758545, 2.6469502449035645, -1.0317531824111938, 0.8349359035491943, -0.823194146156311, 1.337620496749878, -1.5240237712860107, 0.11111734062433243, -0.5999371409416199, -0.5407360196113586, -1.2437666654586792, -0.7340367436408997, -0.47405415773391724, -1.1485090255737305, 0.38117867708206177, 0.6298954486846924, 0.29769188165664673, -0.642516553401947, -0.9575894474983215, -0.21101847290992737, 0.058965932577848434], [0.3216080665588379, 1.1259980201721191, 0.2658061385154724, -0.2996567487716675, -0.7402858734130859, -1.7117680311203003, -0.6902327537536621, 1.59170663356781, 1.1987241506576538, 0.615677535533905, 0.4283300042152405, -0.6626845002174377, -0.3479395806789398, 0.37739646434783936, -0.36611297726631165, -1.7660619020462036, -0.3857913613319397, 0.30062779784202576, -1.814134120941162, 0.4307025372982025, -0.8354078531265259, -0.10529500991106033, -0.7167021036148071, 0.2283743917942047, -0.23046061396598816, 1.0675997734069824, -1.0567423105239868, -1.5449934005737305, -1.7419236898422241, 1.9961143732070923, -0.11911887675523758, 0.0024637137539684772, 0.49763673543930054, 0.21821554005146027, 1.5225205421447754, -0.18497103452682495, 0.56706702709198, 0.6504240036010742, 2.1112821102142334, -2.867382049560547, -0.9891032576560974, -0.13038823008537292, -0.7704382538795471, -0.8257354497909546, -1.0772829055786133, -0.7946628928184509, 0.016866028308868408, -1.4913926124572754, -0.2568660378456116, -0.43954649567604065], [1.4477931261062622, -1.4545105695724487, 0.3216393291950226, 1.048626184463501, -1.3088525533676147, 1.1430703401565552, 0.44560331106185913, -0.4883006811141968, 0.46264514327049255, 0.3145204782485962, -1.0308688879013062, -1.0254924297332764, 0.07301797717809677, 1.1359367370605469, -0.6513684391975403, 0.39336657524108887, 0.8893476724624634, 0.19226422905921936, 0.2768235504627228, 0.8961143493652344, -0.6382637619972229, -0.16713204979896545, -2.0583460330963135, -1.0249249935150146, 0.9461959600448608, 0.13061562180519104, 0.8378103375434875, -0.7471327781677246, 1.756030559539795, -2.7393383979797363, -0.031872279942035675, 0.19373442232608795, 0.12145889550447464, -1.0186995267868042, -0.184836745262146, 1.2833737134933472, -1.209816575050354, 0.025874510407447815, -0.2849441468715668, 1.2464815378189087, 0.21484799683094025, 1.074669599533081, 1.1555993556976318, 1.068630576133728, -0.6354454755783081, 1.2597442865371704, 0.3797414302825928, -0.9519694447517395, -1.153032660484314, 1.4921798706054688], [-0.2716580033302307, -1.0479683876037598, 0.8569483160972595, 0.7957852482795715, -0.5650500059127808, 2.5273916721343994, -0.6988646388053894, -1.302512526512146, -1.0206044912338257, 0.740272045135498, -1.7044190168380737, 0.8955342769622803, -0.8505269289016724, 0.2733752727508545, 0.012695767916738987, -0.8028205633163452, 0.6144177913665771, -1.347232460975647, 0.6709224581718445, 0.3850206732749939, 0.34319064021110535, -1.0319918394088745, 0.6183518767356873, -0.5680627226829529, 0.012149864807724953, 0.918099045753479, 0.07855293899774551, -0.9650404453277588, -1.9134749174118042, -1.7199199199676514, -3.6401877403259277, 0.5911691188812256, -0.746052086353302, -1.3533480167388916, 2.8293089866638184, -0.5791194438934326, -0.260954350233078, -1.6017084121704102, 0.6679997444152832, -0.37983864545822144, -1.3160154819488525, 1.399636149406433, -0.8108344674110413, 0.06010089069604874, 0.1366572082042694, 2.492492437362671, -1.4478065967559814, 0.4107368588447571, 1.4407743215560913, 0.19913387298583984]], "bias": [0.9455422759056091, 0.13686053454875946, -0.17246697843074799, -0.007064464036375284, -1.4639743566513062, 0.7576977610588074, 1.335890769958496, -0.8749980926513672, -0.11599891632795334, 1.0116980075836182, -0.8116205930709839, 1.1042135953903198, 1.277711033821106, -0.7977989315986633, 0.19358617067337036, 1.5014771223068237, -1.4777888059616089, -0.39522430300712585, -1.0830003023147583, 1.6413990259170532, -0.8812212944030762, 0.2572849988937378, -0.10595767199993134, 0.48486021161079407, -0.8345415592193604, 0.3311845362186432, 0.33039209246635437, -0.8096564412117004, 2.8582332134246826, 1.6384961605072021, 0.971882700920105, -0.2918427586555481, 0.40540432929992676, 0.6072549223899841, 0.03131425008177757, -0.9025949239730835, 1.5669842958450317, 2.266618013381958, 0.11155989021062851, 1.197887897491455, -1.465956687927246, -0.30179643630981445, -1.1741515398025513, -0.4671836197376251, 0.3110228478908539, 0.19617751240730286, -1.2229361534118652, 0.3626021146774292, -1.0623706579208374, 0.4137183129787445]}, "hidden_2_layer": {"weight": [[-0.014384756796061993, -1.1254171133041382, -0.7529447078704834, -1.6727666854858398, -0.5709039568901062, -1.1219831705093384, -0.5421485304832458, -1.0090347528457642, 0.16465319693088531, 0.037803344428539276, 0.8603483438491821, -0.9471982717514038, -1.1430716514587402, -0.22098232805728912, 0.4282892048358917, -0.05818067491054535, 0.07997683435678482, -0.3635987937450409, -1.3803907632827759, 0.2793731987476349, -0.35937100648880005, -0.049843911081552505, 0.1374061107635498, -0.44608932733535767, -0.594995379447937, -0.20789609849452972, 0.6081405878067017, 1.0269792079925537, -1.142138123512268, -0.4487157166004181, 2.016498327255249, 0.8624375462532043, 0.902140736579895, -1.1341708898544312, 1.453399419784546, -0.6030852794647217, -0.9931043982505798, -0.0205951239913702, -2.1221792697906494, 1.0444391965866089, 0.21482935547828674, -1.0100321769714355, 0.8972917199134827, -2.4586212635040283, 0.5027177929878235, -0.5202357769012451, -0.026883859187364578, -0.447927325963974, 0.9697968363761902, -0.11923572421073914], [-0.14056140184402466, -0.15580329298973083, 0.07057806849479675, -0.5978593230247498, -0.3980644941329956, -0.13324162364006042, -0.1919528692960739, -0.1565258502960205, -0.2948908805847168, -0.3813468813896179, -0.06445115804672241, -0.868989109992981, -1.8159631490707397, 0.37886151671409607, -0.35352063179016113, 0.5787135362625122, 0.5843751430511475, -0.26667386293411255, 1.1188217401504517, -0.471849262714386, -1.306057095527649, -1.1557995080947876, -0.9175276756286621, 0.5181313753128052, -0.10702264308929443, 0.4284595847129822, 0.35932987928390503, -0.7937173247337341, 1.068422555923462, -1.452565312385559, -0.09153436869382858, 0.7399460077285767, 1.7595964670181274, 0.001940558198839426, 0.17033211886882782, -0.12970538437366486, 1.464804768562317, 0.14458206295967102, 1.041500210762024, 0.16735543310642242, 1.900263786315918, -0.24311348795890808, -1.1645833253860474, 0.98018878698349, -1.0200557708740234, -0.5983240008354187, 0.3142907917499542, -0.7337971925735474, 0.8726652264595032, -0.5132918953895569], [-2.106755018234253, -0.44570398330688477, -0.058107491582632065, -1.6454250812530518, -0.7177808284759521, 1.1072454452514648, -0.8472773432731628, 2.0326590538024902, 0.36595696210861206, -0.9348307847976685, -0.7805446982383728, -0.7024632096290588, -0.23014205694198608, -0.9488381147384644, -0.01801907829940319, 0.08718133717775345, 0.352612167596817, -0.03168534114956856, -0.56655353307724, 1.1284890174865723, -1.2026162147521973, 1.671271562576294, -1.8075942993164062, -1.2035216093063354, -0.9620398879051208, 0.13423089683055878, -1.3993638753890991, 2.698915958404541, -1.2806950807571411, -0.8570162057876587, 2.625288248062134, 1.2136226892471313, 0.7747954726219177, -0.6648342609405518, 0.34810754656791687, 0.2947947084903717, -0.4858267605304718, 0.40583252906799316, -1.6234517097473145, 2.45320200920105, -0.5456728339195251, 0.057923153042793274, -1.4957759380340576, 0.48531168699264526, 1.5806981325149536, 1.0709340572357178, 1.3361129760742188, 0.3726678192615509, -0.908799946308136, 1.6184048652648926], [-0.6532972455024719, -0.007628634572029114, -0.03052240051329136, -0.3866356909275055, 0.28944671154022217, 1.4377110004425049, 2.296893835067749, 1.0549101829528809, 0.49169349670410156, -1.1540870666503906, -1.6047865152359009, 0.7782494425773621, 0.46905651688575745, 0.9335151314735413, -0.6437414288520813, -1.0731631517410278, 0.3297211527824402, -0.708932638168335, -0.7215674519538879, -1.9079560041427612, -0.5468001365661621, -0.2671802341938019, -0.5700485706329346, 0.4184412956237793, -1.4376126527786255, -0.7115771174430847, 0.5814319849014282, -0.5799919366836548, -0.023554131388664246, -1.2953640222549438, 0.014951236546039581, -0.11907642334699631, -1.0839204788208008, -0.26879987120628357, -0.007297254167497158, 0.9672654271125793, -0.530565619468689, -0.2500080168247223, -1.7665135860443115, -0.2591349184513092, -0.6232284307479858, -1.2779738903045654, 0.28702062368392944, 0.416063517332077, -0.19707097113132477, -0.25884732604026794, 0.024964749813079834, -0.704018235206604, -0.09301362931728363, 1.155778408050537], [3.134040117263794, 0.03321519121527672, -0.5717750191688538, 1.1529531478881836, -1.3466724157333374, -1.557135820388794, -0.8843975067138672, -0.2304074913263321, -0.15183264017105103, -0.1289520263671875, 1.5298078060150146, -0.10065002739429474, -0.4169369339942932, 0.036371298134326935, -1.0668009519577026, -0.26281049847602844, 0.7377756834030151, -1.091534972190857, -1.278149127960205, 0.5763872265815735, -1.3142130374908447, -0.13754868507385254, 1.7608684301376343, 0.099118672311306, -0.25747397541999817, 1.770472526550293, -0.6541100740432739, 1.6034836769104004, 0.6643040776252747, -0.07094575464725494, -0.757125735282898, 0.8362112045288086, 0.457181453704834, -2.011478900909424, -1.2132809162139893, -1.8795299530029297, 0.1643705666065216, -0.4299948215484619, -0.5763435363769531, -0.5332915186882019, 0.8487668037414551, 0.4981817901134491, -0.817967414855957, 2.039533853530884, 0.27638480067253113, 0.32387346029281616, 0.6521081328392029, -0.7033069729804993, 0.9001349806785583, -0.5662786364555359], [0.5004130601882935, -1.8457187414169312, -0.2051994502544403, -0.06754064559936523, -0.4070615768432617, 0.5074437856674194, -0.09129437804222107, 1.5803414583206177, 0.8946470618247986, -0.4491325318813324, -1.3351560831069946, -0.715828537940979, 0.9767905473709106, 2.4412643909454346, -0.7531034350395203, 0.949937641620636, 0.5117186903953552, 0.7798724174499512, 1.337237000465393, -0.7736866474151611, 0.6126720309257507, -1.790584683418274, 0.4674179255962372, -0.8403876423835754, -0.7494319677352905, -1.668431282043457, -0.5465937256813049, 0.049298714846372604, -0.7181751728057861, 0.36820411682128906, 0.21896564960479736, -2.712822437286377, 0.16018716990947723, 0.07864359766244888, -0.35201871395111084, 0.3912615180015564, -1.0187983512878418, -0.6758369207382202, -0.3932410776615143, 2.011148452758789, 0.2304099202156067, 0.16317994892597198, -0.932400643825531, -0.23321940004825592, 0.5825530290603638, -1.401434063911438, 0.6184819936752319, -0.8540242314338684, -0.2972715497016907, -0.9423337578773499], [0.8847222328186035, -0.08817164599895477, 1.0423712730407715, -0.5182909369468689, -0.7923214435577393, -0.9845951795578003, 0.019115127623081207, 0.5914382338523865, 0.08219583332538605, -1.8093719482421875, 0.6096802949905396, 0.5403880476951599, 1.618467926979065, -0.6574191451072693, 1.4540526866912842, -0.05578021705150604, 0.8941508531570435, 0.03266026824712753, -1.263603925704956, -0.3880191743373871, -2.7205798625946045, 0.11551510542631149, 1.0342376232147217, 0.5545141696929932, -1.273302435874939, -0.37185847759246826, 0.01049199141561985, -1.5091567039489746, -1.7956668138504028, -1.738136887550354, -1.144819736480713, 0.7910923957824707, -1.505600094795227, 0.6876373887062073, 0.35437190532684326, -0.963081419467926, 0.7463427186012268, 1.0413448810577393, -0.31096917390823364, 0.07857008278369904, 1.353774905204773, -0.8090632557868958, -1.209395170211792, -0.7633926272392273, -0.12196051329374313, -0.16953010857105255, -0.27952447533607483, 1.073846459388733, 0.21414875984191895, -0.6816949844360352], [-0.7565771341323853, 1.186837911605835, -0.6525198221206665, 0.6952066421508789, 0.40645647048950195, 0.23518168926239014, 0.8288301229476929, 0.1295931339263916, 0.31522253155708313, -0.6585930585861206, 0.029279641807079315, 0.7029175758361816, 1.1849528551101685, -0.33716604113578796, -0.4579519033432007, 1.233067512512207, -0.25410062074661255, 0.8290823101997375, -0.23879116773605347, 0.7129132747650146, -1.5943970680236816, 0.4375835955142975, -1.142928123474121, -0.2286529541015625, 2.2401654720306396, 1.5737162828445435, 0.5504867434501648, -0.8001518845558167, 0.510349690914154, -0.07260555773973465, -0.5503831505775452, 1.4548507928848267, 1.7270314693450928, 1.1220881938934326, -1.1506215333938599, -1.3606261014938354, 1.5942614078521729, 2.6837174892425537, -0.8869171738624573, -1.073215126991272, -0.6423106789588928, 2.871621608734131, -1.0409635305404663, -1.8502771854400635, 0.8004489541053772, -0.682068943977356, 0.6124638915061951, 0.6121478080749512, -0.4185425043106079, -2.245936393737793], [1.4434595108032227, 0.05221477895975113, 0.4002731144428253, -0.016735494136810303, -0.6722344160079956, 0.28377729654312134, -0.014841774478554726, 0.663234531879425, 0.7085703015327454, -1.7930960655212402, 1.2981873750686646, -0.20907893776893616, 0.08084536343812943, 1.4542750120162964, -0.5812996029853821, 0.14636607468128204, -0.27527540922164917, 0.7925719022750854, 0.3055233955383301, 0.22073811292648315, -0.6112563014030457, -0.07231318205595016, 0.6794611215591431, 1.08657705783844, 0.13210493326187134, 1.1183006763458252, -1.0775576829910278, -1.8207688331604004, 0.9951311349868774, 1.526024341583252, 0.14785981178283691, 1.62172532081604, 1.138498306274414, -1.6430230140686035, -1.5068124532699585, -0.37371769547462463, -0.6915273070335388, 0.23151715099811554, 0.8149015307426453, -0.6155927777290344, -0.8704012632369995, -0.37260547280311584, -0.888166606426239, -1.3361709117889404, 1.069016933441162, 0.07371743768453598, -1.0085232257843018, -0.8054024577140808, -0.6854147911071777, -0.17998914420604706], [-0.4780159592628479, -0.2372177243232727, -0.6031793355941772, -0.06133251637220383, -0.8588780760765076, -1.1806524991989136, 0.23665867745876312, 0.25076010823249817, -1.2759804725646973, 0.9305294752120972, -0.9969111084938049, -1.362905740737915, -0.5949926972389221, -0.10034783184528351, 0.14211441576480865, 1.2144333124160767, -0.4086584150791168, 0.16659559309482574, -0.2701171934604645, -0.5583080649375916, 0.05658340081572533, -1.1927368640899658, -0.07816483080387115, -0.6030543446540833, -0.0481618270277977, -0.27039986848831177, -1.062564730644226, 0.16312259435653687, 0.3059251010417938, 0.7391728758811951, 0.5671746134757996, -0.3451445996761322, 2.1004397869110107, -0.14100302755832672, -1.407668948173523, 0.18537159264087677, -0.29147806763648987, -0.6752106547355652, 0.6118671894073486, -0.19307297468185425, -0.974388062953949, -0.26354384422302246, 0.14687767624855042, -0.6523777842521667, 1.0078076124191284, -1.3376846313476562, 0.3479725420475006, -0.2996443212032318, -0.7217690348625183, -0.9947667121887207], [1.2062828540802002, 0.35808491706848145, 0.5877135396003723, -0.937417209148407, -1.4980038404464722, -1.6274875402450562, -1.1678318977355957, -0.8581793308258057, -0.7971587181091309, 0.05461008474230766, -1.717100739479065, -0.4531188905239105, -1.9233331680297852, 0.21078598499298096, -0.8412385582923889, -0.5375483632087708, 0.9405720233917236, -1.0315505266189575, -1.435671091079712, 0.14207153022289276, -2.839543104171753, 0.12325575202703476, -0.6114064455032349, 0.7730669379234314, -1.3590450286865234, -0.10142219066619873, -0.061044663190841675, 0.10166916251182556, -2.1783699989318848, -2.855930805206299, -1.0165609121322632, 0.8797962665557861, 2.1819252967834473, -0.7204697132110596, -0.25363463163375854, 1.5233592987060547, 0.4193008244037628, 0.9105921983718872, -0.13572023808956146, -0.7945142984390259, -0.9568325877189636, 0.2946276068687439, 0.5652605891227722, -1.3525782823562622, 1.5079195499420166, -0.7987911105155945, 1.052842140197754, 0.12592841684818268, -0.4075016677379608, 0.5568856000900269], [-1.4599462747573853, 0.04473989084362984, -0.9759381413459778, 0.5659606456756592, 0.30393242835998535, 0.6955087184906006, -0.14557065069675446, 0.1807272583246231, -0.0980643630027771, 0.4066617488861084, -0.19837301969528198, 0.8598640561103821, -1.1515135765075684, -0.006700162775814533, -0.8052734732627869, 0.022156845778226852, -0.6701145172119141, 0.5703640580177307, -0.16957814991474152, -0.638526439666748, 1.203330636024475, -0.023597871884703636, 0.10338926315307617, 0.371534138917923, -0.26995813846588135, -0.599027156829834, 1.4798150062561035, 1.255669355392456, 0.04891808331012726, -1.2249431610107422, -1.1819549798965454, -0.848998486995697, 2.1810989379882812, -0.9005692005157471, -2.1912386417388916, 0.19453085958957672, 0.10422046482563019, -0.8669605851173401, 0.8047457933425903, 1.6867083311080933, 1.0044597387313843, 0.8500577211380005, 0.4587755799293518, -0.7312198281288147, -0.7777780294418335, -0.6293197870254517, -0.49476560950279236, 0.4541858732700348, 0.672058641910553, 0.9387218952178955], [0.3373059630393982, 0.3788025379180908, 1.899367332458496, 0.6810560822486877, 0.3409213423728943, -0.9353307485580444, -1.07077157497406, -1.2929937839508057, 0.2239723801612854, -0.8333333730697632, -0.5005660653114319, -0.7908608317375183, 1.1673365831375122, 0.2140878289937973, 0.1371416449546814, -0.9709280729293823, 0.2590375244617462, -1.7884467840194702, -1.2007699012756348, 0.8183801770210266, -0.008959479629993439, -0.9273291826248169, 2.2160701751708984, 0.6013990640640259, 0.07250542938709259, -0.2071537971496582, -0.9806520938873291, 1.0427601337432861, -1.013123631477356, 0.37566447257995605, 2.0159988403320312, 0.586860179901123, -1.0579413175582886, 2.273251533508301, 1.0047454833984375, -0.006467481143772602, 0.7931147813796997, -0.33252307772636414, -0.85442715883255, 0.6816052198410034, 0.3283202648162842, -1.5878316164016724, -0.3514293432235718, 0.3676002025604248, -1.3873776197433472, 1.1615277528762817, -0.4837486743927002, -0.18931035697460175, -0.14646697044372559, 1.280386209487915], [0.5486241579055786, -1.094059944152832, 0.9088590741157532, -0.3677348792552948, -0.09108701348304749, 1.076397180557251, 0.32606494426727295, 0.002099979668855667, 1.604771375656128, -1.3765181303024292, -0.1558157354593277, -1.0140166282653809, -1.113891363143921, -0.3551139235496521, 1.2731165885925293, 0.3701407015323639, -1.068533182144165, 0.9860826730728149, -0.14019012451171875, 0.7210012078285217, 0.36822134256362915, -2.706465005874634, -0.48905959725379944, 0.7418314218521118, 0.45750921964645386, -0.28546449542045593, -1.374916911125183, -1.111133098602295, -1.7400469779968262, 0.3925298750400543, -0.768825352191925, -1.2060437202453613, -0.07349196821451187, -1.0984768867492676, 0.23007124662399292, -0.8186095952987671, 1.1228995323181152, 0.006045943591743708, 0.6640567779541016, 0.356135755777359, -0.2778198719024658, -1.1016504764556885, 0.7432753443717957, 0.39259737730026245, -1.196632742881775, 1.5470551252365112, -0.9387864470481873, -0.34934890270233154, -1.0969518423080444, 1.456059217453003], [-0.5866097211837769, -0.448641300201416, -0.89637690782547, -0.5574114322662354, 0.684672474861145, -0.30110910534858704, -1.0137385129928589, -0.4189765155315399, 1.2760120630264282, -0.7443490028381348, -0.48698660731315613, -0.1491459161043167, -0.297161728143692, 0.47122862935066223, 0.9276747107505798, -0.82049560546875, 0.19189050793647766, -0.9670056700706482, -0.6810078024864197, -0.46104270219802856, -1.7202154397964478, 1.1962462663650513, 0.7842084169387817, 0.3966212272644043, -1.9901797771453857, 1.3114694356918335, -1.3447304964065552, -0.1464596837759018, 0.6003596782684326, 0.9721423387527466, -1.225201964378357, 0.4801972806453705, 1.9484745264053345, 1.044339656829834, 0.8645215630531311, -0.4255368113517761, 0.1380101889371872, -0.6858557462692261, -1.0111334323883057, 0.06850618869066238, 0.0045801857486367226, 1.3018317222595215, -0.1923365294933319, -0.2964623272418976, 0.9734623432159424, -0.6274652481079102, -1.5588363409042358, 0.9764877557754517, 0.6206633448600769, 1.6917040348052979], [-1.71564519405365, 0.11381165683269501, 1.837198257446289, 0.051316358149051666, 0.2202039510011673, -0.2984016537666321, -0.014485901221632957, -1.6007639169692993, 0.5837458372116089, -0.27962544560432434, 0.009797440841794014, -0.29350048303604126, -0.3702937364578247, 0.4987744688987732, 0.24042198061943054, -0.5380194187164307, -0.1177590936422348, -0.44102221727371216, 0.03589576110243797, 0.2892800569534302, 1.932612657546997, 1.9128749370574951, -0.44315242767333984, 1.4190140962600708, 0.14978615939617157, 0.4848628044128418, -0.3019647002220154, 0.287318617105484, -0.7493807673454285, 0.1807817667722702, -1.3350611925125122, 0.7494217157363892, -0.11432833224534988, -4.021447658538818, -0.8345847129821777, 1.438003420829773, 0.05353125184774399, -0.44202783703804016, 1.6860122680664062, -0.4822166860103607, -0.5553227663040161, 0.20239606499671936, -1.4070996046066284, 0.2942616939544678, -0.457599937915802, -1.9011768102645874, -0.6480025053024292, -0.3452192544937134, -0.4873516857624054, -1.1718939542770386], [-0.256165474653244, 0.19323979318141937, -0.3723764419555664, 0.9691153168678284, -0.12910206615924835, 0.0005987781332805753, -0.9483444094657898, -0.8182027339935303, 1.273606300354004, 0.8018529415130615, 1.276517629623413, 1.3450218439102173, 0.0382196418941021, 1.3269175291061401, -0.6701535582542419, -0.15538010001182556, -2.566340446472168, -1.391053557395935, 1.20409095287323, -0.3547763526439667, 0.059421759098768234, -0.4296236038208008, 0.8924624919891357, 0.09654583036899567, 0.9426720142364502, 0.4672355055809021, -0.09020685404539108, -1.0983959436416626, -2.628943681716919, 0.8018175363540649, 0.1930403709411621, 0.38367971777915955, 0.3587091863155365, 2.113666534423828, -1.2085752487182617, -0.021979326382279396, -0.1911756992340088, -1.1005414724349976, 0.0405774749815464, 1.3442379236221313, -1.02592933177948, 0.5347815752029419, 1.2801281213760376, -0.36983221769332886, -0.8221319317817688, 0.7809807658195496, -1.4244279861450195, -1.0224100351333618, 0.13852602243423462, -0.43519115447998047], [-0.6700763702392578, 0.011800785548985004, 1.0348793268203735, 0.36061781644821167, 1.4310153722763062, 0.9080659747123718, 0.7667842507362366, -0.7922804355621338, -0.5810412168502808, 1.8810458183288574, -1.977833867073059, -0.2655034065246582, 0.07546442747116089, 0.2371465414762497, 0.20263837277889252, 2.5543177127838135, -0.1230592131614685, 0.706339955329895, -1.0013644695281982, 0.5161454677581787, 0.024644501507282257, 0.1986568570137024, 1.5871409177780151, 0.48040321469306946, 0.4536132216453552, 0.1185784637928009, 0.4910464286804199, -0.25209179520606995, 0.1150532066822052, 0.9056699872016907, 0.057747986167669296, 0.33718085289001465, -0.3982970714569092, -0.25525006651878357, -2.7972326278686523, 2.2904341220855713, 2.898986339569092, -0.22063003480434418, 0.14049744606018066, 1.3504304885864258, 0.41389259696006775, -1.5241388082504272, 0.28907090425491333, 0.6570565700531006, 1.3556071519851685, 0.03875179961323738, -1.6625300645828247, 0.13734933733940125, -0.6259868741035461, -1.366605281829834], [-0.33119624853134155, -0.4866988956928253, -0.8159914612770081, 0.6264442801475525, 1.0767295360565186, 0.3703441917896271, -2.0068278312683105, 0.8007432222366333, -0.8092567324638367, -0.48650556802749634, 0.4721021354198456, 0.903528094291687, -1.8861380815505981, 1.7393442392349243, 0.21754306554794312, 0.9571376442909241, 1.983859658241272, 0.3792826235294342, 1.1643198728561401, -1.1372219324111938, -0.3391090929508209, -0.2704686224460602, -2.6867144107818604, 1.4993733167648315, -0.1640097200870514, -0.15135686099529266, -0.904491126537323, -0.49559569358825684, -0.45409202575683594, -0.16303123533725739, -1.3465861082077026, 0.6588190793991089, 1.4358654022216797, 0.30125313997268677, 0.07528097182512283, 0.12886442244052887, -0.45057040452957153, 0.6915673017501831, 1.6226240396499634, 0.653170645236969, -0.5592042803764343, 0.06468763947486877, -0.011098772287368774, 0.2573606073856354, 0.184135302901268, -0.12626239657402039, 0.06576557457447052, 2.0262646675109863, -0.31168684363365173, -0.5801941156387329], [0.4449365735054016, 0.06540421396493912, -0.4412590563297272, 0.5679166913032532, -0.4521370232105255, -0.775993824005127, -0.029539942741394043, -0.13246002793312073, -0.08562283217906952, 0.05086333677172661, 0.5871794819831848, 0.8010725378990173, -0.6775856018066406, -0.3190992474555969, 0.15234093368053436, -1.479089379310608, 0.8423564434051514, -1.885768175125122, -2.465874433517456, -0.3054681420326233, 0.956335186958313, 0.6699211597442627, 0.7479121685028076, 0.06878895312547684, -0.9932200312614441, -0.16571266949176788, -0.49102583527565, -0.5001081824302673, 1.166050672531128, -0.388919860124588, -1.6924687623977661, -1.8114428520202637, 0.06031820550560951, -2.0047860145568848, 0.20578238368034363, 3.170896053314209, 0.2744259536266327, 1.5349448919296265, 0.048558544367551804, 0.1555991768836975, -0.5374462604522705, 0.26529011130332947, 0.4333016872406006, 0.3230001926422119, -0.3495331108570099, 0.6169730424880981, 0.748116672039032, 1.1495834589004517, 0.7267919182777405, -2.09521222114563], [-0.5669418573379517, -0.6334551572799683, -1.516135573387146, -0.30422183871269226, 1.1467807292938232, 0.08058230578899384, 1.10431706905365, -0.42188966274261475, 0.06625277549028397, 0.3543812930583954, -0.434571236371994, 1.4235658645629883, 1.1528857946395874, 0.12059775739908218, -0.3796384632587433, 0.9543253779411316, 0.3786528408527374, 0.3738350570201874, 0.3722396492958069, -0.5353859066963196, -0.27325350046157837, -0.3742704689502716, 1.400786280632019, 0.7236080169677734, 0.0233114305883646, -1.4381043910980225, 0.04890761151909828, -1.0909074544906616, 0.7509117722511292, -0.7847105860710144, -0.054394856095314026, 0.42899978160858154, 0.0173629317432642, 1.143141746520996, -0.036711107939481735, -0.05731672793626785, 1.7005341053009033, -1.4769630432128906, -0.010550393722951412, -1.1151689291000366, -1.5375694036483765, 0.6746261715888977, 1.4676933288574219, -0.7653927803039551, 1.711961030960083, 0.24865496158599854, -0.25429004430770874, 0.1382834017276764, 0.4937964677810669, -0.26517438888549805], [-0.622188150882721, 1.5737810134887695, -0.7959736585617065, -0.9027900695800781, -0.01910768821835518, 0.7896857857704163, 2.1614670753479004, 1.5598499774932861, -0.18171708285808563, 2.338833808898926, -1.139319658279419, -0.39831721782684326, -1.6049882173538208, -1.5601507425308228, -0.5774613618850708, -2.41434383392334, 1.2622102499008179, -0.08873213082551956, -0.8338632583618164, 0.5640486478805542, 0.12861718237400055, 0.5023396015167236, 1.204607367515564, -0.23653016984462738, -0.2378556728363037, 2.000786781311035, 1.594500184059143, -0.37338992953300476, -1.7108545303344727, -0.5659980773925781, -0.41337648034095764, 1.223415732383728, -0.06124931946396828, -0.6837877035140991, -1.4737368822097778, -0.06844528764486313, 0.776972234249115, 1.9299081563949585, -1.6742757558822632, 0.44770941138267517, -0.5342246294021606, 1.1567718982696533, -0.35805264115333557, 0.10431104153394699, -0.24078290164470673, 0.3109080195426941, 0.033144377171993256, -2.343790292739868, 0.38012272119522095, 0.28418776392936707], [0.051515065133571625, -1.1924628019332886, 1.0311822891235352, 2.0638740062713623, 0.4243456721305847, 0.6695624589920044, 1.2519803047180176, 0.9053750038146973, 0.08789947628974915, -1.6491039991378784, -0.2745491862297058, -0.3118012249469757, -1.7062300443649292, 0.9090717434883118, 1.2346224784851074, 0.7713178992271423, 0.04906657338142395, 0.16301050782203674, 0.2708829939365387, -1.3538190126419067, 0.4241458475589752, -0.6470879316329956, -0.2553812265396118, 1.241170883178711, -2.0347843170166016, -0.2828943133354187, -0.9108079075813293, 0.02041669562458992, 0.011387902311980724, 0.364482045173645, 0.5977344512939453, 0.5680668950080872, 0.13804709911346436, -2.177772045135498, 0.6187613606452942, -0.38013628125190735, 0.33114510774612427, 0.7366301417350769, 0.3410428762435913, 1.028329610824585, -0.28055837750434875, -0.4360874593257904, -0.21565741300582886, -0.053014181554317474, 1.6986738443374634, 0.7960359454154968, -1.057213306427002, -0.34852007031440735, 0.45319920778274536, -1.2093693017959595], [-0.5191737413406372, 2.164494514465332, 1.3106727600097656, -2.38236403465271, 1.7386729717254639, -0.4422616958618164, 0.4847742021083832, -0.5340976119041443, -2.105440616607666, -1.9565389156341553, 0.739020824432373, -1.384132981300354, 1.0059703588485718, 0.927324652671814, -0.2931971549987793, 0.10744158923625946, -2.8366541862487793, -1.0561612844467163, -0.3580017387866974, -0.16545692086219788, 1.236757755279541, 0.8241849541664124, -0.5314076542854309, -1.6367900371551514, 0.05342730134725571, -0.29160910844802856, 0.6518441438674927, 1.5990777015686035, 1.6933406591415405, -0.45355769991874695, -1.7844465970993042, -0.23066385090351105, 0.12216900289058685, 0.21021589636802673, -0.027437740936875343, 0.24895872175693512, -0.051350418478250504, -0.5316399335861206, -1.0800786018371582, 0.7843654751777649, -0.7974141836166382, 0.201040580868721, -0.5447191596031189, -0.7008818984031677, -0.4985205829143524, 0.17735141515731812, -1.5569887161254883, -1.014466404914856, 1.3624000549316406, 0.11195994168519974], [0.29656270146369934, -0.6989880800247192, -1.153844952583313, -0.0250669214874506, 0.04350443556904793, -1.2683476209640503, -0.09286175668239594, 1.259620189666748, 1.1322290897369385, 0.17329557240009308, 1.203955054283142, 0.11390341818332672, -0.36539405584335327, 2.1446685791015625, 0.6353284120559692, 0.6155713796615601, 0.031691111624240875, -0.7622777819633484, 1.8394501209259033, -0.14256736636161804, -0.4082876145839691, 0.43402227759361267, 1.2167648077011108, 0.4933680593967438, 0.37736043334007263, -0.31464141607284546, -0.04436681792140007, -0.8615676760673523, 0.8543352484703064, 0.8972887396812439, 0.7659305930137634, 1.3005621433258057, -0.5692919492721558, 0.9552229642868042, 0.48436224460601807, -0.06658030301332474, -0.4474848508834839, -0.07495798170566559, -0.8864678144454956, 0.5476088523864746, 0.960686445236206, -0.762685239315033, 0.5230370163917542, -0.35264766216278076, -1.9869731664657593, 1.002729892730713, 0.49675384163856506, -0.2735602855682373, 1.9472228288650513, -0.49737605452537537], [0.343523234128952, -0.9011481404304504, -1.76250159740448, 0.007005792576819658, -0.07316664606332779, -0.46767473220825195, -0.7148309946060181, -0.3560261130332947, 0.9940935373306274, -0.3969143331050873, -2.6349096298217773, 1.1516276597976685, 1.7442536354064941, 0.546733021736145, -0.20666863024234772, -0.24093672633171082, 0.6554808020591736, -0.6262765526771545, 2.8295159339904785, 1.378788709640503, -0.9754541516304016, 1.9188683032989502, 0.43346062302589417, 0.580100417137146, 1.5095781087875366, 1.3234394788742065, 0.3718939423561096, 0.818816602230072, 0.41289201378822327, 0.2902483642101288, -0.9825010299682617, 0.10795228183269501, 0.28890854120254517, -0.2713746130466461, -2.1577303409576416, 1.2023859024047852, -0.11346849799156189, 0.12089096754789352, -0.009579942561686039, 0.24123144149780273, 0.5675619840621948, -0.02471686154603958, 1.2759428024291992, 0.5118122696876526, -0.5114691853523254, 0.09857911616563797, 1.055441975593567, -2.418851613998413, 1.4697896242141724, -1.5550774335861206], [0.8116416931152344, 1.856044054031372, -0.08965487778186798, -1.0585987567901611, -0.37779226899147034, -0.708099365234375, -1.0260863304138184, -1.1495472192764282, 0.034781716763973236, -0.5095778107643127, 1.366795539855957, -0.7092678546905518, 2.328547716140747, -1.2720441818237305, -0.6517843008041382, 0.6847074031829834, 0.35258081555366516, 1.0147597789764404, -0.4254443943500519, -2.1752166748046875, -0.11743705719709396, 1.2279752492904663, 2.820798873901367, -0.7432183027267456, -0.38840702176094055, 0.047506436705589294, -1.1187219619750977, 1.8577589988708496, 0.4765476584434509, -1.5116132497787476, -0.887747049331665, 0.24292804300785065, -1.6655853986740112, 0.3895762264728546, 0.5435764193534851, 0.5214986205101013, 1.9612696170806885, -1.3752206563949585, -1.4902076721191406, -0.4372359812259674, 1.8690768480300903, -1.2165497541427612, 0.4780879318714142, -0.3257252275943756, 1.2968275547027588, -1.2880934476852417, -0.7122490406036377, -0.735871434211731, -0.9382231831550598, -0.980563759803772], [-0.39422446489334106, 0.09185340255498886, -0.3541155457496643, -0.7679730653762817, -1.1997320652008057, 0.7164562344551086, -2.332412004470825, -1.2079066038131714, 1.5026198625564575, -0.7355983853340149, -2.1395862102508545, 1.8128653764724731, 0.12445535510778427, 0.2508065104484558, -2.0366060733795166, 1.797062635421753, -0.1127239540219307, 0.2036248743534088, -0.6746224761009216, -0.2710532248020172, -0.8865605592727661, -0.45459604263305664, 1.2535947561264038, -0.14155010879039764, -0.10443345457315445, -0.37496837973594666, 1.628798484802246, -1.05424964427948, -0.47940173745155334, 1.2827690839767456, 0.21432767808437347, -0.8382847309112549, 0.7425659894943237, -1.524167776107788, -1.2220038175582886, -0.9489073157310486, -0.8813976049423218, -0.177228644490242, 1.1510125398635864, -0.11383935064077377, 0.28931477665901184, 1.4736424684524536, 0.2747543752193451, -1.1841061115264893, -1.0865689516067505, -0.10932232439517975, 0.5614086389541626, 1.3300793170928955, -0.9641852974891663, -0.08343205600976944], [-0.35873663425445557, -0.7476893663406372, 0.14186783134937286, -0.31281304359436035, -1.1523892879486084, -2.313199758529663, -0.32549217343330383, 0.11070678383111954, -0.13136696815490723, 0.21546152234077454, 0.8488691449165344, 0.8530687689781189, 0.0346558652818203, 0.7966389656066895, -1.1300506591796875, -0.27953386306762695, 0.40654250979423523, -1.0142221450805664, 0.9544829726219177, 0.6390115022659302, 0.49761655926704407, 0.6236847043037415, -0.37839117646217346, -0.4452342689037323, 2.555447816848755, 2.202895164489746, 0.9787236452102661, -0.13078126311302185, 0.15892335772514343, 0.29198378324508667, 1.9071780443191528, -0.8095507621765137, 1.444671630859375, 0.1987747699022293, -0.48096710443496704, 0.17356936633586884, 0.7359260320663452, 0.14668768644332886, 0.5435751080513, 1.9661009311676025, 0.5547382235527039, 1.5344833135604858, -0.5346227884292603, 1.6302834749221802, 0.47914040088653564, 0.5090595483779907, -0.717406153678894, 0.32764139771461487, -0.06595174968242645, 1.5099751949310303], [0.28129780292510986, -0.08781088888645172, -0.5122714638710022, -0.01000756211578846, -0.5901191234588623, 2.5061800479888916, 0.38962793350219727, 0.42231202125549316, -0.7990618348121643, 0.14158332347869873, 0.30577826499938965, -0.11033957451581955, -2.248823642730713, -2.1221137046813965, -1.1324515342712402, -0.15800023078918457, -0.36540335416793823, -0.5824860334396362, 2.4181954860687256, -0.3044773042201996, 1.0298783779144287, -0.16055616736412048, -0.7408978939056396, -0.697120189666748, 1.7218588590621948, -1.479059100151062, -0.26015082001686096, -0.18848155438899994, 0.5001606941223145, -0.41312119364738464, -1.0826784372329712, -1.3676449060440063, -0.26696425676345825, -0.6093432307243347, -0.08541666716337204, 1.0485421419143677, -1.519261360168457, -0.3651997447013855, -1.05987548828125, -0.1050906777381897, 1.272261381149292, -1.879180669784546, 0.6998847723007202, -0.8599085211753845, -0.06504743546247482, 1.4927195310592651, -0.08632685989141464, 1.6892974376678467, -0.3377649784088135, 0.09359579533338547], [0.525420069694519, 0.6909633874893188, -1.0402034521102905, -1.4184751510620117, -0.01819874532520771, -1.5163689851760864, -0.24406182765960693, -0.01569688320159912, 0.6694677472114563, -0.31123247742652893, -0.5338879227638245, 1.1824489831924438, -0.3463980555534363, -0.1059575229883194, 0.22272323071956635, 0.4978753924369812, -0.6075636744499207, 1.2531118392944336, 1.5579339265823364, 1.041372299194336, 0.5286697745323181, 0.2606429159641266, -0.18820512294769287, -1.6423931121826172, 2.145212411880493, 0.6888657808303833, -0.9236234426498413, 0.049870677292346954, -0.5484206080436707, 1.1747578382492065, -0.3507895767688751, 0.33731809258461, 0.226343035697937, 0.4697765111923218, -0.4835188388824463, -0.937355637550354, -1.1271865367889404, -1.2361712455749512, -0.9315520524978638, 0.6452534198760986, 2.1705002784729004, 1.5010082721710205, 1.2053776979446411, 0.5437480211257935, -0.48875346779823303, 1.2997210025787354, -0.8279806971549988, -2.8122425079345703, -0.8252113461494446, -0.8092924356460571], [0.04250786080956459, -2.080519199371338, -0.7954308986663818, -0.8379992842674255, 1.3356331586837769, -1.421076774597168, -0.33840495347976685, -0.4616621434688568, -2.1758790016174316, 2.1464977264404297, -0.26201847195625305, 0.13086676597595215, -0.11066201329231262, 1.3078495264053345, 0.22732007503509521, 1.2597078084945679, 0.9177319407463074, -0.12609021365642548, 1.4762300252914429, -0.869933545589447, -0.583433985710144, 0.9301208853721619, 0.43261122703552246, 0.36945298314094543, -2.4005508422851562, 1.627590537071228, -0.5816506743431091, -0.21484366059303284, -0.5669437646865845, 0.1578977108001709, 0.4492589831352234, -0.26971036195755005, -0.2882617115974426, -0.6458085179328918, -0.27929818630218506, -0.24698397517204285, -1.4000427722930908, -0.4041403830051422, 0.9514084458351135, -1.0474025011062622, 0.07600296288728714, 0.07544444501399994, -0.44147229194641113, 1.2003357410430908, 0.42286282777786255, -0.02597847394645214, -0.7339439988136292, -0.15042145550251007, -1.6738313436508179, -1.8278756141662598], [-0.14735370874404907, 0.5787848234176636, 0.9872163534164429, -1.2733755111694336, 0.12844812870025635, -1.1111055612564087, 1.3236781358718872, -0.3908213973045349, -0.7745208144187927, -0.29342901706695557, 0.5511118769645691, -0.6665979027748108, -0.12690724432468414, -1.3101063966751099, 0.22120995819568634, -0.444225937128067, 0.0786430612206459, -0.5939311981201172, 1.336233139038086, 0.3320133090019226, -1.7486200332641602, 0.21558065712451935, -1.419415831565857, 1.2981797456741333, -0.48191261291503906, -0.2799042761325836, 0.8429629802703857, 1.4655388593673706, -0.2702544629573822, -0.36268121004104614, -1.7145920991897583, 1.1057331562042236, 1.0506597757339478, -0.14680349826812744, -1.1588817834854126, -0.7030077576637268, -0.3229919970035553, -0.9739037752151489, 0.7373750805854797, 0.5743556022644043, -0.18621960282325745, -1.0417401790618896, -0.42902275919914246, 0.4530016779899597, 0.9423242211341858, 0.23017846047878265, -1.0444735288619995, -0.07893533259630203, -0.5532066822052002, 0.03648068755865097], [-1.1454875469207764, 0.794377863407135, -0.4746902585029602, 0.9823383688926697, -2.1802163124084473, 1.3786932229995728, -2.062488317489624, 0.2308884859085083, 1.5562769174575806, 1.114818811416626, -0.6709253191947937, -0.46041226387023926, 0.5033237338066101, 0.506930410861969, 0.09481438249349594, -1.0214368104934692, -0.16054101288318634, -0.34852850437164307, -0.6043320298194885, -1.3718249797821045, 1.2597031593322754, 2.501939296722412, -1.9394694566726685, 1.5740708112716675, 0.43634238839149475, -0.32987719774246216, -0.13073183596134186, 1.6219881772994995, -0.2666119635105133, 0.43675076961517334, -0.017799269407987595, -0.7889739274978638, 0.4826013445854187, -1.0190917253494263, -0.4146122634410858, 1.5318658351898193, 1.8843008279800415, -0.6176711916923523, 1.205034852027893, 0.09020557999610901, -0.4732975959777832, 0.005960958078503609, 0.2253306806087494, -1.3926833868026733, 0.14025568962097168, 0.5061229467391968, 0.5014978647232056, -0.9078333377838135, -1.9900792837142944, -0.15844860672950745], [0.7172495722770691, 1.024106740951538, 0.206864595413208, 0.12279581278562546, -0.17063578963279724, -0.801216721534729, 0.5051524043083191, -0.12229403853416443, -0.06592831760644913, 0.9998481869697571, -0.7994771599769592, 0.00809994712471962, 0.5568281412124634, -1.3776040077209473, -0.7671236991882324, -1.1311098337173462, -0.03066660463809967, -0.23913267254829407, 0.23566211760044098, -0.3008418381214142, 0.14678874611854553, -0.2015957087278366, 0.08202002197504044, -0.45427390933036804, -0.1876639574766159, -0.5341407060623169, -0.6677683591842651, 0.15969295799732208, -0.27295181155204773, -0.48873645067214966, -0.9786926507949829, 0.7022183537483215, -1.9744038581848145, -0.3609962463378906, -2.039022922515869, 0.6829613447189331, -0.8262748122215271, 1.4340802431106567, 1.2780675888061523, 0.5683608651161194, 0.9308143854141235, -0.9793815016746521, -1.2706313133239746, 0.5026972889900208, 0.06733319163322449, 0.35385844111442566, -0.5582429766654968, 0.3222719132900238, 0.35199713706970215, -0.6709956526756287], [0.4269126355648041, -2.143725633621216, 0.4587441682815552, 1.003670573234558, -0.5865784287452698, 2.59359073638916, 0.12866158783435822, -0.7627851963043213, 0.36601904034614563, 0.5772978663444519, 0.9219672679901123, -0.411735862493515, -1.9903385639190674, -0.3124556243419647, 0.41124728322029114, -1.8811513185501099, 1.3597463369369507, -1.1075645685195923, -0.5516679286956787, -2.3153202533721924, 1.297562837600708, -0.5565711259841919, 1.479477047920227, 0.3783566355705261, -0.8832466006278992, 0.7032411098480225, -0.4989144504070282, 2.33479905128479, -0.0591595284640789, 0.27720534801483154, 1.7398449182510376, -0.306429386138916, -0.08246560394763947, 0.6583655476570129, -0.7067917585372925, -0.824906587600708, 0.8193768262863159, 0.7282566428184509, 2.083656072616577, -0.7712602019309998, 2.189316749572754, 0.4573078751564026, 0.5720584988594055, -0.1419661045074463, 0.5553505420684814, -1.3291066884994507, -1.4063258171081543, 1.9556843042373657, 0.8213112950325012, -0.27464354038238525], [0.9609509110450745, -1.8648854494094849, -0.5854066610336304, 0.9001563787460327, -1.4806187152862549, -0.7368728518486023, 0.22909021377563477, 1.220196008682251, -1.7251213788986206, 0.34172767400741577, -0.9663172960281372, -0.7727773189544678, -0.015629302710294724, 0.8659514784812927, 1.5260825157165527, 0.7538931965827942, 0.07070677727460861, 0.5138798356056213, -1.075831651687622, -0.7147334814071655, -1.508119821548462, -0.6202341914176941, -0.36222556233406067, 0.44736233353614807, -1.8951725959777832, 1.9771316051483154, 0.7501839995384216, -0.8910718560218811, 0.6739403605461121, -0.6266423463821411, -1.2860623598098755, -1.487673044204712, -0.8348069190979004, -0.7810550332069397, 0.2945764660835266, -1.7432141304016113, -2.505631446838379, -0.023693736642599106, 0.575127363204956, -1.392543077468872, 0.6323363184928894, -3.0320098400115967, -0.36587047576904297, 0.2551499903202057, 0.4295850098133087, -0.24073956906795502, 1.2706247568130493, -1.2141975164413452, 1.1927175521850586, 0.06914784014225006], [0.2719656825065613, -0.10002418607473373, -0.3947766125202179, -0.33023127913475037, -2.198901653289795, 0.7972974181175232, -0.5195749998092651, 0.4867193102836609, -0.6567635536193848, 0.22158192098140717, 0.6715580821037292, -1.041231393814087, -0.2381078451871872, 0.7427774667739868, 0.3635614812374115, -0.4055210053920746, 0.5159397721290588, -0.7108678817749023, -0.5060434937477112, 1.2325879335403442, 0.40617865324020386, 0.23586124181747437, -0.991382896900177, 1.8808025121688843, -0.13085024058818817, -1.2772523164749146, -0.7862089276313782, -0.8310226202011108, -1.6854772567749023, -1.1883472204208374, -0.6316896080970764, 0.20126105844974518, 0.8513595461845398, 1.7374553680419922, 1.7699345350265503, -0.17383630573749542, 1.1841676235198975, -1.221070647239685, 0.6581791043281555, -1.0520952939987183, 0.9678249359130859, -1.0725152492523193, -1.9675817489624023, 1.4637433290481567, 0.47871580719947815, 0.06845622509717941, -0.22641904652118683, -0.7099329233169556, 0.3870464563369751, 0.04409413039684296], [-0.4349577724933624, 1.2135101556777954, -1.4436286687850952, 0.6299600601196289, 0.34371218085289, 0.39787757396698, 0.7823615670204163, -0.794934868812561, -1.2453058958053589, -1.226515531539917, 0.026623792946338654, 0.5311711430549622, -1.0146360397338867, -1.4152698516845703, 1.5846836566925049, -0.67127525806427, 1.429965853691101, 0.592696487903595, -0.8514561653137207, -0.85933917760849, -0.07398946583271027, 0.7394863367080688, 1.462494969367981, 1.1142840385437012, 0.9414111375808716, -0.25526970624923706, 0.931894838809967, -0.20193970203399658, 1.0418726205825806, 0.31690749526023865, 1.7150484323501587, 1.6069985628128052, 0.643442690372467, 1.5356128215789795, 0.10606648772954941, -2.3474037647247314, 0.17182305455207825, -0.5368033051490784, 1.798658013343811, 0.38673391938209534, -1.6765459775924683, -0.713640570640564, -1.832241177558899, 0.7611944079399109, -0.9059719443321228, 1.3023236989974976, -0.8417815566062927, -0.14425919950008392, -1.5563738346099854, 0.5674465894699097], [0.4780603349208832, -0.1381996124982834, 0.9025341272354126, -0.03125991299748421, -1.3117668628692627, 0.7497532367706299, -0.5806205868721008, -0.6723430156707764, -1.4891360998153687, -0.5474951267242432, -1.2290246486663818, -0.5407593250274658, 1.3214517831802368, -1.640938639640808, -0.8209942579269409, 0.20784232020378113, 0.6163713335990906, 1.1433359384536743, -0.26110193133354187, -0.23754654824733734, -0.20513716340065002, 0.5294107794761658, -0.8799075484275818, 1.3425527811050415, -0.423495352268219, -0.626909077167511, 1.02414071559906, -1.5842406749725342, -0.42287755012512207, -0.48770129680633545, 0.0003871277440339327, 0.4812842309474945, 2.0744616985321045, 1.4995203018188477, -1.394364356994629, 1.402291178703308, 0.36482125520706177, 1.1256986856460571, 0.15038053691387177, -0.20697374641895294, 0.35294032096862793, 1.4467681646347046, 0.6689303517341614, 0.5715654492378235, -0.058334991335868835, -0.3185746371746063, -1.5030280351638794, -1.6077040433883667, 0.02232181280851364, 1.4634058475494385], [-1.2131929397583008, 1.4677132368087769, 1.217208743095398, -0.43335390090942383, 0.44055959582328796, 0.816851794719696, 0.9745650887489319, -0.6403549909591675, 2.180335283279419, -0.86134934425354, 0.43882983922958374, 0.28589871525764465, 1.5974379777908325, -0.4374447464942932, -0.20262578129768372, -0.2012633979320526, -0.7908312082290649, -0.2542797327041626, 2.440094470977783, -0.9899818897247314, 0.7340009808540344, 0.6538892984390259, -0.6283106803894043, -0.4990936517715454, -0.02407919429242611, 0.28559809923171997, -1.4676852226257324, -1.3579304218292236, 0.4160979688167572, -0.994597315788269, -0.13050810992717743, -0.1349545419216156, 1.0726686716079712, -0.26631319522857666, -0.3629972040653229, 1.7114964723587036, 0.4188899099826813, 0.5756873488426208, -2.157540798187256, -0.23610827326774597, -0.8079848885536194, -0.2982393205165863, -0.2997141480445862, 0.714835524559021, -0.5091284513473511, -0.38072967529296875, 1.1505078077316284, -1.0861119031906128, 0.014174556359648705, 0.1252121776342392], [0.20819519460201263, 0.6698249578475952, 1.4180104732513428, 0.43375295400619507, -1.6137713193893433, 0.2536005675792694, 0.8101073503494263, -0.2248661071062088, -0.0982879176735878, -0.3417936861515045, 0.8303770422935486, -0.044554341584444046, 1.2081348896026611, 0.48616036772727966, 0.2840728163719177, -2.056551218032837, -0.7847095131874084, -2.4858834743499756, 0.18719632923603058, 0.8514851331710815, -0.4524325430393219, 0.19287405908107758, 0.09016290307044983, 0.03394153714179993, 0.2367314249277115, -0.3984494209289551, 0.450287401676178, 0.10146605968475342, -1.2292755842208862, -0.0016811517998576164, -0.4839438498020172, 1.8029770851135254, -0.8594133257865906, -0.012348796240985394, -0.22461256384849548, -0.49286866188049316, -0.18819035589694977, -0.350263386964798, -0.2632627487182617, -1.2043284177780151, 1.7634782791137695, -0.6272268295288086, 1.2278833389282227, 0.026274990290403366, -1.0944530963897705, -0.5522628426551819, 1.731016993522644, 0.6180968880653381, -0.6457798480987549, -1.4066598415374756], [-1.016046404838562, 0.4567415118217468, 1.5654892921447754, -2.1324586868286133, -0.39394402503967285, -0.9965265393257141, -0.2408723682165146, 2.0930869579315186, 1.4820952415466309, -0.09648173302412033, -1.4005725383758545, -0.20916104316711426, -0.09389661252498627, -0.6393704414367676, -0.923591673374176, -0.01085924357175827, 0.036860108375549316, -1.0084402561187744, 0.7874007821083069, -0.9481391906738281, -1.040789246559143, -0.035002268850803375, -0.5935098528862, 1.599146842956543, 1.3491342067718506, 0.5584886074066162, -0.4060284197330475, 0.1462487131357193, 1.3454750776290894, 0.37934640049934387, 0.22965127229690552, 0.47478586435317993, 0.18238374590873718, 0.6328542828559875, -0.6052079200744629, -1.000238060951233, -1.138610601425171, -2.0828428268432617, -0.7814024686813354, -0.4955545663833618, 0.9006556868553162, -0.34223705530166626, -0.5681686401367188, 0.6382385492324829, -0.10370573401451111, -1.3535724878311157, -0.8443143963813782, -0.539539098739624, -0.8354058861732483, 0.49431055784225464], [0.5545328855514526, -2.245253801345825, 0.7770480513572693, -0.5781238079071045, -0.21913078427314758, 1.3772908449172974, -0.1216600090265274, 0.09136036038398743, 2.1242551803588867, -0.9278514385223389, 0.20894891023635864, 0.4463915228843689, -0.353114515542984, 0.7643999457359314, 1.8387635946273804, -0.24102376401424408, -0.06325626373291016, 0.5978851318359375, 1.2344307899475098, -0.3245036005973816, 0.26921382546424866, 0.20035633444786072, -1.0222129821777344, 0.43878382444381714, 0.20838522911071777, -0.5505860447883606, -0.39747077226638794, -0.14963290095329285, -0.7724379301071167, -1.0746420621871948, -0.3205138146877289, -0.23965123295783997, -1.1218270063400269, -1.5643892288208008, 1.353843331336975, -1.980790376663208, 1.6147534847259521, 1.3801352977752686, 0.4547763466835022, -0.2981155216693878, -0.3004431128501892, 0.9789621829986572, 0.30471736192703247, 0.28195762634277344, -1.0184601545333862, -1.2191295623779297, 1.3092316389083862, 1.3259947299957275, -0.05191612243652344, -0.7138283252716064], [1.2970716953277588, 0.6326612830162048, -0.6551370024681091, 0.42475825548171997, -0.7552732229232788, 0.6473912000656128, -0.9825950264930725, 0.6678839921951294, -0.3390010893344879, 0.17493484914302826, 0.023375477641820908, 1.8674139976501465, -0.5067676901817322, 0.4072965681552887, 0.7824337482452393, 0.30446943640708923, -0.8451634049415588, -1.2804898023605347, 1.4689629077911377, 0.15494801104068756, -1.729233980178833, 1.7239612340927124, -1.1577813625335693, 1.04616379737854, 2.6070804595947266, 0.04297177121043205, 1.515001654624939, 1.7221355438232422, -0.22115595638751984, 1.4767743349075317, -0.9110040664672852, -0.8150917887687683, -0.2539609670639038, -1.7416050434112549, 1.0298420190811157, -0.5369508862495422, -0.19870808720588684, 0.599413275718689, 0.9234994053840637, -1.5029778480529785, 1.1322115659713745, -1.4757657051086426, 1.2154101133346558, -0.9611364603042603, -0.3113599121570587, 1.5331162214279175, -0.5271161794662476, -0.5763562917709351, 0.2157028168439865, -0.1758277714252472], [-0.1441512405872345, -0.39353570342063904, -0.7062770128250122, -1.8090921640396118, -1.1525014638900757, -0.5751997232437134, -0.5402810573577881, 1.6430860757827759, 2.2423324584960938, -0.9521813988685608, 1.49924635887146, -1.2343930006027222, 0.5312294363975525, 0.15673211216926575, 0.4136756956577301, 0.12322508543729782, 0.23151220381259918, -0.44773516058921814, 2.4243738651275635, -0.6179004907608032, -1.347580909729004, -0.1478043496608734, -0.21490362286567688, -0.11446090042591095, 0.6189844012260437, -0.8610792756080627, -1.3145391941070557, -0.5676568746566772, -1.1118515729904175, 0.4172903001308441, 1.3941398859024048, 1.1134178638458252, 1.0782947540283203, 1.1990432739257812, -0.05466916412115097, 0.7374821901321411, 2.308738946914673, 2.598712205886841, -1.1213761568069458, -0.7564899921417236, 1.1665608882904053, 1.4629504680633545, -0.6026697158813477, -0.776343822479248, 0.7362114787101746, -0.10639182478189468, -1.159037470817566, -1.1391013860702515, -1.8219261169433594, -0.2640867829322815], [0.4436362385749817, 0.009099824354052544, -0.9076789021492004, -0.8333580493927002, -0.367459237575531, 1.1362179517745972, 0.23715341091156006, -0.6519622206687927, -3.114417791366577, 1.4287983179092407, 0.8784493207931519, -0.7133651971817017, 1.5987828969955444, -0.9343917965888977, 0.226800799369812, 0.3851289749145508, 1.300473690032959, 0.22001883387565613, -1.1584208011627197, -0.4290337860584259, -1.0156136751174927, 0.5597099661827087, -0.9427496790885925, -1.3968397378921509, -0.17051567137241364, 1.0909572839736938, 0.6943737864494324, -1.3993653059005737, 1.0812500715255737, -0.3597481846809387, -2.9028372764587402, -0.45773136615753174, -2.0111582279205322, -0.488565057516098, -0.2541951537132263, -0.9636819362640381, 0.6407526731491089, 0.2193319946527481, -0.08265024423599243, -0.12812654674053192, -0.7392677068710327, -1.306046485900879, -0.6587032675743103, -0.6124119162559509, 0.9502866864204407, -0.6596789360046387, -0.26751089096069336, -0.3429547846317291, -1.1029714345932007, -0.09798495471477509], [2.269813299179077, -0.9212570190429688, 0.5636439323425293, -0.07989836484193802, -0.6184349656105042, -0.8046073913574219, -0.8351622223854065, 1.5723004341125488, 1.0588932037353516, -0.9418784976005554, -0.5240586996078491, 0.6270051598548889, 0.12425735592842102, 1.8453518152236938, 0.6154432892799377, 0.3004705309867859, 0.6056999564170837, 0.38981491327285767, 0.3328125774860382, 0.2661305367946625, 1.2227846384048462, 0.7355012893676758, 1.141417145729065, -1.9603277444839478, 0.6024330258369446, 0.2748227119445801, -1.589646577835083, 0.37864816188812256, -1.6144484281539917, -0.9677887558937073, -1.3154547214508057, 0.37789061665534973, 0.31756386160850525, -0.7707977890968323, 1.7910174131393433, -0.5264116525650024, -1.9779224395751953, 0.7723196148872375, 0.9992384314537048, 0.19722220301628113, -1.2655775547027588, 1.897733449935913, -0.9330770969390869, -0.8732192516326904, 0.31091102957725525, -0.6956827640533447, -0.6622666120529175, -0.4753631055355072, 0.5130035281181335, 1.4900550842285156], [1.6443463563919067, 1.1076414585113525, 1.2614915370941162, 1.5810730457305908, -1.1657931804656982, 0.07155526429414749, -0.34227433800697327, -0.13347814977169037, -1.1278916597366333, -0.02673141472041607, -0.6215453147888184, -0.5920792818069458, -0.7180365920066833, -0.518258273601532, 0.9681463837623596, -0.5287545323371887, -1.7404993772506714, -0.24243482947349548, 0.9864982962608337, 1.5541538000106812, -0.5991300940513611, -0.6267642378807068, 0.2759641408920288, 0.9636089205741882, 0.1621725857257843, 0.012040453962981701, -0.9223954677581787, -0.7616176009178162, -0.46996474266052246, -0.33444494009017944, -0.08402225375175476, 0.429288774728775, 0.14899024367332458, 0.2740210294723511, -0.9160837531089783, 0.8638108372688293, 0.9792810082435608, 0.3307962417602539, 0.5488391518592834, 0.672940194606781, 0.6298438906669617, 1.1630691289901733, 0.7053137421607971, 0.5876887440681458, 1.3418759107589722, -1.5009068250656128, 0.2102394551038742, 0.1564502716064453, -0.8843644857406616, -0.40208593010902405], [-0.14895416796207428, 1.7597604990005493, -0.8587067127227783, 2.0379462242126465, 0.9301284551620483, 1.8360025882720947, 0.6785075068473816, 0.9952162504196167, -0.29639822244644165, -0.23132863640785217, -1.6753888130187988, 0.15676315128803253, 0.08598941564559937, -0.44984400272369385, -0.2929268479347229, 0.8483896851539612, 0.2806657552719116, 0.15126639604568481, 2.116971015930176, 1.2415416240692139, 0.2594166100025177, -0.06957750767469406, 0.12251392751932144, 0.47424936294555664, -0.39671653509140015, -0.006734712049365044, 0.6380615830421448, -0.872811496257782, -1.0596051216125488, -1.0465679168701172, 0.7189991474151611, 0.2622247636318207, 0.18870383501052856, 0.9720219969749451, -2.113706588745117, -0.8814924359321594, -0.02866114303469658, -0.778695821762085, -0.2220706045627594, -0.33212894201278687, -1.0760122537612915, -0.7050197124481201, -0.20668767392635345, -2.011632204055786, 0.34571853280067444, -0.6442846655845642, -2.426408052444458, -0.38875290751457214, 1.1821006536483765, 0.2249196469783783]], "bias": [1.2078372240066528, -1.5067673921585083, -0.9778839945793152, 0.5418840050697327, -0.6766911149024963, -0.9054557085037231, -0.26035964488983154, 2.191789150238037, 0.46089351177215576, -0.4414028823375702, 0.17946018278598785, 0.057588011026382446, -0.22510424256324768, 2.875934600830078, -0.17510655522346497, 0.7236605286598206, 0.022585051134228706, 0.8227086067199707, -0.4754476249217987, -1.6514993906021118, -0.4883410632610321, 1.3854632377624512, -1.116392731666565, 0.03937198594212532, -1.382319450378418, -0.18380746245384216, 1.4690221548080444, 1.2262111902236938, 0.8237847089767456, 0.38469672203063965, 0.7267546653747559, 1.1243417263031006, -0.13582101464271545, -0.4373743236064911, 0.1500525027513504, 1.9891414642333984, 0.6660379767417908, 0.6860803961753845, -0.12305185943841934, 0.8346922993659973, -1.8151062726974487, 0.37343108654022217, -0.08559980988502502, 1.0298134088516235, -0.3911548852920532, 2.112029790878296, 0.2301490306854248, 0.3214018642902374, -1.3261010646820068, 0.7168413400650024]}, "hidden_3_layer": {"weight": [[-1.554749846458435, 1.5245167016983032, -0.8742794990539551, -1.0840193033218384, -0.6250885128974915, 0.9427879452705383, 1.6787757873535156, -0.8936103582382202, 0.542294442653656, -0.04737510159611702, 0.9617897272109985, -0.17225581407546997, -1.0125867128372192, -0.364905446767807, -0.5990257263183594, -1.6882225275039673, 0.15247119963169098, -0.7091432809829712, -0.21611851453781128, -0.8781347870826721, 0.521914541721344, 0.9247078895568848, 0.628716230392456, 0.24973618984222412, 0.5231525301933289, 0.7025202512741089, 0.19786405563354492, -1.2533445358276367, 0.15125326812267303, 0.31482648849487305, -0.15529482066631317, -0.1503630429506302, 0.8669442534446716, -1.6765490770339966, 0.08956284075975418, 2.1237311363220215, 1.7708181142807007, -0.7072479128837585, 1.237257480621338, 0.11305182427167892, -0.9226713180541992, 1.7188998460769653, 1.1466104984283447, 0.3774131238460541, 0.4338105022907257, -0.14430831372737885, 1.7099146842956543, 0.6776320338249207, 0.9144875407218933, -0.16084003448486328, 1.9318801164627075, -2.982719659805298, 1.0648672580718994, -0.001229756628163159, -0.08221718668937683, 3.731969118118286, 0.19469669461250305, 0.49799051880836487, 1.1612802743911743, -1.0288622379302979], [-0.9757102131843567, -1.4684240818023682, 0.05703580006957054, 0.4448672831058502, -1.0031237602233887, 1.0593669414520264, -0.9570288062095642, 0.9590874314308167, -0.49730032682418823, -0.7242702841758728, -0.5105611085891724, 0.0746159479022026, 0.17323988676071167, -0.8667839169502258, -0.7849987745285034, 0.5370357632637024, -0.09211159497499466, 0.6044058203697205, -1.910857081413269, -1.4103903770446777, -0.8156476616859436, 0.09755200147628784, 1.8206958770751953, 0.09097175300121307, 0.08554550260305405, 0.1316637098789215, 0.7419672012329102, 0.2677188217639923, 0.9446826577186584, 0.6491614580154419, -1.004713773727417, -0.4642731845378876, -2.4285483360290527, -2.094233512878418, -0.802574872970581, 1.7828583717346191, -0.8366032838821411, 0.3130299746990204, 1.1503018140792847, -0.6344348788261414, 0.4015129804611206, 1.5844330787658691, -0.513459324836731, -0.06321758031845093, -0.3034559190273285, 0.5922384262084961, 1.701980471611023, 0.2311960756778717, 1.1927552223205566, 1.2031244039535522, 0.03830825164914131, 0.9384920001029968, -0.5219199061393738, 1.3776333332061768, 0.1984175592660904, -0.6134827136993408, -0.013014014810323715, -0.933016300201416, 1.350402593612671, -0.6500709056854248], [-0.033182378858327866, -0.0026564316358417273, -0.6271429657936096, -1.4012202024459839, 0.20833073556423187, 0.17531219124794006, 1.270758867263794, -0.14948567748069763, -0.396441251039505, -0.6244581937789917, -0.46444937586784363, -1.0631190538406372, -0.25418218970298767, -0.6272450685501099, 0.40161022543907166, 1.50364089012146, -0.5951082706451416, 1.313129186630249, 1.682220697402954, 0.7677336931228638, 0.2984825372695923, 0.8041267991065979, 1.2184641361236572, -0.03635195270180702, -0.4753917455673218, -0.1857367753982544, 1.0468850135803223, -0.9157904982566833, -2.7092955112457275, 0.0294024758040905, 0.16640333831310272, -1.3849762678146362, 1.971885085105896, -0.44543126225471497, 0.6742116212844849, 0.08993390947580338, 0.34990280866622925, -0.1547139585018158, -0.1526322215795517, -1.038725733757019, 3.726250648498535, -0.28708764910697937, -0.6007677912712097, 0.5440194606781006, -0.5467904806137085, -0.36984187364578247, 1.217516541481018, -1.0975961685180664, -0.24630050361156464, 1.5859143733978271, -0.2586560547351837, 0.4057440161705017, -1.2942113876342773, -0.21485330164432526, -0.7424543499946594, 0.10752813518047333, 0.7178473472595215, -1.0063396692276, 0.5924890637397766, -0.8800849318504333], [-0.5821931958198547, -0.6304200887680054, 2.5246033668518066, 1.1463727951049805, -0.47380223870277405, -1.6938669681549072, -0.12871170043945312, 0.3399934768676758, -1.0862863063812256, -0.7676473259925842, -0.8834817409515381, 2.978152275085449, -0.9816156029701233, 1.216820478439331, -0.8019782304763794, 0.5172679424285889, 0.4962877035140991, 1.1834518909454346, 0.7237634658813477, -0.3915114402770996, -3.145270586013794, 1.2350654602050781, 1.9200563430786133, -1.3146556615829468, 0.2930194139480591, -1.434510350227356, 0.8765794634819031, 0.7868702411651611, -0.4951246976852417, -1.7528581619262695, -0.15071775019168854, 0.5013033747673035, -0.040563471615314484, -0.6310352087020874, 0.6479036211967468, -1.0408284664154053, 0.21248728036880493, -0.22811318933963776, 1.54586660861969, 0.7208083271980286, -1.194000482559204, 0.9942132830619812, 0.4718226492404938, 0.12221544981002808, 0.3898126184940338, 0.9434303045272827, -2.0441670417785645, 0.1519138514995575, -0.7593461871147156, -0.5604982376098633, -0.9434510469436646, -0.3375760018825531, -0.5556861758232117, 0.5774677395820618, -0.1838240623474121, 0.6182833313941956, -0.0977252870798111, 1.0663079023361206, -1.2495471239089966, 0.1471143513917923], [-0.8787069916725159, 0.8148793578147888, 1.382249355316162, -1.8077253103256226, -0.36025670170783997, 0.35707446932792664, 0.3893163204193115, 1.8754185438156128, -1.013399600982666, 0.732480525970459, 0.06857478618621826, 0.7073912620544434, 0.06556013226509094, 1.7283543348312378, 0.40700918436050415, -0.6240394711494446, 0.4867754280567169, 0.1443101167678833, 2.6950244903564453, -0.5866647362709045, 0.05143042281270027, 1.224501371383667, 1.407754898071289, 0.6199372410774231, -0.3513619899749756, -0.7635882496833801, -0.2639230191707611, -1.3228365182876587, 0.045171745121479034, 0.1939196139574051, -0.5235441327095032, -1.4159704446792603, -0.4180922508239746, 0.6348115801811218, -0.8162344098091125, 1.1620932817459106, 0.959485650062561, -1.6944377422332764, 0.015720220282673836, -0.03898940980434418, 1.3564469814300537, -1.4262995719909668, 0.2921329438686371, 0.5591495037078857, -0.3072843551635742, -0.23429128527641296, -0.03909281641244888, -0.0045187207870185375, 1.0278087854385376, -1.4357234239578247, 0.6762533783912659, 0.024939345195889473, -1.1142590045928955, -0.15187911689281464, 0.9779954552650452, 0.5833212733268738, -0.32372260093688965, -1.3401868343353271, -0.9425453543663025, 1.526411533355713], [0.11199955642223358, 1.17930269241333, 2.357083320617676, -1.2089747190475464, 0.22136704623699188, 0.9261069297790527, -0.5417632460594177, -0.46804505586624146, 0.8449333310127258, -1.785103678703308, 0.43460893630981445, -0.4967934489250183, -0.6693568229675293, -0.5548972487449646, -0.3911125659942627, 1.3150871992111206, -1.0450912714004517, 0.12456028163433075, 0.24162542819976807, 0.6494259834289551, 0.6855428814888, 1.0249524116516113, -1.1467252969741821, -1.1739733219146729, 2.044646978378296, -0.631083607673645, 0.432489812374115, 0.4076170027256012, 0.6320586204528809, -1.5880470275878906, 0.31390419602394104, 0.6519913077354431, -0.25087857246398926, -1.4372645616531372, -0.41194331645965576, -1.2384153604507446, 1.8896260261535645, 0.3174462616443634, 0.7932037115097046, -0.8914648294448853, 0.6343176960945129, -1.6880130767822266, -0.18397173285484314, 0.6109606623649597, 1.0762721300125122, 0.30168071389198303, -0.7048366069793701, 0.271901935338974, -0.19588732719421387, 0.8648726940155029, 1.848987340927124, -1.0900328159332275, -1.3231532573699951, -0.6950718760490417, 0.45573151111602783, -0.3309515118598938, 0.242939755320549, 1.4510912895202637, -0.023378266021609306, 0.00831780955195427], [0.9674051403999329, 1.359171748161316, 0.9819047451019287, -0.42528462409973145, -0.7801021933555603, 0.3074890673160553, 0.2502923011779785, 2.0460665225982666, -0.050776880234479904, -0.4842347502708435, -0.933046817779541, -0.8813484907150269, -0.5709527730941772, 0.05974585562944412, -0.21752823889255524, 0.5106030702590942, 0.5748610496520996, 0.8227728605270386, -0.05602055415511131, 0.09554100781679153, -0.06809758394956589, -0.8564817905426025, -0.8510251045227051, 0.868507981300354, -0.10468142479658127, -0.3330881595611572, -0.3734634816646576, -0.8718857765197754, 0.19519051909446716, 0.7259863615036011, -1.1366362571716309, 0.7571576833724976, -0.5001662373542786, -0.41282108426094055, 0.7501909732818604, -0.07467976957559586, 0.6029430031776428, -0.11488211899995804, -0.8186301589012146, 0.21893474459648132, 0.2471514642238617, -1.7676795721054077, 0.14138351380825043, -0.48185622692108154, -0.027853742241859436, 0.2978355884552002, -0.7605818510055542, 0.5068508982658386, 0.8945686221122742, 0.10717176645994186, -0.5401607155799866, 0.04725947231054306, -1.9787893295288086, 0.12745432555675507, -1.4812151193618774, 0.2177751511335373, -1.193943977355957, 1.3671133518218994, 0.09061595052480698, 2.131786346435547], [0.37193524837493896, -0.12134255468845367, 0.37522944808006287, -0.7445230484008789, 0.7041085958480835, -0.010431738570332527, -0.17410820722579956, -0.9954406023025513, 1.033369779586792, -0.10055151581764221, 0.9818083047866821, 0.5548191070556641, -1.761826753616333, -0.07358229905366898, -1.3556263446807861, -0.7728990316390991, 0.57308030128479, -0.7445275783538818, -1.4114104509353638, -0.9941135048866272, 0.3632146418094635, -0.24584320187568665, 0.27316388487815857, 0.9547536969184875, 1.2854417562484741, 0.3590158224105835, -0.09010224044322968, -0.7892385721206665, -0.5581923127174377, 0.17435114085674286, -0.5210785269737244, -0.8360262513160706, 0.12904518842697144, 1.775629997253418, 0.38852617144584656, 1.2892025709152222, 1.4769166707992554, -0.3093253970146179, 1.2899507284164429, 0.3223280608654022, 0.255583792924881, 1.1195398569107056, 1.1213278770446777, -0.7818685173988342, 0.7886608242988586, 1.4428938627243042, -0.34786257147789, -0.061562445014715195, 0.9059994220733643, 1.0438072681427002, 0.516589343547821, 1.4037874937057495, 1.251771330833435, 0.1451907753944397, -0.012163045816123486, 0.44699761271476746, -0.8861449360847473, 0.5736849904060364, -0.685716450214386, 1.2277135848999023], [-2.5394487380981445, 1.1922358274459839, 0.1548568457365036, -0.18047747015953064, -0.3011524975299835, -0.38623225688934326, -0.39864248037338257, 0.912699818611145, 0.5802316069602966, -1.7074918746948242, 0.7935319542884827, 1.4274474382400513, -0.16817449033260345, 0.5335114002227783, -0.8903489112854004, -0.1227610856294632, 0.7115439772605896, 1.5813562870025635, -1.1980241537094116, -0.7880274653434753, -0.1670488566160202, -2.188859224319458, -1.1392499208450317, -0.8999765515327454, -0.17868366837501526, 0.9772039651870728, -2.8595099449157715, 0.08412382006645203, -0.49143457412719727, -1.3856593370437622, 1.7631945610046387, 0.6983312368392944, 0.19025003910064697, -0.6469799280166626, 0.9983495473861694, 1.97386634349823, 0.06697183847427368, 0.4207623600959778, -0.17449021339416504, 1.3358075618743896, -1.0128997564315796, -0.30437344312667847, 1.8869824409484863, 0.5122915506362915, 1.282670497894287, -1.1878917217254639, 0.6570237278938293, -0.5491841435432434, -0.29339197278022766, -0.1510123908519745, 0.3193405270576477, 0.19845187664031982, 0.43484628200531006, -1.0800482034683228, -2.0314595699310303, -0.44853639602661133, -0.27508220076560974, -0.735349714756012, 0.02588241547346115, 1.7173107862472534], [1.110818862915039, -2.0739736557006836, -0.14695343375205994, 0.3827766478061676, 1.5266917943954468, -0.6466999650001526, -0.9856077432632446, -0.051930323243141174, -0.9412438273429871, 0.2249964028596878, -0.07874715328216553, -0.8406099677085876, 0.2739243805408478, 1.5465456247329712, -0.22384721040725708, 0.039166130125522614, 0.19446448981761932, 1.5718084573745728, -0.6631213426589966, -0.696367084980011, -0.718113124370575, -0.9215269684791565, -0.6614876985549927, -0.9232229590415955, 0.35648077726364136, -0.7819262146949768, 0.4253554940223694, 2.4529058933258057, 1.9375404119491577, 1.419392466545105, -0.7490074634552002, 0.5514166951179504, -0.5420066714286804, -0.4354197680950165, 0.13937640190124512, -2.1970279216766357, 0.9961840510368347, -0.2676777243614197, -0.7114591598510742, 0.8726072907447815, -0.3724449574947357, 0.3721906542778015, 0.36494025588035583, 1.3303767442703247, 0.08233500272035599, -1.05758535861969, 0.052772197872400284, -0.634755551815033, 0.23491601645946503, -0.004600652027875185, -0.27041471004486084, 0.20190313458442688, -0.6237775683403015, -1.12923264503479, -0.12381340563297272, -0.2582818865776062, -0.7823182940483093, -0.8350942134857178, -1.996931791305542, -0.09028195589780807], [0.527312695980072, -0.3842622935771942, -0.5355474352836609, -1.0468261241912842, -0.24628841876983643, 0.28715938329696655, -0.1520012766122818, 1.2406249046325684, 0.20425482094287872, -0.270800918340683, -0.2344323992729187, -0.8890261650085449, -1.4809678792953491, -0.8939791321754456, 1.1110409498214722, 0.7176164388656616, 1.1933813095092773, -0.25135767459869385, 0.7951776385307312, 0.046252500265836716, 1.8929835557937622, -1.2472673654556274, -0.5145560503005981, 0.9444456100463867, 1.379935622215271, -1.3922425508499146, 0.5010362863540649, -1.5040879249572754, 2.3013687133789062, 0.2725679874420166, -0.7626914978027344, -0.941048264503479, -0.7763621211051941, -0.8791618347167969, 0.2742241322994232, -0.046060413122177124, 0.28644049167633057, -0.3764064908027649, 1.2606968879699707, -0.6477969288825989, -0.6025205254554749, -2.6793971061706543, -1.958544135093689, -0.3517323434352875, -0.8586639165878296, 0.9326446652412415, -0.4245922863483429, -0.6343055963516235, 1.2860389947891235, 0.26256275177001953, 0.33256983757019043, 0.13598789274692535, 0.1740417778491974, 0.847780704498291, 0.5073527693748474, -0.7870219945907593, 0.9842825531959534, -1.5116708278656006, 1.907422661781311, -0.3140585124492645], [-0.11769668012857437, 1.1504974365234375, 0.2258887141942978, 0.7635011076927185, -0.17592164874076843, -0.057885054498910904, 0.8834293484687805, 0.29697930812835693, 0.9297031760215759, 1.1945605278015137, 1.2680439949035645, 0.13040558993816376, 0.09524355828762054, -0.008519100956618786, -1.0017420053482056, -0.10944633185863495, -0.60106360912323, 1.134859561920166, -0.5857189893722534, 0.046281762421131134, -1.7129409313201904, -0.9599169492721558, -1.3057273626327515, -0.22842970490455627, -0.20003145933151245, -0.30882903933525085, 1.6344809532165527, 0.4027584493160248, 0.02872883342206478, -0.040745265781879425, -0.09128715097904205, -0.03590233251452446, -1.7194786071777344, 0.3490141034126282, -0.17619889974594116, 0.3313121199607849, -0.45544278621673584, -0.3872271180152893, -0.7300977110862732, 0.912736713886261, -0.23060409724712372, -1.270398736000061, 0.37770581245422363, -1.1971174478530884, -0.5279330015182495, 0.6732609272003174, -0.33595404028892517, 0.48334407806396484, -0.08292413502931595, -0.4217526614665985, 0.7564650774002075, -1.9039037227630615, -1.7850717306137085, -1.3526743650436401, 0.3556002378463745, -1.2256619930267334, -0.16963599622249603, -2.951772451400757, 0.40481653809547424, -1.0821808576583862], [-0.6461784243583679, 0.7538159489631653, -0.7100692987442017, -0.8654384016990662, -0.2308274358510971, -0.871067464351654, -1.3192094564437866, -0.015268834307789803, -1.6429781913757324, -0.875534176826477, 1.6661779880523682, 1.2474111318588257, 0.3422093689441681, 0.22534224390983582, -1.2905808687210083, -0.19412948191165924, 0.8076896667480469, -1.4313477277755737, -1.3023650646209717, -1.1070756912231445, 1.2969074249267578, 0.015960905700922012, -0.4421578645706177, 1.071835994720459, -0.07370642572641373, -0.8583047986030579, 0.3374432623386383, 0.5415772795677185, 1.8153315782546997, 1.5651663541793823, -2.913877248764038, 0.33260688185691833, -1.7729558944702148, 1.3442997932434082, 1.9364224672317505, 0.23185284435749054, -1.0820082426071167, 0.11041004210710526, 0.2527034878730774, -2.03214168548584, -0.6183483600616455, 1.2455580234527588, 0.45916879177093506, 0.024257777258753777, 1.6560875177383423, -0.38789135217666626, -2.7126283645629883, -1.7488183975219727, 1.321825385093689, -2.1126551628112793, 0.8387970924377441, -0.25450360774993896, -0.05576903745532036, -0.23835568130016327, -0.13819006085395813, -1.5837715864181519, 1.4045671224594116, 0.028404075652360916, -0.2710949778556824, 1.1044135093688965], [-0.17927320301532745, 0.031227201223373413, 0.7315478920936584, -0.5722799301147461, -0.3371565043926239, 1.0806622505187988, -0.26921796798706055, 1.5924067497253418, -1.6719462871551514, -0.009475726634263992, -1.5697611570358276, -2.0722506046295166, 2.3583106994628906, 0.5302091836929321, 0.32161206007003784, 0.6308925747871399, 1.683438777923584, 1.4445021152496338, -0.9444031715393066, -0.054390810430049896, -1.0635204315185547, -0.06703024357557297, -0.8025839328765869, -0.3263667821884155, 0.1362050175666809, 0.03152168169617653, 1.5065420866012573, -1.5811407566070557, -0.6480706334114075, 1.6024653911590576, -0.12590962648391724, -0.4401823580265045, 2.473224639892578, -1.9480499029159546, 1.696740746498108, -0.6110919117927551, 0.17798371613025665, -0.1680852323770523, 0.07146244496107101, 0.20354855060577393, 0.2888277769088745, 0.36781859397888184, 0.08920380473136902, 0.0332043282687664, 1.3425583839416504, -0.4755885899066925, -0.3445429503917694, 1.476592779159546, 1.8073869943618774, -0.777610182762146, -0.5762561559677124, -0.15641292929649353, -2.2123637199401855, 0.5807870030403137, -1.7074741125106812, 0.31863927841186523, -1.1438921689987183, 0.633875846862793, 0.289278507232666, -0.019310077652335167], [-1.8115262985229492, -0.8222079873085022, -1.5435900688171387, -0.8691855072975159, 0.6724252700805664, -0.6818112134933472, 1.2526016235351562, -0.13693661987781525, -0.5809304118156433, 0.056477658450603485, 1.5748854875564575, -1.0084137916564941, -1.553884744644165, 0.8134132027626038, 0.6098878383636475, -0.20351679623126984, 0.7549365758895874, 0.3348720073699951, -0.7843513488769531, -0.16476717591285706, 1.5680608749389648, -1.11040461063385, 0.36131954193115234, 1.23647940158844, -1.5267136096954346, 0.6152523756027222, -0.13388773798942566, 0.9101174473762512, 1.071357011795044, -1.070000171661377, 0.17329436540603638, 1.527553677558899, -0.13343214988708496, 2.3987088203430176, 1.6345340013504028, 0.9146218299865723, 0.08978594839572906, 1.172420859336853, 0.8169975280761719, 0.2503342032432556, 0.6682059168815613, 0.43330296874046326, -0.0726211667060852, 0.7777754664421082, 0.38002321124076843, 0.8080799579620361, 0.3210459053516388, -0.06917591392993927, 1.3607077598571777, 0.46617281436920166, 1.3806554079055786, -0.6101937294006348, 0.29252105951309204, 1.1388800144195557, 0.8244436979293823, 0.06951910257339478, -0.08694642782211304, -0.944778323173523, 0.5342523455619812, -0.4914309084415436], [1.2058106660842896, -1.023716688156128, 0.0563119612634182, 0.20494812726974487, -1.5315290689468384, 0.22969406843185425, -1.8972376585006714, -1.1292587518692017, 0.07830332219600677, -0.4193227291107178, 0.4592354893684387, -0.9864898920059204, 0.9065779447555542, -1.9250555038452148, 0.12227921932935715, 0.009226382710039616, 0.4419158101081848, 0.638511598110199, 1.984215497970581, -0.9377157688140869, 0.036434270441532135, 0.5542288422584534, -1.1774744987487793, 0.05150347948074341, 0.6708382368087769, -1.4531575441360474, 0.5718249082565308, 0.506828248500824, 0.35299256443977356, -2.353703498840332, 0.8780025839805603, -0.6517199277877808, 2.0366926193237305, 1.4392341375350952, -0.8556019067764282, 0.6154683232307434, -0.8640463352203369, 0.05480869859457016, -0.28864559531211853, -0.4323025643825531, -0.4899587333202362, -0.5781135559082031, 0.49926891922950745, -0.11488103121519089, -0.8690552115440369, -0.38566848635673523, -0.9413065314292908, 0.5092265605926514, 0.6790621280670166, 0.04243326559662819, 1.0664739608764648, 0.8299077749252319, -0.06744429469108582, 0.3956483006477356, -0.39586788415908813, -0.2908778190612793, -0.4399990439414978, -1.7263394594192505, -1.438878059387207, -1.1133368015289307], [-1.1275522708892822, 0.5348978042602539, -0.3262881934642792, -0.9264116287231445, -0.00017754256259649992, 0.3093019127845764, 0.3794863224029541, 2.741354465484619, 1.941990613937378, 0.9714531898498535, 0.06020507961511612, 0.5838006734848022, 1.8045806884765625, 0.6991389989852905, 0.21517202258110046, -1.6136523485183716, 0.5323466658592224, -1.0824106931686401, 1.3819161653518677, 0.678641676902771, -0.5703994631767273, 1.5006282329559326, -0.3346397280693054, -0.8697887063026428, 0.043379515409469604, -0.3141835033893585, 1.151874303817749, -0.987605631351471, 0.5966803431510925, 1.2908973693847656, -0.42440927028656006, 0.17167149484157562, 1.103829026222229, -0.615044891834259, -1.060631513595581, 0.2711527347564697, 0.5338732600212097, 0.6484695076942444, 1.0373300313949585, 1.4595423936843872, 1.162548542022705, 0.9898548126220703, -1.2595865726470947, -1.7858991622924805, -0.6232659816741943, -0.7079716920852661, 0.021712062880396843, 1.5814331769943237, 0.08183202147483826, -0.4431218206882477, 0.7600834965705872, 1.5367883443832397, -1.0138357877731323, -0.4534870982170105, 0.11440708488225937, -0.7653312087059021, 1.2884132862091064, 0.29476234316825867, -0.5476992130279541, 0.19506537914276123], [1.405058741569519, -0.13439759612083435, -0.19903375208377838, 0.09403980523347855, -0.2484743297100067, -0.9020251035690308, 1.5640851259231567, -1.3744854927062988, -0.4224051833152771, 0.2558443248271942, -0.36376410722732544, -0.7439334988594055, -0.48032712936401367, -1.181233525276184, 0.05566060543060303, 0.5003389120101929, -0.1967923492193222, -0.8897432088851929, -0.03201017156243324, 1.472204566001892, -0.3507266640663147, 0.03579368069767952, -0.018087996169924736, -0.4766007959842682, -0.8522847890853882, -0.7665389180183411, 1.747205376625061, -0.5309162735939026, -0.027930011972784996, 1.6232587099075317, 0.28905680775642395, -0.8351127505302429, -0.715390682220459, -1.6256989240646362, -1.1046608686447144, -0.8509774804115295, 0.6874708533287048, 0.9685745239257812, -0.8765671849250793, 0.16218383610248566, 2.1296143531799316, 0.5846496224403381, 0.9127854704856873, 1.1603388786315918, 0.7183196544647217, -1.9036647081375122, -1.5889921188354492, -3.5247304439544678, 0.20403437316417694, -0.8318566679954529, -1.0087957382202148, -1.455001950263977, -0.4852007329463959, 2.023733615875244, 0.45920976996421814, -1.3225867748260498, 0.40741845965385437, -0.2613973319530487, 0.38378846645355225, -0.8780088424682617], [-0.8875265717506409, -0.43548956513404846, -1.4736589193344116, -0.5123419165611267, -1.138761043548584, -0.6330135464668274, -0.38520050048828125, -0.7956124544143677, -0.5533354878425598, 0.9681074619293213, 0.11296340078115463, 0.5592976808547974, 1.0659570693969727, 0.881746232509613, -1.0535330772399902, -1.0914709568023682, -0.8488680720329285, 0.29310500621795654, 0.45211976766586304, 1.175905704498291, -0.8187915086746216, 0.9372146129608154, 0.5955266952514648, 1.6997162103652954, -1.4439644813537598, 0.906501293182373, 1.9393726587295532, -1.006085991859436, 0.5260693430900574, -0.3751189112663269, -0.30035656690597534, 0.0785721093416214, 1.4355865716934204, -0.15677814185619354, -0.3954530954360962, 0.5142418742179871, -0.30693814158439636, -1.1727073192596436, 0.31671208143234253, -0.1606651395559311, -0.0009306776919402182, -1.2830994129180908, 0.5712459087371826, 0.2082209289073944, -1.2054866552352905, 0.2855627238750458, -2.2353782653808594, 1.4611245393753052, 0.6747048497200012, 0.9238995313644409, 0.7848578691482544, 0.9203963875770569, -0.5304920077323914, 0.18944773077964783, 0.9086129665374756, -1.517293095588684, -1.3524953126907349, -1.2800474166870117, -0.9331722259521484, 1.0067545175552368], [-0.4998567998409271, 0.8639928698539734, 0.3642496168613434, 0.5022793412208557, 0.1811220645904541, -1.3125512599945068, -1.3494089841842651, 0.5359237194061279, 0.5886862277984619, 2.2384562492370605, 0.5806586742401123, -1.1618520021438599, 1.2246173620224, 0.6105726361274719, 0.2794840633869171, -0.3351048529148102, -0.8589590787887573, 0.8086245059967041, 0.21850931644439697, 1.5126779079437256, -0.8042824864387512, -1.9922431707382202, 1.444624662399292, 2.001556634902954, -0.5305737257003784, -0.8593547344207764, 0.6785625219345093, -0.9541895389556885, 0.7144923210144043, 2.2553610801696777, -1.1217741966247559, -0.032641440629959106, 0.538813054561615, 1.5802645683288574, 0.2306189090013504, -0.5454131364822388, -0.8977175354957581, -1.5078811645507812, 0.07283218204975128, -0.7928321361541748, -0.22372782230377197, 0.9368583559989929, 0.4212501049041748, 1.3124885559082031, 0.959255576133728, -0.32680127024650574, 0.9391443729400635, -1.2640461921691895, 2.335735321044922, 0.3114355802536011, 0.3101264238357544, -0.037552300840616226, 1.916921615600586, -0.7924004197120667, 1.1572349071502686, 0.31106796860694885, -2.459162473678589, 0.14267322421073914, -0.6703148484230042, 0.11935803294181824], [-0.7306386232376099, -2.2311086654663086, -0.10698840022087097, 1.252639651298523, -0.4682224690914154, -0.6519203186035156, -1.1647489070892334, 0.68463534116745, -0.6060492992401123, -2.1985390186309814, 0.9882550239562988, 1.100327730178833, -0.009079288691282272, 0.5784915685653687, 1.1767139434814453, -0.11757554858922958, -0.25422483682632446, 0.6034508347511292, -0.5959103107452393, 0.38711193203926086, -1.2798675298690796, -0.7907541990280151, 2.0083401203155518, 1.3683689832687378, 0.21213874220848083, -0.2540683150291443, -0.2857871651649475, 0.5152176022529602, -1.4513541460037231, 0.3499439060688019, 0.13085812330245972, 1.2106765508651733, -1.9095929861068726, -0.13298475742340088, -0.4836600720882416, -1.751549482345581, 0.50087970495224, -1.4775958061218262, -0.3979448676109314, -0.7690710425376892, -1.33089280128479, 0.6042211651802063, -0.3812638819217682, -0.16813039779663086, -0.8969084620475769, -0.32867953181266785, 0.506634533405304, 0.6369597911834717, -0.5968155264854431, 1.0033855438232422, -0.4037327170372009, -0.29335230588912964, -1.292048692703247, 0.7771215438842773, 0.08431828767061234, 0.45574474334716797, 0.38880375027656555, -1.8335282802581787, -0.7706131339073181, -0.7136318683624268], [0.23266452550888062, -0.25971531867980957, -0.18363910913467407, -0.1610146015882492, -1.4146043062210083, 0.3246549069881439, -0.30482497811317444, 1.0636837482452393, -0.4725778102874756, -0.2115100771188736, 1.3976272344589233, -0.8612909317016602, 0.5790743231773376, 0.9149226546287537, 0.7966658473014832, 0.14449456334114075, 0.7222388386726379, -1.6993414163589478, 0.8137941956520081, -0.009895849972963333, 0.4445328116416931, 1.075832486152649, 1.911252737045288, -0.23564553260803223, -1.3312958478927612, 1.162448763847351, 0.6564788222312927, -0.6942073106765747, 1.3122013807296753, 0.7325626015663147, 0.11332561820745468, 1.2725703716278076, -0.34355515241622925, -1.706345558166504, -0.027409743517637253, 0.5216695070266724, 1.0899240970611572, 2.3726396560668945, -0.26585710048675537, 1.3949980735778809, -0.31899726390838623, 1.5312634706497192, 1.3397340774536133, -1.2738310098648071, -0.2306240200996399, 0.8667206168174744, 1.9733332395553589, -0.5700317025184631, 2.1350502967834473, 0.14625810086727142, 0.8200684785842896, 0.34873273968696594, -0.23882606625556946, 1.2792692184448242, -1.4371652603149414, -0.39944925904273987, -1.432926058769226, -0.5112485289573669, -0.7694118618965149, 0.5030155181884766], [-1.0517581701278687, 0.2760186791419983, -0.5754627585411072, -0.510409951210022, -0.2991557717323303, 0.16935712099075317, -1.0577207803726196, 0.435655415058136, 0.869605541229248, -0.970869243144989, 0.07119424641132355, 0.3744698166847229, -0.9393603205680847, -0.33007049560546875, -0.39795351028442383, 0.194646954536438, -1.208777904510498, 0.5009646415710449, -0.3516576886177063, -1.2361980676651, 1.4566477537155151, 1.1058815717697144, 0.9930787682533264, 0.4041197896003723, 0.6173170208930969, -0.3734159767627716, -2.0779097080230713, 2.1789889335632324, -0.14013387262821198, -0.5592519044876099, -0.8799115419387817, -0.5511540770530701, -0.3180602490901947, 0.033482592552900314, -0.9459502696990967, -1.636261224746704, 0.25087597966194153, 0.3973647356033325, -0.3754579722881317, 1.464611291885376, 0.4544987380504608, 0.11720477044582367, -0.4805382490158081, -1.5607435703277588, -0.8592627644538879, -1.2785526514053345, 0.49685484170913696, -0.4964104890823364, -0.2054855078458786, -0.7333541512489319, -1.165836215019226, -1.0378988981246948, 0.5915689468383789, 0.5935476422309875, 0.11521763354539871, 0.02499578893184662, -0.774425208568573, 0.023190150037407875, 0.11568646132946014, -0.010785720311105251], [-0.8206011652946472, 0.9693869948387146, 0.1588355451822281, -0.029013661667704582, 0.17035093903541565, -0.39422962069511414, -1.0334421396255493, -1.078762173652649, 0.5985124111175537, -0.539174497127533, 2.17932391166687, -0.5853567123413086, 0.9928449392318726, 1.1533123254776, -0.6037914156913757, -1.2439680099487305, 0.6659110188484192, 0.3736720681190491, 0.7879464030265808, -0.5126476287841797, 0.6547010540962219, 0.8760010600090027, 1.3534564971923828, 2.2783055305480957, -0.19211868941783905, 1.177993893623352, -1.2017982006072998, 0.3206866681575775, 1.8994060754776, 1.4976714849472046, 2.4521570205688477, -0.9940890669822693, -0.9720485806465149, -0.6196831464767456, 1.2379837036132812, 1.4789600372314453, 0.7023481130599976, -0.09837656468153, 0.6626289486885071, 0.20223113894462585, 0.2454802691936493, 0.8470020294189453, -0.20425204932689667, 1.5258738994598389, -1.828217625617981, 0.22142773866653442, 0.9774846434593201, 2.0294642448425293, -0.18099570274353027, 0.9602503776550293, 0.6200994849205017, -0.8288424611091614, 0.7263333797454834, -0.14489629864692688, -0.27832305431365967, -0.6559422016143799, -0.36087578535079956, -2.3459765911102295, -0.6880444884300232, 0.1979781985282898], [0.5874527096748352, -0.5536656975746155, 0.891339123249054, -0.6010404229164124, 0.19002051651477814, -0.834923267364502, -0.09582429379224777, -0.008490398526191711, 0.6453644633293152, -0.36956462264060974, 0.7756308317184448, -0.8299063444137573, 0.02689429745078087, 0.8722568154335022, -1.8884776830673218, -0.5634528398513794, 0.4000433683395386, 0.5857215523719788, -0.5058168172836304, -0.36694127321243286, -1.7176865339279175, -1.0601670742034912, -1.8355427980422974, -0.9221261143684387, -0.6054864525794983, 1.248322606086731, 0.7114712595939636, 0.8614845871925354, -1.252287745475769, -1.043239712715149, -1.2180941104888916, 0.8364660143852234, 0.24385568499565125, -0.8604717254638672, -0.6384591460227966, -0.21698765456676483, 0.3480500876903534, 0.5603986978530884, -1.24624502658844, -0.8523790836334229, 0.31975388526916504, -0.36085718870162964, -1.3406041860580444, 0.03532464802265167, 0.0608377568423748, -0.7954360246658325, 1.0493935346603394, -0.9878020286560059, 0.021755162626504898, -0.43909212946891785, 1.7293020486831665, 0.3834456205368042, -0.5608500838279724, -0.36071300506591797, -0.7443914413452148, 0.3867889940738678, 0.5340459942817688, 0.5018601417541504, -0.5322863459587097, 0.28348398208618164], [0.903329610824585, -0.6338802576065063, -1.3627817630767822, 1.2247220277786255, -0.5634077191352844, 1.0346742868423462, 2.9927470684051514, -0.1129647046327591, -0.590865433216095, 1.5955917835235596, 0.3732756972312927, -2.369014024734497, -1.5346523523330688, -0.13726012408733368, -0.44065752625465393, -0.3885415196418762, -1.0755308866500854, -0.07154905796051025, 0.7986329197883606, -0.032904885709285736, -2.3644633293151855, 2.5196738243103027, 1.4636107683181763, -1.6361931562423706, 2.3670310974121094, -0.8143890500068665, -1.334856390953064, 0.7434176206588745, -1.3593695163726807, -0.9005382657051086, -0.930674135684967, -0.8211926221847534, 0.464331716299057, 2.1743361949920654, -0.431410014629364, 2.372466564178467, 1.3116343021392822, -0.2552878260612488, -1.71991765499115, 1.020809292793274, 1.4412378072738647, 1.7375589609146118, -0.3287859261035919, 0.2815629243850708, 0.20929895341396332, -1.0356019735336304, -0.8817887902259827, -0.16961680352687836, 2.9023396968841553, 1.5244518518447876, 0.2544603645801544, -0.04657546058297157, -1.68461012840271, 1.1587152481079102, 1.7527397871017456, 0.9031826853752136, 1.173972487449646, -0.14454221725463867, 1.5242245197296143, 1.2312443256378174], [-0.44714951515197754, -0.31262755393981934, 0.007273517549037933, -0.37146395444869995, 0.008378521539270878, -0.21123985946178436, -0.3592853844165802, 0.28849560022354126, 0.19387681782245636, 0.09583999216556549, 0.8146646618843079, 1.1537023782730103, 0.5482487678527832, 0.26612040400505066, 2.2227017879486084, -0.14739765226840973, 0.5123323798179626, 2.2571797370910645, 1.1215741634368896, -0.427705854177475, -0.511376142501831, 0.24840494990348816, -0.3223557770252228, 1.2560356855392456, -0.38577717542648315, 0.19082927703857422, -0.5679351091384888, -0.34680604934692383, -0.5128993391990662, 1.0503618717193604, -0.11623763293027878, -0.015767080709338188, -0.024398086592555046, 0.7820038795471191, 0.19831298291683197, -1.4535512924194336, 0.3328043818473816, 0.4858979880809784, -2.068288564682007, -0.3560429513454437, -0.010627023875713348, 1.4810739755630493, -1.328852653503418, 1.5383697748184204, -1.3970192670822144, 0.10967807471752167, 0.4102000594139099, 0.48882874846458435, -2.6850521564483643, -0.7186908721923828, 0.2823382318019867, 0.3760294020175934, 1.4306904077529907, 0.3864743411540985, 0.7557350397109985, 0.6227296590805054, -0.31571510434150696, -0.39806678891181946, 2.963831901550293, -1.389934778213501], [0.359685480594635, 0.6192212700843811, -0.5929273366928101, 1.466498613357544, -0.13540954887866974, 0.05240312218666077, -1.1099269390106201, 0.40598854422569275, -1.4291813373565674, 0.4733197093009949, 1.6707960367202759, 1.3101646900177002, -0.10854118317365646, -0.009267503395676613, 1.3625668287277222, 1.5380734205245972, -1.0920552015304565, -1.851940631866455, -0.21451176702976227, 0.578691840171814, 1.1180554628372192, 0.09323199838399887, 1.1619545221328735, -2.144536018371582, 0.41283130645751953, -0.45785796642303467, 0.009067920036613941, 1.674729585647583, 0.32496535778045654, -0.2794932723045349, -0.2158554345369339, -1.437760591506958, 1.469368815422058, -0.5120147466659546, 1.272278070449829, 1.4386898279190063, -1.8801994323730469, -2.0591044425964355, 1.7362701892852783, -0.621200442314148, -0.6423096656799316, 0.12193033844232559, 0.17036104202270508, -0.5450947284698486, 0.8581148982048035, -0.42373576760292053, -0.6439667344093323, 0.40056008100509644, -0.3485482931137085, -1.776813268661499, -1.1605184078216553, 2.27280330657959, -0.03544515743851662, 0.15298885107040405, -0.4405006170272827, -1.8155462741851807, -0.4976671636104584, 1.1402623653411865, 0.23384806513786316, 0.051397498697042465], [0.4129866361618042, -1.2558366060256958, -0.37161985039711, 0.9150728583335876, -1.8859344720840454, -0.5806020498275757, -0.37712252140045166, -0.18866285681724548, -2.400451183319092, 1.1767433881759644, -0.23882268369197845, -0.815193772315979, 1.7147159576416016, 1.391695499420166, 1.126207709312439, 0.4351503551006317, -0.30147549510002136, -0.8972347974777222, -1.2668224573135376, 0.09849046915769577, -0.22983387112617493, 1.030160903930664, -0.95038902759552, 0.10584792494773865, -0.8377969861030579, -1.6506853103637695, -0.582190215587616, -0.7148717641830444, -1.3601493835449219, -0.31702929735183716, -0.7438514828681946, 0.39619097113609314, -2.1227495670318604, -0.2636711597442627, 1.2968212366104126, 1.3646371364593506, -1.1179035902023315, 0.03492560237646103, 0.6796337962150574, 0.1379222869873047, -0.7338893413543701, 0.36189624667167664, 0.40289729833602905, -1.2778255939483643, 0.5538341403007507, 0.48980948328971863, 1.556125521659851, 0.18186086416244507, -0.5277804732322693, -1.0709151029586792, 1.9428460597991943, -0.7739672064781189, 0.8370709419250488, -0.692449152469635, 0.058421436697244644, 0.6475427150726318, -0.8354063630104065, 0.6501999497413635, 0.046153195202350616, -0.9926563501358032], [-2.2075040340423584, -0.7056428790092468, 0.4788294732570648, -0.6482682824134827, -1.8854268789291382, 2.638063669204712, -1.2067962884902954, -1.6694163084030151, -0.16514985263347626, -0.5624265074729919, 0.09511350840330124, -0.47668612003326416, 0.9554371237754822, -1.312835931777954, -1.3032429218292236, 0.26655587553977966, 1.4811900854110718, -1.6085827350616455, 0.6616458296775818, 0.9399822354316711, -0.4441772997379303, 0.35615071654319763, -0.7961478233337402, 1.167736530303955, 1.6494642496109009, 1.0619298219680786, 0.16241805255413055, 1.6939438581466675, -1.275580644607544, 0.24406933784484863, -2.0290539264678955, -0.754947304725647, 0.840345025062561, -0.3687167167663574, -0.7088248133659363, -0.5973014831542969, 1.4939361810684204, -0.6108382940292358, -0.5767577886581421, -0.03585198521614075, -0.16952773928642273, 0.09935508668422699, -1.526340126991272, 0.24228963255882263, -0.9897019267082214, 0.6047508120536804, -1.1991761922836304, -0.24610961973667145, 1.0271964073181152, 0.15722817182540894, -0.18258358538150787, -0.6136066913604736, 0.47367843985557556, -0.4513417184352875, -1.2130439281463623, -1.931986689567566, -1.617458701133728, -0.2556290328502655, -0.13709020614624023, 2.063145399093628], [1.5026166439056396, 1.5561634302139282, -0.6383266448974609, -0.23950622975826263, 0.897625744342804, -1.775187611579895, -0.47378474473953247, 1.5449697971343994, 1.539115309715271, -1.20041024684906, -1.6357827186584473, 0.7708534002304077, -1.9264951944351196, -1.2288838624954224, -0.6671488285064697, 0.7168240547180176, -2.2982845306396484, -0.8732550144195557, -0.20398683845996857, 0.5075830221176147, -0.5166895389556885, 0.07539345324039459, 1.0726712942123413, -1.614755392074585, -0.051294632256031036, -0.10735595226287842, -0.7193819880485535, -0.6753186583518982, -1.357228398323059, 0.23373164236545563, 2.405319929122925, -2.2077836990356445, -1.2607741355895996, 0.13852709531784058, -0.17444349825382233, -0.16761809587478638, -0.8335499167442322, -0.16390685737133026, 0.7410081028938293, 0.9358605146408081, 0.589007556438446, -0.6133427023887634, -1.246526837348938, -2.3727574348449707, 0.3965264558792114, 0.4712628126144409, 0.7004590630531311, -0.03701888397336006, -0.3001762926578522, -0.4595351219177246, -1.11544668674469, 0.04167161509394646, -0.1602765917778015, 0.1435834914445877, 1.6327394247055054, -0.9645070433616638, 0.17712153494358063, 0.41585206985473633, -1.0841797590255737, -0.9029180407524109], [-0.11233048141002655, 0.44727280735969543, -1.4267277717590332, 1.294842004776001, 0.19288934767246246, 0.6620910167694092, -0.31618228554725647, 0.5080187916755676, -0.7744370698928833, 0.21452036499977112, 0.37019068002700806, -0.11323314160108566, -1.2711691856384277, -0.7191715836524963, 2.0785915851593018, 1.9351955652236938, 0.7764905095100403, -0.3002382218837738, 0.24503016471862793, -0.9350658655166626, -0.6169219017028809, -0.016635149717330933, -0.7253862023353577, 1.0118070840835571, -2.7317121028900146, -0.12259548157453537, 0.5464581847190857, -1.156476616859436, -0.6539193987846375, -0.11890953034162521, 1.1589102745056152, -1.2251625061035156, 1.6452677249908447, 0.3656288683414459, -1.5229588747024536, -1.122827410697937, 1.3522017002105713, 1.9115105867385864, -0.6429815292358398, -0.25745439529418945, 1.721899390220642, 1.086840033531189, 0.7344971299171448, -0.7836495041847229, 2.247586965560913, 0.21016480028629303, 0.6087222695350647, 0.2274579256772995, 0.009767183102667332, -0.9731484651565552, -1.2695631980895996, 1.3030704259872437, -0.1025298461318016, 0.8110111951828003, -0.560057520866394, -0.5341217517852783, -0.04725867137312889, -0.5042151212692261, 0.747968852519989, 0.5674074292182922], [0.6983317732810974, -2.392099142074585, -1.0448232889175415, -1.4688668251037598, 0.3110521733760834, -0.025288453325629234, 0.4267764389514923, 0.014857236295938492, 0.3161228895187378, 0.1556583195924759, 0.08770555257797241, 3.3763484954833984, -0.9542033076286316, -0.2354339361190796, 0.9253607988357544, 0.4272906482219696, -0.1992170661687851, 0.9087569713592529, 0.3250007629394531, -1.4808942079544067, -1.0020341873168945, 0.43964409828186035, -0.2579707205295563, -1.0454896688461304, 1.207822561264038, 0.6222586631774902, -0.023591551929712296, 1.9913299083709717, 0.14089487493038177, 1.8656643629074097, -0.22946947813034058, 0.04736091196537018, -0.591978907585144, 0.15641333162784576, 0.39910265803337097, 0.46067649126052856, -1.5364834070205688, 0.3599606454372406, -1.1597169637680054, 1.3782131671905518, 1.9585453271865845, -0.48822450637817383, 0.7401441931724548, 1.0082380771636963, 0.7153804898262024, -0.06897804886102676, -0.886780858039856, -0.10959862172603607, -1.3106262683868408, 0.7144617438316345, 0.4371090531349182, 0.07177507877349854, 0.6111037731170654, -0.415143758058548, -0.4743897020816803, -0.7743618488311768, -0.9829777479171753, 